tree
version=v2
num_class=1
num_tree_per_iteration=1
label_index=0
max_feature_idx=104
objective=regression
feature_names=item_price_mean item_price_max item_price_min item_id_mean_target_mean_scheme item_category_id_mean_target_mean_scheme month_mean_target_mean_scheme shop_id_mean_target_mean_scheme target_lag_1 target_item_lag_1 target_shop_lag_1 item_id_mean_target_mean_scheme_lag_1 item_category_id_mean_target_mean_scheme_lag_1 month_mean_target_mean_scheme_lag_1 shop_id_mean_target_mean_scheme_lag_1 target_lag_2 target_item_lag_2 target_shop_lag_2 item_id_mean_target_mean_scheme_lag_2 item_category_id_mean_target_mean_scheme_lag_2 month_mean_target_mean_scheme_lag_2 shop_id_mean_target_mean_scheme_lag_2 target_lag_3 target_item_lag_3 target_shop_lag_3 item_id_mean_target_mean_scheme_lag_3 item_category_id_mean_target_mean_scheme_lag_3 month_mean_target_mean_scheme_lag_3 shop_id_mean_target_mean_scheme_lag_3 target_lag_4 target_item_lag_4 target_shop_lag_4 item_id_mean_target_mean_scheme_lag_4 item_category_id_mean_target_mean_scheme_lag_4 month_mean_target_mean_scheme_lag_4 shop_id_mean_target_mean_scheme_lag_4 target_lag_5 target_item_lag_5 target_shop_lag_5 item_id_mean_target_mean_scheme_lag_5 item_category_id_mean_target_mean_scheme_lag_5 month_mean_target_mean_scheme_lag_5 shop_id_mean_target_mean_scheme_lag_5 target_lag_12 target_item_lag_12 target_shop_lag_12 item_id_mean_target_mean_scheme_lag_12 item_category_id_mean_target_mean_scheme_lag_12 month_mean_target_mean_scheme_lag_12 shop_id_mean_target_mean_scheme_lag_12 item_categories_tfidf_nmf_0 item_categories_tfidf_nmf_1 item_categories_tfidf_nmf_2 item_categories_tfidf_nmf_3 item_categories_tfidf_nmf_4 item_categories_tfidf_nmf_5 item_categories_tfidf_nmf_6 item_categories_tfidf_nmf_7 item_categories_tfidf_nmf_8 item_categories_tfidf_nmf_9 shops_tfidf_nmf_0 shops_tfidf_nmf_1 shops_tfidf_nmf_2 shops_tfidf_nmf_3 shops_tfidf_nmf_4 shops_tfidf_nmf_5 shops_tfidf_nmf_6 shops_tfidf_nmf_7 shops_tfidf_nmf_8 shops_tfidf_nmf_9 items_tfidf_nmf_0 items_tfidf_nmf_1 items_tfidf_nmf_2 items_tfidf_nmf_3 items_tfidf_nmf_4 items_tfidf_nmf_5 items_tfidf_nmf_6 items_tfidf_nmf_7 items_tfidf_nmf_8 items_tfidf_nmf_9 items_tfidf_nmf_10 items_tfidf_nmf_11 items_tfidf_nmf_12 items_tfidf_nmf_13 items_tfidf_nmf_14 items_tfidf_nmf_15 items_tfidf_nmf_16 items_tfidf_nmf_17 items_tfidf_nmf_18 items_tfidf_nmf_19 holidays_num weekends_num offdays_num month_is_0 month_is_1 month_is_2 month_is_3 month_is_4 month_is_5 month_is_6 month_is_7 month_is_8 month_is_9 month_is_10 month_is_11 date_block_num_float
feature_infos=[4.9148473739624023:49782] [5:59200] [-1:49782] [0.018467321991920471:18.100076675415039] [0.020511211827397346:13.012434005737305] [0.25452956557273865:0.44456690549850464] [0.060780756175518036:1.1586802005767822] [0:20] [0:12185] [0:14627] [0:17.91572380065918] [0:13.067117691040039] [0:0.44541639089584351] [0:1.1639435291290283] [0:20] [0:12185] [0:14627] [0:17.868661880493164] [0:12.993697166442871] [0:0.44426906108856201] [0:1.1589224338531494] [0:20] [0:12185] [0:14627] [0:18.101617813110352] [0:13.016819953918457] [0:0.44559910893440247] [0:1.1585735082626343] [0:20] [0:12185] [0:14627] [0:18.101617813110352] [0:13.170193672180176] [0:0.44360846281051636] [0:1.1618865728378296] [0:20] [0:12185] [0:14627] [0:18.127298355102539] [0:13.067764282226562] [0:0.44559910893440247] [0:1.1589224338531494] [0:20] [0:12557] [0:16338] [0:17.749542236328125] [0:13.121864318847656] [0:0.44621005654335022] [0:1.1558465957641602] [0:1.1620068550109863] [0:0.70671796798706055] [0:0.64920490980148315] [0:1.0577023029327393] [0:0.5563167929649353] [0:0.55965268611907959] [0:0.74222701787948608] [0:0.41090255975723267] [0:0.46599495410919189] [0:0.51811867952346802] [0:0.87028253078460693] [0:0.61002391576766968] [0:0.62915217876434326] [0:0.74828928709030151] [0:0.37434941530227661] [0:0.63573586940765381] [0:0.46524417400360107] [0:0.63160800933837891] [0:0.58779877424240112] [0:0.7099270224571228] [0:0.20976880192756653] [0:0.31545782089233398] [0:0.22542397677898407] [0:0.1673545241355896] [0:0.31002655625343323] [0:0.17171868681907654] [0:0.18789517879486084] [0:0.23002998530864716] [0:0.21768027544021606] [0:0.21499334275722504] [0:0.13709281384944916] [0:0.13768845796585083] [0:0.28368961811065674] [0:0.29135268926620483] [0:0.23734237253665924] [0:0.1856873482465744] [0:0.29843902587890625] [0:0.20681285858154297] [0:0.23770637810230255] [0:0.20024341344833374] [0:7] [8:10] [8:16] [0:1] [0:1] [0:1] [0:1] [0:1] [0:1] [0:1] [0:1] [0:1] [0:1] [0:1] [0:1] [21:32]
tree_sizes=10058 10139 10154 10165 10163 10193 10147 10189 10168 10284 10184 10166 10236 10236 10191 10184 10205 10198 10237 10223 10225 10208 10233 10314 10229 10267 10256 10240 10256 10248 10255 10295 10341 10255 10237 10265 10266 10263 10332 10223 10295 10359 10325 10301 10255 10256 10287 10280 10320 10230 10335 10223 10351 10280 10252 10273 10332 10298 10287 10313 10299 10279 10319 10271 10353 10342 10313 10258 10318 10350 10335 10291 10377 10267 10364 10357 10272 10380 10345 10389 10345 10291 10407 10410 10382 10368 10377 10396 10350 10382 10352 10400 10381 10446 10334 10337 10377 10389 10351 10353

Tree=0
num_leaves=128
num_cat=0
split_feature=3 8 8 6 15 3 35 13 13 6 8 8 35 0 3 29 53 8 6 3 8 43 6 3 35 10 10 22 3 8 10 8 0 89 43 20 15 8 45 43 13 3 6 103 63 6 8 8 8 5 10 43 81 6 8 5 103 30 6 5 3 5 2 35 35 13 10 63 5 8 8 30 0 35 6 0 10 35 79 10 15 9 6 27 9 5 63 46 35 6 43 3 35 69 3 5 5 2 12 6 8 35 8 6 63 6 100 6 54 10 15 15 5 5 10 15 8 5 10 3 3 91 3 13 9 5 85
split_gain=425645 175213 106457 72566.3 65936 55851.3 55202.9 45551.2 40712.7 28952.9 28107.3 25693.4 24570.1 24135.3 23692.3 24691.1 23290.2 20084.6 20040.5 16657.4 15788.3 10815.1 10568 10442 11712.3 9624.94 9171.37 8521.4 9810.68 8169.7 7082.6 6750.74 6667.18 6623.77 6550.14 6466.52 5660.39 5413.8 5273.78 5108.93 5040.97 4857.89 4833.32 4828.12 4656.53 4579.06 4566.71 4456.31 4418.76 4311.49 4172.21 3932.01 3873.94 3802.46 3501.59 3468.59 3457.33 3188.93 3157.03 2979.42 2909.85 4381.62 2851.77 2781.75 2747.56 2714.17 2710.62 2604.52 2535.28 2446.13 2445.79 2642.42 2377.81 2363.73 2254.37 2252.54 2212.35 2185.18 2146.65 2117.75 4092.57 2085.02 2079.91 2067.39 2036.85 2026.49 1956.73 1927.59 1894.68 1876.39 1857.43 1855.42 1740.76 4349.6 1656.89 1611.66 1604.59 1592.84 1584.56 1556.67 1534.44 1528.41 1524.18 1507.21 1499.47 1477.47 1471.77 1628.28 1467 2037.46 1453.8 1451.23 1443.45 1430.16 1413.53 1438.54 1393.66 1387.24 1366.88 1363.55 1354.13 1341.85 1309.4 1426.86 1304.45 1300.11 1299.05
threshold=1.9206305742263796 269.50000000000006 26.500000000000004 0.41078022122383123 1.0000000180025095e-35 3.7109794616699223 11.500000000000002 0.39544703066349035 0.51748836040496837 0.41078022122383123 121.50000000000001 121.50000000000001 19.500000000000004 952.00588989257824 0.31872889399528509 1.0000000180025095e-35 0.0086849115323275345 74.500000000000014 0.51857015490531932 0.99514803290367138 982.00000000000011 1.0000000180025095e-35 0.24169258773326877 0.30288800597190862 4.5000000000000009 0.85107016563415538 0.81154510378837597 1.0000000180025095e-35 0.99514803290367138 55.500000000000007 5.3410463333129892 65.500000000000014 2259.5000000000005 1.5000000000000002 1.0000000180025095e-35 0.21071130782365802 11.500000000000002 43.500000000000007 0.31551480293273931 1.5000000000000002 0.21746172755956653 0.54965102672576915 0.21514025330543521 1.0000000180025095e-35 0.27540065348148351 0.78564658761024486 9.5000000000000018 5.5000000000000009 760.00000000000011 0.41342635452747351 3.9714145660400395 1.0000000180025095e-35 0.0013000811450183394 0.21053931117057803 537.50000000000011 0.41342635452747351 1.0000000180025095e-35 3504.5000000000005 0.78564658761024486 0.41967804729938513 3.0425441265106206 0.3042238205671311 599.00500488281261 11.500000000000002 5.5000000000000009 0.21044804900884631 0.44374424219131475 0.37375180423259741 0.41342635452747351 10.500000000000002 537.50000000000011 981.50000000000011 725.53689575195324 12.500000000000002 0.21514025330543521 2866.308959960938 3.9714145660400395 5.5000000000000009 0.0453996378928423 0.67941221594810497 1.0000000180025095e-35 7291.0000000000009 0.88131076097488414 0.86217442154884349 1638.0000000000002 0.41342635452747351 0.27540065348148351 1.599409341812134 6.5000000000000009 0.21053931117057803 1.0000000180025095e-35 0.91666260361671459 1.5000000000000002 0.067736711353063597 0.59560954570770275 0.27568893134593969 0.30743573606014257 1449.5000000000002 0.31334495544433599 0.21514025330543521 7.5000000000000009 2.5000000000000004 16.500000000000004 0.20843711495399478 0.12390607409179212 0.21747931838035586 1.0000000180025095e-35 0.11986340582370759 1.0000000180025095e-35 0.12312046065926553 1.0000000180025095e-35 1.0000000180025095e-35 0.33082586526870733 0.41342635452747351 5.3410463333129892 195.50000000000003 189.50000000000003 0.41342635452747351 0.063733607530593886 0.073480151593685164 0.68396639823913585 8.5000000000000018 0.44835266470909124 0.21044804900884631 4680.5000000000009 0.30492004752159124 0.0010417660814709964
decision_type=2 2 2 2 2 2 2 2 2 2 2 2 2 2 2 2 2 2 2 2 2 2 2 2 2 2 2 2 2 2 2 2 2 2 2 2 2 2 2 2 2 2 2 2 2 2 2 2 2 2 2 2 2 2 2 2 2 2 2 2 2 2 2 2 2 2 2 2 2 2 2 2 2 2 2 2 2 2 2 2 2 2 2 2 2 2 2 2 2 2 2 2 2 2 2 2 2 2 2 2 2 2 2 2 2 2 2 2 2 2 2 2 2 2 2 2 2 2 2 2 2 2 2 2 2 2 2
left_child=2 4 9 12 5 18 8 11 20 23 29 37 26 -7 47 19 48 44 39 38 22 45 85 24 92 66 77 28 90 102 68 89 51 42 58 101 72 -6 41 43 112 -16 97 60 79 67 -17 119 84 63 -42 74 -45 -33 98 91 64 -18 125 82 78 -62 -52 116 -37 -39 -19 96 87 -29 71 -32 81 -71 -30 -44 -56 122 103 -5 -81 -27 -43 -48 -8 114 -49 -24 -31 -28 94 -46 100 -94 -25 -47 -21 -15 124 -35 -1 -13 -9 -2 -38 -96 107 -34 -26 -110 -84 -91 -22 -82 -3 -116 -12 -55 -95 -11 -57 -109 -4 -124 -10 -20 -76
right_child=1 6 3 17 7 13 16 10 54 14 49 35 -14 33 15 46 57 25 34 21 40 -23 30 27 108 36 31 69 32 88 70 53 106 99 -36 56 104 65 -40 -41 50 59 75 52 55 95 83 86 -50 -51 62 -53 -54 117 76 120 -58 -59 -60 -61 61 -63 -64 -65 -66 -67 -68 -69 -70 73 -72 -73 -74 -75 126 -77 -78 -79 -80 80 113 -83 110 -85 -86 -87 -88 -89 -90 111 -92 -93 93 118 105 -97 -98 -99 -100 -101 -102 -103 -104 -105 -106 -107 -108 121 109 -111 -112 -113 -114 -115 115 -117 -118 -119 -120 -121 -122 -123 123 -125 -126 -127 -128
leaf_value=0.28980335049883948 0.33625369205934869 0.36024670195251707 0.29740768600216638 0.32629721702493331 0.30341276388467786 0.35144310618435826 0.60038003572244991 0.30309267079599989 0.58237313942846458 0.29177052242822338 0.44338128922838016 0.33698769216604041 0.7083626586449534 0.47348199568001215 0.3323098214139229 0.29929873736732632 0.45416915838132788 0.30210184474376728 0.48753274027966254 0.4220822710333022 0.45798744341286901 0.29983846224364941 0.40525648340405923 0.29965361802634066 0.34809354906552636 0.50613971653788226 0.30326371661469975 0.29151133111181765 0.31793062016100065 0.38891336807247223 0.59781080844816747 0.31586522399491412 0.3232086069653955 0.72093298839046227 0.33881259440508016 0.36893087123668417 0.38977850835633954 0.31638013472779902 0.29791574648143321 0.293967185269704 0.48113817446972063 0.35380633749700308 0.63604035900491129 0.41938335867773074 0.34696183663059654 0.45102901617478308 0.31105948757184754 0.30063162174540498 0.82378715516524581 0.61895193892303291 0.79096466433837942 0.28999847500261944 0.5990995191797428 0.33374176944918682 0.62108004004974715 0.38620165639555226 0.44951499334680395 0.62015898483791454 0.65797028788463896 0.4588570424573204 0.39490356406531929 0.58998628898338279 0.60454495072007775 0.55136040857838065 0.4199618824594441 0.33663736855262333 0.37632425084044629 0.30416143065793588 0.53412351259958468 0.29624181525897031 0.60934090725021506 0.45463408767294333 0.44480225661173567 0.41538003802318924 0.34109678880159022 0.78979024014537935 0.77077832481654451 0.42509166508738405 0.46061128505785814 0.44571118247059405 0.33892467598099896 0.64429432623907745 0.43393287434769717 0.32812490325422916 0.75646084150561121 0.446298481601208 0.31248665030810563 0.52215146232011334 0.43614554563950481 0.35217325569511698 0.29081310682923989 0.38008891100061487 0.29741376824729576 0.34581772315296955 0.30308038095931616 0.56673537915825589 0.50613105713708018 0.61200469702877236 0.54092618966397121 0.84920505498816112 0.29250929390811448 0.37115182826010479 0.35071133050188658 0.37882509965177569 0.43175963289278474 0.3232142630885903 0.32371161468362153 0.48642144399622456 0.38601481750134525 0.51371639748722775 0.33593958593358486 0.31310568446526466 0.57254950237712188 0.37991336866490233 0.47929432124128479 0.38748247417492632 0.50661001304486597 0.36313393843986658 0.43427623803936788 0.29711998489641173 0.46698852340669605 0.40281239973904814 0.29978159497420392 0.30916743401199054 0.70048188262853561 0.59500861159830198 0.38520794156504251
leaf_count=1124845 1526 1998 40679 8288 15155 241 150 831 174 78336 956 4754 138 153 5751 26687 331 619 296 671 405 445 1363 33160 185 377 27741 193307 4019 2160 169 15758 175 153 129 4247 1310 12096 2243 607 129 2342 189 361 4264 147 20440 41290 507 242 130 2538 154 13819 144 370 738 152 246 361 544 128 171 428 1223 11721 1556 129 184 184649 276 370 405 150 2686 157 232 129 192 366 7370 133 581 9294 151 412 17990 140 1183 885 14133 2366 7091 467 7235 412 294 146 260 192 226600 1567 2224 1469 1843 6001 228 227 230 220 178 25888 131 855 182 984 467 1614 237 94757 377 723 29495 28822 163 154 774
internal_value=0 2.32271 -0.07703 0.592552 1.75814 4.65404 6.38825 1.41846 5.41099 -0.145334 3.56447 1.06464 0.3569 10.7724 0.141115 0.651234 12.4569 2.02172 3.35682 1.86319 4.57345 4.45369 3.9766 -0.193186 -0.236881 3.62128 0.346941 -0.0611456 0.254422 2.52385 5.55301 0.586504 1.10672 12.957 7.92189 2.31036 4.52919 0.66416 1.38877 2.60071 8.32879 1.72355 11.0653 2.97799 1.61002 5.63171 0.360087 -0.0124979 15.7409 6.7455 10.8792 0.825286 5.85395 0.957536 11.4743 2.27278 3.03529 6.96336 9.13497 2.65946 2.59418 4.48523 12.9184 6.22654 2.76118 0.961469 1.92318 4.44198 4.38359 -0.121153 7.97366 6.73403 6.71889 -0.0388891 1.19026 13.61 13.8647 0.139811 2.19543 1.32036 1.66827 8.15544 2.34293 0.629615 12.7058 2.87364 0.224138 3.95466 3.60408 0.374212 0.0943235 2.04262 -0.238886 0.232322 0.191007 7.9601 5.00612 8.12056 9.96883 16.4938 -0.241604 1.5984 1.34177 1.98764 3.89374 0.490119 3.1903 3.65983 4.05683 5.03138 3.78155 0.563063 6.28272 1.52268 2.60199 3.47694 5.55422 1.31035 2.60306 -0.0935397 4.31561 4.17618 0.134452 0.230506 11.3998 7.56027 1.78197
internal_count=2404032 76337 2327695 215467 67029 7037 9308 59992 8017 2112228 8491 51501 184968 1231 302348 69975 1291 30499 5806 13554 7044 2098 6078 1809880 1359875 6243 184830 450005 71899 6398 2502 85705 11370 990 825 12529 4068 38972 11456 4981 966 9213 645 4374 24256 1653 56421 232373 808 2093 430 10017 515 31191 973 7377 6208 483 696 3462 3859 672 301 1851 5470 23817 2175 1094 1687 378106 815 539 915 184799 7479 346 376 99125 3187 16879 8591 510 3101 29734 301 3576 59280 1503 3343 54514 60529 6630 1359240 7795 46396 559 965 299 597 345 1351445 6321 3055 2995 3153 13236 1353 1125 635 450 759 26773 536 8225 3164 1166 1423 15433 704 173093 747 950 98996 58317 337 450 3460
shrinkage=1


Tree=1
num_leaves=128
num_cat=0
split_feature=7 7 3 16 3 7 7 7 21 6 3 8 6 30 21 43 6 5 89 43 5 6 8 43 21 7 16 2 23 104 3 3 5 4 8 5 3 21 3 89 9 32 6 7 3 6 8 85 5 3 8 43 6 49 6 6 9 49 104 87 3 104 9 5 3 5 71 3 3 4 6 3 16 3 9 35 7 6 1 8 5 8 9 6 104 85 3 8 35 2 20 8 3 12 6 7 7 1 71 8 1 7 1 36 6 20 4 5 56 63 1 63 49 9 2 20 4 7 6 54 5 70 16 44 18 85 87
split_gain=705826 191720 153238 76180.2 72580.5 58698.4 36223.5 34288.9 31032.8 29738.7 24118.5 17984.6 16251.8 17003.5 15032.2 12548.1 9324.65 9293.33 8698.89 7613.34 7257.01 7211.83 7110.28 6917.35 6335.03 6218.15 6153.68 5819.85 5071.16 5022.89 5011.95 4961.5 4931.43 4826.63 4416.1 4259.19 4244.71 4167.48 3947.85 4015.86 3849.28 3728.46 3605.94 3538.9 3372.67 3180.75 3132.02 3050.06 3045.39 2918.88 2734.9 2539.52 2896.3 2506.82 2554.27 2323.64 2277.73 2194.68 2157.3 2153.56 2127.85 2286.66 2109.38 2074.76 2072.83 2904.06 2039.02 1989.29 1976.43 1920.6 1797.45 2276.94 3143.44 1796.94 1812.79 1748.98 1697.22 1683.97 1682.98 1671.49 1647.82 1640.68 1624.7 1617.49 1534.2 1515.7 1509.84 1491.74 1480.19 1426.54 1382.85 1362.25 1330.56 1295.11 1290.94 1290.3 1287.95 1264.38 2133.96 1262.3 1242.91 1216.51 1183.76 1182.07 1142.96 1137.11 1134.1 1129.86 1116.5 1118.37 1116.29 1110.91 1348.17 1106.45 1079.72 1078.73 1068.72 1063.31 1060.7 1049.57 1032.22 992.992 974.136 974.109 971.975 964.167 1056.51
threshold=4.5000000000000009 16.500000000000004 1.3369171023368838 1.0000000180025095e-35 3.7109794616699223 1.5000000000000002 8.5000000000000018 1.5000000000000002 10.500000000000002 0.51857015490531932 0.4346593469381333 1.0000000180025095e-35 0.41078022122383123 2413.5000000000005 4.5000000000000009 1.0000000180025095e-35 0.39436180889606481 0.41342635452747351 1.5000000000000002 1.0000000180025095e-35 0.41342635452747351 0.21514025330543521 29.500000000000004 1.0000000180025095e-35 4.5000000000000009 2.5000000000000004 2351.0000000000005 1139.5000000000002 1.0000000180025095e-35 26.500000000000004 1.7946386933326723 0.99514803290367138 0.30492004752159124 1.0746263265609743 21.500000000000004 0.42208056151866918 0.16425470262765887 3.5000000000000004 4.8032155036926278 1.0000000180025095e-35 2042.5000000000002 1.604356110095978 0.22931847721338275 19.500000000000004 2.6797474622726445 0.88131076097488414 8.5000000000000018 0.00091262362548150133 0.41342635452747351 1.6055020093917849 12.500000000000002 1.0000000180025095e-35 0.21514025330543521 0.58357213437557232 0.60074520111083995 0.20757956057786944 2114.5000000000005 1.0000000180025095e-35 23.500000000000004 0.00023494393826695162 0.89367282390594494 23.500000000000004 3383.0000000000005 0.41342635452747351 2.0506397485733037 0.41342635452747351 0.0042632436379790315 2.6797474622726445 2.2309589385986333 1.0975247621536257 0.41078022122383123 0.6726321578025819 2351.0000000000005 4.8032155036926278 3383.0000000000005 8.5000000000000018 11.500000000000002 0.51857015490531932 1798.5000000000002 107.50000000000001 0.41342635452747351 70.500000000000014 7689.5000000000009 0.88131076097488414 26.500000000000004 0.00085104833124205481 1.0348209738731386 102.50000000000001 4.5000000000000009 1093.5999755859377 0.25693112611770635 76.500000000000014 0.54965102672576915 0.29271973669528967 0.52456817030906688 11.500000000000002 1.0000000180025095e-35 792.50000000000011 0.01434226566925645 8.5000000000000018 504.50000000000006 1.0000000180025095e-35 2594.5000000000005 1.0000000180025095e-35 0.21514025330543521 0.21526554226875308 0.7362475097179414 0.42114454507827764 0.05833710543811322 0.27540065348148351 1894.5000000000002 0.37375180423259741 1.0000000180025095e-35 2145.0000000000005 2499.5000000000005 0.51773309707641613 0.24994552135467532 1.0000000180025095e-35 0.35617001354694372 1.0000000180025095e-35 0.41342635452747351 0.00039183541957754647 327.50000000000006 1198.5000000000002 0.41807571053504949 0.00084080020315013837 0.0048235370777547368
decision_type=2 2 2 2 2 2 2 2 2 2 2 2 2 2 2 2 2 2 2 2 2 2 2 2 2 2 2 2 2 2 2 2 2 2 2 2 2 2 2 2 2 2 2 2 2 2 2 2 2 2 2 2 2 2 2 2 2 2 2 2 2 2 2 2 2 2 2 2 2 2 2 2 2 2 2 2 2 2 2 2 2 2 2 2 2 2 2 2 2 2 2 2 2 2 2 2 2 2 2 2 2 2 2 2 2 2 2 2 2 2 2 2 2 2 2 2 2 2 2 2 2 2 2 2 2 2 2
left_child=2 6 5 4 9 10 17 22 38 19 16 18 28 23 48 32 46 24 27 21 37 58 -5 26 68 56 31 69 51 33 82 45 47 125 -30 41 108 81 40 -40 89 76 117 -10 97 80 -1 84 73 -50 -15 52 -12 -33 -55 -29 -7 -47 67 -41 -54 105 -27 91 87 77 -45 -4 70 -6 99 -72 -73 74 -8 -26 -16 -66 -32 94 111 -9 -19 -34 106 -31 -76 -42 -39 -3 -64 -44 119 -13 -22 -43 103 -35 110 -2 -89 -36 -65 -38 -20 121 -11 -92 109 -18 -99 112 -14 -80 -60 -83 -86 -24 -81 -58 -94 -62 -70 -77 -75 126 -23
right_child=1 8 3 7 11 25 14 20 43 15 12 93 13 50 35 -17 36 30 104 -21 79 29 42 -25 75 62 -28 55 34 85 78 53 83 44 101 -37 96 88 39 59 64 95 63 66 -46 57 -48 -49 49 -51 -52 -53 60 54 -56 -57 92 -59 114 -61 61 -63 90 102 65 -67 -68 -69 122 -71 71 72 -74 124 86 123 -78 -79 113 118 -82 115 -84 -85 116 -87 -88 100 -90 -91 107 -93 120 -95 -96 -97 -98 98 -100 -101 -102 -103 -104 -105 -106 -107 -108 -109 -110 -111 -112 -113 -114 -115 -116 -117 -118 -119 -120 -121 -122 -123 -124 -125 -126 -127 -128
leaf_value=-0.0073329741274579712 0.12937671115404459 0.22422937453959299 0.057234248211095622 0.0006457065841977425 0.26651314057968556 0.01077802668830438 0.10277701101502625 0.027223305715468733 0.36857320281939626 0.15194573206594214 0.0044224005990388228 0.15054489505290986 0.043835806408854122 0.0022411901700293397 0.18679185846416954 0.020902141722131378 -0.0039665012579771022 0.095805088570002125 0.41870756455315838 -0.0052160181654227894 0.05968404762644295 0.069984643707839439 0.0080828307724986476 0.00091148013839963257 0.10986336187552914 0.027747959230788089 0.026599195634951292 0.29300037341458457 -0.0041659800263919057 0.043033660923187826 0.18229665834951189 0.11613273641840921 0.27355327568851001 0.06867180576219277 0.001611823313944598 0.36551125929102918 0.0096229114977117326 0.054932030829012504 0.44292330976952327 0.21132579226289275 0.34643629680303006 0.25150378612456498 0.020537539138160484 0.51652891660190892 0.30183332418853581 0.086632469071368137 -0.0039475853782433906 0.30655204376349082 0.14662014712313454 0.30471905685283923 0.019563031866624569 -0.0059233832444472081 0.013645625429461091 0.13162844021172418 0.31138541056094937 0.43483855130223487 0.018310119202028484 0.17959851081213674 0.026122112606063147 0.35629620831735026 0.063495644197437931 0.022046878834374964 0.073630393317088164 0.047711255579487466 0.21280084251965345 0.45386997663436973 0.40398683660503093 0.14732662461430904 0.14897551211513507 0.11192233718931674 0.059429256885724951 0.18725410213016164 0.089089108014861085 0.26290979652450636 0.11804878358824215 0.12746970614036882 0.24399321032992127 0.3319333716571165 0.21526685613021254 0.11535629461337224 0.12183056679936501 0.042540134627215412 0.18438112414026836 0.39673540764022619 0.18862036780399433 0.096021057515489783 0.17463732363726642 0.2851701369706322 0.083624985249233758 0.099591049669786935 0.039628976151749894 0.038656699031850268 0.030299649358252821 0.019817590121936079 0.12827066768806406 0.36515758754593308 0.011093198824258603 0.16144999187376538 0.085589544819346774 0.051413280414907551 0.19771732625217547 0.0090762414670057974 0.10941696106044339 0.00049590574445108285 0.52811990859399871 0.010444609227900702 0.27570867744066735 0.076788870028659681 -0.0085578088563332561 0.0020948381167169819 0.26892699784354157 0.0049706549674039093 0.088229416403568017 0.32566015606333393 0.091189255411527587 0.077724640623104468 0.089958893163229831 0.019794816211355426 0.20672481927760811 0.070255124787045584 0.062615418405245607 0.12829631398685953 0.092890135770403462 0.18464824550482165 0.16288290330198371 0.12951173282767597 0.14417983604097129
leaf_count=1249054 197 230 1820 31517 160 20422 1416 7687 234 128 29457 140 1736 18121 1154 316 92448 741 149 1555 1019 1192 19195 1658 3301 9693 2206 189 180608 1568 452 574 383 136 64394 217 16909 4743 267 169 132 162 12665 866 165 617 306257 156 224 198 14989 9869 17832 137 148 231 15820 363 3634 203 1098 3650 1504 1321 152 133 174 251 311 132 1838 349 1849 130 784 581 784 359 160 1007 346 10585 249 128 153 704 925 255 2456 129 8880 5296 6911 133 326 202 21798 177 174 3648 343 28280 355 52188 203 288 139 803 30310 38934 171 383 954 167 245 847 279 10960 129 358 1021 264 2685 498 267 494 202
internal_value=0 5.07186 -0.0573311 1.01758 3.09271 -0.117308 4.02462 0.725328 11.8186 2.42816 -0.145241 10.1358 0.0844905 0.669148 6.04021 6.37555 -0.19327 3.25951 11.9936 1.89649 1.66299 2.19096 0.393214 1.87803 3.00794 0.816122 2.28845 9.98318 0.0109477 3.07845 5.42922 2.87658 7.68924 3.99757 -0.0478067 7.94852 -0.0150599 1.50887 9.68047 11.805 8.89709 7.54929 0.628484 15.7994 6.01853 2.44732 -0.222212 6.22036 4.82139 7.35998 0.336095 0.268025 0.355377 5.07483 7.4992 12.367 0.605001 4.03559 1.4477 9.6812 0.620203 1.17653 1.26639 0.961965 9.65889 10.9666 16.59 2.27177 2.59904 6.55432 2.33621 2.80235 3.48919 4.51723 4.26263 4.02339 6.99774 9.88322 7.32675 3.29794 1.99207 1.26469 3.93611 10.147 5.32809 1.98174 4.95592 8.50525 2.15736 5.98143 1.56225 0.862672 0.813146 2.89524 2.5436 10.4858 0.157839 5.00482 5.71237 1.84693 7.83364 0.129654 2.02605 0.0909804 16.0602 2.15346 7.21255 1.42369 -0.112255 -0.0723424 7.14207 1.75912 1.986 9.05484 1.00773 1.5049 4.16338 0.411321 4.19106 0.648653 1.14864 2.5352 3.2904 5.12866 6.52124 3.11661 2.6912
internal_count=2404032 27135 2376897 125615 15507 2251282 23489 110108 3646 14170 2185870 1337 377972 42232 6463 1682 1807898 17026 1064 12488 28799 10933 81309 9122 15257 65412 7464 712 335740 4983 1769 5258 1366 2711 273282 2519 252587 26318 2372 639 1733 2302 49792 1274 823 4399 1555311 855 3944 422 33110 62458 52589 859 285 420 44532 980 5950 372 23132 5300 20880 19637 1374 644 1040 2071 10877 292 7881 4036 2198 3522 3125 4380 1938 511 779 2481 3419 19119 990 511 699 2272 1709 730 7199 359 11187 17961 24110 273 1345 364 90895 658 522 3845 598 92674 1676 69097 352 1650 267 9683 161692 131382 348 3073 2690 327 3879 11432 432 30155 1136 16178 7932 1362 2996 1079 397 1888 1394
shrinkage=0.03


Tree=2
num_leaves=128
num_cat=0
split_feature=14 3 15 14 3 35 6 3 6 22 35 14 2 14 24 43 43 3 6 14 3 53 5 52 45 6 47 22 14 6 14 47 9 49 5 9 104 13 5 52 21 6 3 5 19 9 10 63 21 3 89 3 6 71 43 3 1 11 9 6 21 5 10 20 17 104 36 10 9 3 15 104 20 5 53 15 13 59 87 104 9 3 0 87 36 77 3 3 5 9 5 104 14 29 63 10 81 4 4 49 15 19 53 6 21 5 21 14 0 1 43 10 5 11 0 1 10 1 21 74 6 5 22 104 6 49 3
split_gain=389386 188643 120198 102473 86748.6 48529.7 44273.5 43874.5 39156.1 29482.2 27466.7 23266.6 15114.6 14951 13938.8 13426 12898.6 10520.5 10457 10109 8975.34 7906.5 7881.32 7848.92 7513.54 8190.58 7093.55 6907.32 6284.95 6013.23 5667.64 5380.7 5211.8 5055.33 5047.44 4886.46 4847.1 4836.21 4713.72 4581.67 4473.69 4275.87 4079.93 4032.38 3789.74 3545.95 4363.71 3490.64 3459.12 3368.49 3323.7 3298.63 3298.33 3227.18 3189.02 3184.6 2880.96 2771.77 3529.26 2704.16 2633.48 2509.3 2431.11 2414.14 2308.74 2294.6 2270.21 2216.24 2198.23 2190.02 2177.98 2166.63 2149.88 2089.99 2025.73 2020.48 2010.03 1930.14 1894.75 1835.35 1766.43 1758.28 1740.87 1701.71 1696.77 1719.32 1672.41 1670.49 1649.07 1647.27 1575.52 1573.47 1564.96 1466.59 1434.72 1423.97 1403.43 1383.15 1352.83 1344.32 1343.45 1313.59 1270.46 1254.41 1249.4 1242.48 1215.48 1200.02 1182.03 1133.47 1106.14 1100.63 1096.27 1085.84 1076.03 1073.32 1059.71 1052.16 1047.27 1040.92 1037.07 1030.09 1027.17 1025.35 1279.12 1023.53 1004.72
threshold=4.5000000000000009 1.3980752825737002 1.0000000180025095e-35 16.500000000000004 3.7109794616699223 14.500000000000002 0.51857015490531932 0.4346593469381333 0.41078022122383123 1.0000000180025095e-35 4.5000000000000009 1.5000000000000002 598.98437500000011 1.0000000180025095e-35 5.2332220077514657 1.0000000180025095e-35 1.0000000180025095e-35 4.8032155036926278 0.21053931117057803 10.500000000000002 0.75199696421623241 0.23726923018693927 0.33269280195236212 0.053686356171965606 1.3942905664443972 0.21053931117057803 0.32041384279727941 1.0000000180025095e-35 1.0000000180025095e-35 0.39436180889606481 1.5000000000000002 0.32306902110576635 4680.5000000000009 0.58357213437557232 0.30324137210845953 3153.5000000000005 24.500000000000004 0.062759228050708785 0.30758225917816168 0.053686356171965606 1.5000000000000002 0.60422614216804515 2.6797474622726445 0.3221947848796845 0.29225011169910436 2053.0000000000005 1.4239718317985537 0.27540065348148351 8.5000000000000018 0.16599601507186892 1.5000000000000002 3.7109794616699223 0.21514025330543521 0.0025899859610944991 1.0000000180025095e-35 0.75199696421623241 1293.136657714844 1.0852707028388979 2061.5000000000005 0.79509764909744274 7.5000000000000009 0.31685429811477667 0.12045305594801904 0.52974897623062145 0.097089443355798735 23.500000000000004 1.0000000180025095e-35 3.9714145660400395 7429.5000000000009 0.17374998331069949 26.500000000000004 26.500000000000004 0.24152898788452151 0.30235187709331518 0.23726923018693927 15.500000000000002 0.29679760336875921 0.84002950787544262 0.00019954403251176703 25.500000000000004 2135.0000000000005 2.6797474622726445 3250.2629394531255 0.0089307730086147803 1.0000000180025095e-35 0.00048411622992716735 2.6797474622726445 1.0348209738731386 0.31685429811477667 2042.5000000000002 0.33269280195236212 26.500000000000004 1.5000000000000002 2.5000000000000004 0.37375180423259741 2.2518501281738286 0.001845896535087377 1.0975247621536257 1.0975247621536257 1.0000000180025095e-35 18.500000000000004 0.30320821702480322 0.23726923018693927 0.11678231507539751 9.5000000000000018 0.33022393286228185 1.5000000000000002 1.5000000000000002 2479.4208984375005 2994.5000000000005 1.0000000180025095e-35 1.9556512236595156 0.33269280195236212 0.24400091916322711 2259.5000000000005 1293.136657714844 3.9714145660400395 1094.7000122070315 6.5000000000000009 8.2448889315855933e-07 0.80099633336067211 0.30728323757648474 171.50000000000003 23.500000000000004 0.81084784865379345 0.58357213437557232 1.7946386933326723
decision_type=2 2 2 2 2 2 2 2 2 2 2 2 2 2 2 2 2 2 2 2 2 2 2 2 2 2 2 2 2 2 2 2 2 2 2 2 2 2 2 2 2 2 2 2 2 2 2 2 2 2 2 2 2 2 2 2 2 2 2 2 2 2 2 2 2 2 2 2 2 2 2 2 2 2 2 2 2 2 2 2 2 2 2 2 2 2 2 2 2 2 2 2 2 2 2 2 2 2 2 2 2 2 2 2 2 2 2 2 2 2 2 2 2 2 2 2 2 2 2 2 2 2 2 2 2 2 2
left_child=1 7 4 10 6 14 24 13 27 15 17 40 -6 29 48 20 38 31 37 26 59 119 35 32 25 81 60 52 100 69 75 39 106 77 86 51 74 50 47 45 70 121 83 53 104 95 -47 99 67 -31 -14 -13 -9 -16 55 -54 -44 73 -59 -10 -12 122 -41 117 -25 -57 110 80 -48 -1 84 87 -72 82 -19 -11 -69 94 126 -39 -5 114 97 -36 85 -4 -27 -43 102 116 -32 103 -30 -74 123 -2 118 -20 -33 -8 -29 -62 -46 -83 -21 -76 -15 -34 111 -80 120 -82 -77 -49 -3 -105 -42 -24 -28 -7 -51 -35 -50 124 -22 -61 -40
right_child=3 2 11 5 12 21 16 8 9 30 19 22 18 23 43 -17 -18 36 57 44 33 -23 63 64 -26 34 96 28 92 49 90 98 107 41 42 -37 -38 79 78 62 89 71 56 -45 88 46 68 113 61 66 -52 -53 54 -55 -56 65 -58 58 -60 125 101 -63 -64 -65 -66 -67 -68 76 -70 -71 72 -73 93 -75 105 112 -78 -79 109 -81 108 91 -84 -85 -86 -87 -88 -89 -90 -91 -92 -93 -94 -95 -96 -97 -98 -99 -100 -101 -102 -103 -104 115 -106 -107 -108 -109 -110 -111 -112 -113 -114 -115 -116 -117 -118 -119 -120 -121 -122 -123 -124 -125 -126 -127 -128
leaf_value=-0.0075374500460711202 0.028979585084785299 0.030528899446448935 0.01826695538081087 0.05792243097088124 0.055626797138842769 0.51350880156871181 0.14677589656108714 0.0041458852137316194 0.049747392038327787 0.0046355305380219513 0.095254589166790235 0.029921300463257205 0.24804013442768846 -0.00049383080344403147 0.3824839883222676 0.0024169216722379622 0.021550978483074773 0.32496940836310384 0.39616202010178658 0.22889197157753025 0.12106090009013812 0.27748833310670484 0.062697928477051135 0.057665839517868835 -0.0044302217204615756 0.061514523612676994 0.15822897739122421 -0.0046146311888367233 0.0045768046892504721 -0.0039097434731375303 0.031774258481464708 0.12835636147069479 0.010068019441331552 0.087690144458255473 0.10335982919694736 0.069037141994459247 0.10155765415863556 0.22771549061435092 0.30330316549167036 0.099723408798638141 0.019293350400223602 0.22439587464285587 0.13407199168600231 0.47324521051140017 0.21212722872166476 0.055376757857258187 0.091131229628473212 0.32387781740009008 0.24890550729049288 0.011976695777866196 0.42391888638102526 0.060590518705095596 0.012914061566448243 0.18601188836031052 -0.0048308586369309962 0.053600947494282417 0.30644159617793298 0.24047531594615834 0.42844388662019389 0.076056196003651419 0.17187058402299882 0.3418042141684266 0.27717347536585291 0.17018575892267454 0.16062863752434525 0.024301233028579141 0.00085046222311480741 0.14895910476131932 0.18249410281347675 -0.005097112145919013 0.0093387246579475815 0.15975722941715503 0.059713574748233966 0.51943701388166963 0.1536653557921881 0.016982512251313288 0.2915822098545473 0.034262419606886758 0.18536887282476974 0.10198433713852495 0.13074444031728238 0.045647254332677641 0.4847577132445115 0.18580725630701972 -0.00044422649861311665 0.10871171606332063 0.11728866996523928 0.35411091301222919 0.27882071429446559 0.044669469466543481 0.070582125233540752 0.047698975965950657 0.014073986977718911 0.021775066897154846 0.016686004652925159 0.058897437795900523 0.29830526948808139 0.27788295206886071 0.23785904811565264 0.23046553029656408 0.00014587635191464299 0.11723171307877399 0.12962120106705913 0.10253507585385266 0.33547829192663942 0.26615255462435577 0.011803464368254283 0.022624603909373524 0.072519057561232392 0.31088773606821546 -0.00210718540398845 0.20747118586166335 0.045204933447856928 0.2149495671998011 0.064409570975707528 0.21150519205973697 0.045729526790982265 0.1060099137893548 0.25646590800060853 0.43858361194291745 0.029909326372144791 0.17146033552559939 0.15904359768670384 0.10080214742265561 0.21587414749840783 0.12123575728647976 0.40383252144392046
leaf_count=974669 3727 3642 893 303 223 506 559 37819 3940 18425 3000 17578 279 105201 149 2069 274 132 282 163 450 202 947 1133 1325 2535 267 130986 53624 145676 11434 477 20337 397 1778 4758 660 211 176 152 11049 241 166 151 287 6265 2914 231 184 10967 148 3847 17654 152 5111 3474 184 229 148 1190 750 129 128 359 237 7822 50137 230 258 501149 24104 256 1004 139 276 12665 145 358 130 207 464 134 130 258 17697 240 598 142 134 3993 1026 549 22031 10588 138 2325 161 130 129 250 90019 839 405 170 252 130 7768 10329 179 129 3459 264 1373 128 1098 156 1557 1081 154 249 3947 198 303 1207 179 727 182
internal_value=0 -0.0434485 1.19762 3.73473 3.67391 8.70185 2.80776 -0.10741 0.182126 0.957968 2.98712 0.780876 9.64327 -0.174461 6.49975 2.38725 7.10668 2.34071 10.556 4.7587 2.89373 14.8065 1.54311 0.133693 2.10487 2.36974 4.14358 0.0633628 -0.00402592 -0.200902 0.592335 2.13143 0.110971 4.1445 3.23991 1.38452 5.20132 7.93301 8.0873 2.01906 0.474698 5.78128 4.33575 11.5578 7.32176 1.94658 2.32975 6.90621 5.46101 -0.0443235 10.3 1.18094 0.341487 9.44229 0.567206 0.695773 7.48964 12.651 10.4756 2.13221 3.72648 7.47195 6.02811 3.28262 2.51592 1.1104 0.138545 4.67948 3.28541 -0.223626 0.336322 7.57752 0.48148 13.8552 7.42921 0.37228 6.80356 3.27838 10.3231 5.51505 4.02119 1.5344 12.9681 3.79358 0.0611466 1.24752 2.40534 9.08296 6.08309 0.929249 1.16566 2.73304 0.244747 0.835366 3.66582 1.3491 7.43242 11.9614 5.05554 5.7546 -0.0891866 4.76737 5.46132 4.09728 9.78714 6.32278 0.0117253 0.476579 4.71954 8.26287 0.439253 5.28561 0.658094 9.50133 1.27924 5.15601 0.751952 2.85949 6.47212 16.2933 0.557419 3.85222 6.43318 3.89955 4.93476 3.10633 11.8137
internal_count=2404032 2376437 116473 27595 16778 3610 14652 2259964 424955 56415 23985 99695 2126 1835009 2653 11492 2059 17573 1903 6412 9423 957 28570 145005 12593 11268 5171 368540 296660 1690004 44923 16375 143635 3566 5519 26183 1198 845 1785 15769 71125 1234 2386 452 1241 15489 9437 1168 2201 214186 427 21425 71880 301 34061 28950 350 1058 377 5857 4589 616 280 2387 1370 11296 68510 1585 3172 1475818 54526 639 35696 681 538 32463 375 2332 617 418 1210 5749 542 2036 18830 1133 3133 383 826 16599 12460 1009 75655 11592 1974 6052 582 412 606 809 221005 1589 692 460 415 406 112969 30666 907 259 18373 728 14038 359 4740 326 12606 2028 421 755 14914 595 487 1836 629 1917 358
shrinkage=0.03


Tree=3
num_leaves=128
num_cat=0
split_feature=7 7 7 3 16 3 21 7 6 3 7 1 6 22 21 10 43 43 6 89 21 14 45 6 3 5 5 10 22 6 5 53 8 9 104 53 21 3 9 89 10 49 59 5 32 103 3 6 8 5 7 8 43 3 6 1 6 8 49 10 104 10 69 7 16 87 1 14 5 5 3 16 71 3 3 6 14 18 1 5 6 17 5 6 10 53 3 42 8 3 6 6 10 14 6 6 3 3 5 8 7 8 69 20 6 8 73 19 26 71 8 9 6 18 3 80 3 14 78 7 87 3 104 1 58 56 63
split_gain=632944 155424 139794 68237.7 76493 63443.8 28335 24356.1 22136.9 22067.1 21687.9 16438.3 14556.9 15147.1 11356.3 11042.8 9901.73 8688.33 7735.1 7233.14 7072.72 6595.49 5907.77 5720.35 5580.86 5376.2 5241.39 4845.79 4799.04 4753.77 4408.1 4261.57 4040.48 3812.55 3708.09 3484.34 3441.33 3410.86 3396.94 3388.14 3325.27 3227.78 3215.35 3168.46 3087.93 2977.1 2903.75 2858.01 2791.35 2718.88 2655.8 2583.89 2505.01 2836.82 2440.91 2419.82 2368.88 2301.74 2254.09 2215.39 2161.22 2133.11 2106.61 2079.53 1942.48 1900.34 1855.53 1799.44 1720.12 1711.33 1676.94 1665.01 1646.07 1626.5 1577.23 1676.62 1558.79 1552.52 1519.28 1456.69 1419.3 1404.91 1388.74 1361.6 1360.83 1340.35 1598.92 1329.87 1319.54 1304.88 1282.34 1264.24 1894.68 1261.03 1244.4 1236.2 1230.75 1188.07 1173.99 1154.41 1151.17 1133.25 1122.6 1099.15 1211.64 1094.23 1068.98 1026.75 1019.66 1000.65 981.52 977.047 971.563 1067.8 1046.1 970.745 958.681 935.773 927.165 897.767 879.429 872.571 863.037 855.26 1025.04 851.821 859.792
threshold=5.5000000000000009 1.5000000000000002 16.500000000000004 1.3980752825737002 1.0000000180025095e-35 3.7109794616699223 10.500000000000002 3.5000000000000004 0.51857015490531932 0.40541039407253271 9.5000000000000018 994.00000000000011 0.41078022122383123 1.0000000180025095e-35 5.5000000000000009 1.2712508440017702 1.0000000180025095e-35 1.0000000180025095e-35 0.39436180889606481 1.5000000000000002 4.5000000000000009 1.5000000000000002 1.3942905664443972 0.21053931117057803 0.99514803290367138 0.41342635452747351 0.41342635452747351 3.9714145660400395 1.0000000180025095e-35 0.20757956057786944 0.41342635452747351 0.23726923018693927 18.500000000000004 2105.0000000000005 26.500000000000004 0.3898006826639176 3.5000000000000004 0.13822263479232791 3383.0000000000005 1.0000000180025095e-35 2.2518501281738286 0.58357213437557232 0.84002950787544262 0.41342635452747351 1.604356110095978 1.0000000180025095e-35 2.6797474622726445 0.60074520111083995 29.500000000000004 0.41342635452747351 1.0000000180025095e-35 16.500000000000004 1.0000000180025095e-35 0.89367282390594494 0.80099633336067211 3594.5000000000005 0.41078022122383123 105.50000000000001 1.0000000180025095e-35 1.5996140837669375 23.500000000000004 0.39677916467189794 0.08384342119097711 19.500000000000004 1056.5000000000002 0.00023494393826695162 2749.7724609375005 1.0000000180025095e-35 0.41342635452747351 0.27928501367568975 1.6055020093917849 1.0000000180025095e-35 0.0019965997198596601 0.15823892503976825 4.8032155036926278 0.53987810015678417 7.5000000000000009 0.17142667621374133 3194.5000000000005 0.41342635452747351 0.21053931117057803 2.2293589115142827 0.32928638160228735 0.21053931117057803 2.2518501281738286 0.3898006826639176 2.6797474622726445 7.5000000000000009 97.500000000000014 1.691140413284302 0.21514025330543521 0.41078022122383123 0.66003036499023449 6.5000000000000009 0.24028817564249041 0.81084784865379345 3.0425441265106206 1.0348209738731386 0.41342635452747351 9.5000000000000018 19.500000000000004 50.500000000000007 0.062854796648025527 0.062778510153293623 0.27059936523437506 57.500000000000007 3.4505423172959133e-05 0.26144564151763922 0.29930034279823309 0.0015412763459607961 70.500000000000014 2135.0000000000005 0.51857015490531932 0.045844987034797675 0.50760734081268322 8.1830667113536054e-06 3.7109794616699223 1.5000000000000002 0.024392468854784969 11.500000000000002 0.00035462390223983681 0.57020187377929699 22.500000000000004 994.00000000000011 0.03674650005996228 0.05833710543811322 0.27540065348148351
decision_type=2 2 2 2 2 2 2 2 2 2 2 2 2 2 2 2 2 2 2 2 2 2 2 2 2 2 2 2 2 2 2 2 2 2 2 2 2 2 2 2 2 2 2 2 2 2 2 2 2 2 2 2 2 2 2 2 2 2 2 2 2 2 2 2 2 2 2 2 2 2 2 2 2 2 2 2 2 2 2 2 2 2 2 2 2 2 2 2 2 2 2 2 2 2 2 2 2 2 2 2 2 2 2 2 2 2 2 2 2 2 2 2 2 2 2 2 2 2 2 2 2 2 2 2 2 2 2
left_child=1 3 10 9 5 8 27 15 22 18 20 -7 28 17 49 38 42 24 50 29 45 48 23 85 54 36 56 33 52 72 76 63 -30 -4 35 82 89 125 117 109 -27 -26 69 44 119 84 78 -43 -6 74 73 -15 53 83 79 -31 57 -17 -56 -51 71 102 -52 -8 -63 -41 100 -34 110 106 -47 80 -13 -1 75 101 -22 -58 123 -14 -55 -32 -25 -11 91 -5 122 -78 -28 112 -21 99 -93 -38 -50 -39 -36 -77 -66 -2 -35 -12 -40 104 -91 -79 -10 -94 -33 -29 -23 -72 -9 114 -114 120 -59 -3 -70 -16 -71 -60 -87 -37 -125 126 -20
right_child=2 7 6 4 21 11 31 25 16 12 14 19 13 51 43 26 -18 -19 37 90 30 68 -24 34 41 40 88 39 32 55 81 108 67 66 96 46 93 95 61 65 -42 47 -44 -45 -46 70 -48 -49 94 59 62 -53 -54 60 58 -57 77 116 121 -61 -62 64 -64 -65 98 -67 -68 -69 118 115 111 -73 -74 -75 -76 97 87 105 -80 -81 -82 -83 -84 -85 -86 86 -88 -89 -90 103 -92 92 107 -95 -96 -97 -98 -99 -100 -101 -102 -103 -104 -105 -106 -107 -108 -109 -110 -111 -112 -113 113 -115 -116 -117 -118 -119 -120 -121 -122 -123 -124 124 -126 -127 -128
leaf_value=-0.0074055066572921045 0.14749235495237203 0.011209976331606898 0.15103912422344798 0.028108400420281062 -0.00099599642180636682 0.046986883667302241 0.37396516484684411 0.035027232529970566 0.15135654692026509 0.001312822018258491 0.19075776699444522 0.28499385217786766 0.03976670978357303 0.0036748552612596692 0.18429608279628598 0.026766764775216275 0.021035978437765782 0.00021080515231744658 -0.0041686513727945866 0.39021581092051094 0.11365522407007531 0.018675601419896253 -0.0047452743578765347 0.06427174382395559 0.097330272510828764 0.08964048131952794 0.064624783281246101 0.45747036669108015 -0.0043171066598767837 0.30476711624223768 0.16663885203914508 0.39997414081142496 5.3190418384314184e-05 0.23621268885087793 0.046948480764774488 0.060788179896973271 0.071630615462256603 0.001478731668726113 0.018906251511302232 0.20346743265749606 0.18086008809691617 0.11046620413451128 0.11076023331713027 0.36243300964049796 0.32291604424173181 0.10977322237551213 0.27922756631544093 0.29047777545079589 0.0083030458509825052 0.15189000279388645 -0.0012992358728973062 0.019749714098168974 -0.0058396640205833862 0.031693243688832105 0.062956498513273826 0.46228259296579793 0.16152744353556905 0.041537708829212892 0.09852308845845982 0.30576026511248638 0.013814642298012098 0.082402242587753596 0.050269252911210059 0.50107597333817355 0.03126467665093606 0.33394090194368986 0.19950749394141815 0.0076611706220085802 0.052798792233385107 0.33860636395461197 0.14731028920700473 0.0054936223672461633 0.14596038641422712 -0.0053142707912730795 0.19889860631075984 0.12151596094633257 0.14083777370832823 0.04333285838551347 0.21802516771411454 0.095761703042647778 0.072303599135229046 0.28926043901241677 0.14252229620368426 0.011772197847496012 0.10629003569505301 0.081785074717968503 0.12799195076738085 0.21182427355074182 0.10954757049249539 0.077762856532801058 0.50835749614806403 0.059023746568858622 0.15933294701079528 0.105688420637937 0.020808216635324606 0.0087901652749021019 0.11906627714153258 0.18641032680172112 0.064382483144881014 0.055381042205185686 0.30917142324115177 0.10002969507014367 0.072525439453917526 0.060121702217208424 0.18730325905405557 0.074667926402072468 0.26026437960166965 0.099573425429108547 0.29261541967518456 0.35772230284449891 0.033773697616430648 0.24665818589298347 0.05055191817307713 0.048856834723769199 0.12821578067645295 0.20853159987651135 0.065502646715184062 0.023691460897974723 0.13738412485902127 0.23483859880407409 0.25197310638354209 0.17470653517580612 0.032422877634167055 0.10367702386136782 0.19704914611848917 -0.0082152529544867615 0.0015246986965741717
leaf_count=914219 130 25646 315 2975 24790 203 135 4395 213 24886 138 128 3924 25324 575 11812 276 2206 79930 147 1827 9063 1357 924 741 1400 1213 164 187526 262 135 208 81712 274 1508 185 3411 75344 13244 179 484 142 193 187 275 500 151 180 22128 165 72792 13961 11218 1664 1007 132 131 5804 256 172 9503 815 720 816 10093 229 275 42549 1134 237 186 965 191 528071 358 430 1186 2366 162 468 1449 223 262 20371 2075 477 273 297 1143 302 189 1000 324 1372 10589 28756 248 620 1065 2110 672 1213 361 3651 130 1741 131 1285 129 202 6770 171 297 3532 329 138 2027 6850 130 703 190 287 961 295 165 29148 34039
internal_value=0 -0.0466633 5.61893 -0.101086 0.76657 3.04834 11.2601 1.15118 2.30131 -0.135572 4.37258 9.80318 0.0674491 0.583531 6.14822 0.919194 6.05753 1.7377 -0.185128 11.3972 3.62256 0.382024 1.78074 2.08718 2.28273 2.16445 1.45763 9.16458 0.0019041 9.59457 4.76731 15.0183 -0.0512367 8.13644 2.9819 3.86435 1.99089 -0.0211118 0.675938 11.2049 3.76916 4.39304 7.39904 8.19231 7.72405 3.08291 5.28278 7.03646 0.219902 4.99941 -0.211878 0.312917 0.238409 0.320977 1.9052 11.918 1.31724 1.17095 2.98408 7.68077 0.721811 0.948544 -0.0264719 16.1011 1.25638 9.2233 8.93666 0.0886096 0.927334 8.18612 4.84111 1.33077 6.72494 -0.221328 4.67189 4.37994 4.40678 1.9953 4.52969 1.52445 1.68653 8.10068 2.7186 0.200693 2.8653 1.34254 2.04776 5.16847 2.88063 1.71743 15.2224 2.57529 3.04842 2.71334 0.41168 0.116613 1.90446 5.32782 1.14752 2.02423 9.60132 3.64324 0.677633 2.18253 3.69088 1.8872 6.42767 3.72023 11.9626 13.4139 0.837712 6.49657 1.4954 1.84191 3.04563 9.25675 1.59136 0.461367 2.04994 7.06995 10.0019 4.62632 1.62656 3.84205 4.57231 -0.12129 -0.0822742
internal_count=2404032 2384149 19883 2280535 87177 12573 3598 103614 11321 2193358 16285 1252 430339 48496 4836 84311 1378 9211 1763019 1049 11449 74604 9943 8586 7005 19303 26237 2310 381843 713 3668 1288 311787 1536 3900 2144 17419 247217 58074 774 1884 1063 1102 1740 1553 7781 958 322 57507 3096 1515802 39285 70056 58838 5942 394 23881 19643 1550 337 13581 25578 73512 951 11973 408 1221 124261 17097 909 857 4078 319 1442290 2759 2401 3310 4238 807 4392 3113 358 1186 45257 6924 4686 1711 1483 2356 12636 336 4849 2609 4783 32717 104100 1756 1050 11158 2240 946 1351 13605 4083 432 4107 344 1609 337 366 15833 357 8553 4158 626 565 7831 32496 1264 1278 427 543 1438 645 460 143117 113969
shrinkage=0.03


Tree=4
num_leaves=128
num_cat=0
split_feature=7 7 3 16 3 7 21 7 7 6 3 0 6 30 44 21 3 5 104 6 7 72 8 5 6 7 44 3 3 91 8 22 5 5 16 0 21 10 72 72 6 6 13 2 58 0 8 91 7 46 49 35 44 3 3 6 44 6 10 42 104 12 104 5 8 7 52 4 13 6 57 10 16 18 13 3 24 5 6 57 7 3 16 13 7 85 4 10 18 8 52 8 8 6 1 36 5 5 16 6 6 7 6 69 13 1 35 35 49 10 21 20 3 104 7 85 103 104 53 3 0 13 104 73 4 10 2
split_gain=592072 159803 126857 61664.8 57973.1 49659.7 30954.4 29362.4 23663.4 22837.1 19724.8 16666.2 14530.9 11538.6 11335.6 10279.2 7307.06 7184.92 7163.81 7061.26 6444.21 6187.65 6161.88 6002.13 5779.15 5402.1 5268.78 6771.85 5216.19 4310.35 4034.56 3720.96 3718.36 3666.04 3540.8 3480.15 3410.95 3340 3969.84 3288.96 3283.03 3254.93 3251.56 2888.66 3151.2 2848.15 2688.23 2655.74 2644.71 2609.07 2574.56 2470.64 2440.86 3204.71 2408.73 2376.24 2231.41 2357.33 2135.4 2120.15 2010.17 1986.63 1931.97 1875.35 1829.49 1774.21 2193.43 1752.79 1740.79 1707.37 2391.12 2166.23 2192.94 1599.09 1591.29 2231.83 1574.09 1563.83 1556.66 1837.01 1549.23 1496.56 1620.03 1464.04 1459.57 1411.27 1400.21 1391.59 1842.82 1372.18 1368.59 1352.75 1325.36 1311.69 1302.02 1301.23 1466.3 1295.91 1287.6 1272.58 1267.46 1236.17 1235.5 1231.8 1184.66 1183.54 1161.66 1132.26 1066.41 1054.36 1050.87 1024.44 1011.12 990.8 976.867 973.873 919.431 880.833 1128.15 868.829 826.515 826.294 821.809 817.317 815.919 806.385 795.634
threshold=4.5000000000000009 14.500000000000002 1.3369171023368838 1.0000000180025095e-35 3.7109794616699223 1.5000000000000002 9.5000000000000018 1.5000000000000002 8.5000000000000018 0.51857015490531932 0.32291875779628759 952.00588989257824 0.41078022122383123 2413.5000000000005 3506.0000000000005 4.5000000000000009 2.0506397485733037 0.41342635452747351 23.500000000000004 0.11877664923667909 19.500000000000004 0.00011392317901481876 27.500000000000004 0.41342635452747351 0.39436180889606481 2.5000000000000004 3506.0000000000005 0.6726321578025819 2.6797474622726445 11.000000000000002 26.500000000000004 1.0000000180025095e-35 0.41342635452747351 0.27592718601226812 2351.0000000000005 3695.884399414063 3.5000000000000004 3.9714145660400395 0.05454580299556256 0.10141590982675554 0.78564658761024486 0.78564658761024486 0.22893005609512332 420.50000000000006 0.03674650005996228 2866.308959960938 12.500000000000002 8.5000000000000018 19.500000000000004 1.599409341812134 1.0000000180025095e-35 8.5000000000000018 1.0000000180025095e-35 0.75199696421623241 0.095549494028091445 0.21514025330543521 1.0000000180025095e-35 0.21514025330543521 5.3410463333129892 6.5000000000000009 28.500000000000004 0.29910944402217871 23.500000000000004 0.33269280195236212 107.50000000000001 1.0000000180025095e-35 0.042491113767027862 1.3415201306343081 0.51748836040496837 0.51857015490531932 1.0000000180025095e-35 0.67941221594810497 2351.0000000000005 0.045591562986373908 0.52950996160507213 1.0348209738731386 2.2178566455841069 0.30384168028831487 0.52456817030906688 1.0000000180025095e-35 1.0000000180025095e-35 0.41723914444446569 2351.0000000000005 0.36035479605197912 2.5000000000000004 0.00094110611826181423 0.2672391682863236 0.44374424219131475 0.10763882473111154 68.500000000000014 0.053686356171965606 9.5000000000000018 107.50000000000001 0.81084784865379345 1493.7261352539065 1.0000000180025095e-35 0.29944252967834478 0.30698232352733618 2413.5000000000005 0.52456817030906688 0.21982949972152713 19.500000000000004 0.79509764909744274 0.032093960791826255 0.39256839454174047 3299.5000000000005 3.5000000000000004 10.500000000000002 0.58357213437557232 5.3410463333129892 4.5000000000000009 0.24005114287137988 0.15258400887250903 23.500000000000004 1.0000000180025095e-35 0.00020797371689695868 1.0000000180025095e-35 26.500000000000004 0.45727492868900305 0.64720523357391369 849.26110839843761 0.26499406993389135 24.500000000000004 0.00014180762809701267 0.89099398255348217 0.10107717290520669 1093.5999755859377
decision_type=2 2 2 2 2 2 2 2 2 2 2 2 2 2 2 2 2 2 2 2 2 2 2 2 2 2 2 2 2 2 2 2 2 2 2 2 2 2 2 2 2 2 2 2 2 2 2 2 2 2 2 2 2 2 2 2 2 2 2 2 2 2 2 2 2 2 2 2 2 2 2 2 2 2 2 2 2 2 2 2 2 2 2 2 2 2 2 2 2 2 2 2 2 2 2 2 2 2 2 2 2 2 2 2 2 2 2 2 2 2 2 2 2 2 2 2 2 2 2 2 2 2 2 2 2 2 2
left_child=2 8 5 4 9 10 20 22 16 18 24 -6 30 26 33 58 59 51 28 -13 76 48 -5 36 65 68 27 73 55 39 31 52 49 86 41 56 84 38 111 45 97 77 114 -30 -45 -21 -15 -39 -8 107 -43 104 53 -12 -26 -4 57 -20 74 69 -37 -40 100 89 99 112 -67 95 90 70 -2 -71 120 102 -10 -76 92 -29 79 -27 -32 -70 -83 -49 -9 117 -11 -80 -89 -44 119 -33 -3 -56 -19 96 124 -35 -77 -25 -55 -23 -14 -102 109 -65 -38 -17 -104 -18 -66 -22 -1 -60 -24 -42 -48 118 -59 -7 -73 -96 -52 -87 -57 -72 -94
right_child=1 6 3 7 11 25 21 23 15 14 12 19 13 46 -16 32 17 94 35 29 37 101 42 64 54 78 -28 34 43 -31 80 91 -34 40 -36 60 106 47 61 -41 115 50 63 44 -46 -47 116 83 -50 -51 122 -53 -54 62 93 67 -58 85 113 -61 -62 -63 -64 105 110 66 -68 -69 81 71 125 72 -74 -75 75 98 -78 -79 87 -81 -82 82 -84 -85 -86 123 -88 88 -90 -91 -92 -93 126 -95 121 -97 -98 -99 -100 -101 103 -103 108 -105 -106 -107 -108 -109 -110 -111 -112 -113 -114 -115 -116 -117 -118 -119 -120 -121 -122 -123 -124 -125 -126 -127 -128
leaf_value=-0.0072036073464011429 0.050982227146727163 0.25658309713943511 0.048813409022292732 -0.00034260798760611617 0.053167918834850371 0.0062366116343850718 0.36769933692149576 0.027497539640940896 0.1014370510589596 0.19490053731840676 0.003513196165756485 0.14122833575208071 0.033692479338459251 0.0018996334160468317 0.014278768077492713 0.1679766430590014 0.079044129509266398 0.16832368004660003 0.022592451347258628 0.18454500208661032 0.35048011952114194 0.25999716861948774 0.0067695179573243154 0.051152077032627079 -0.0046248872606653021 0.023766554195398207 0.00039178688940592107 0.05858157486951613 0.090116242528325161 0.44983827900069373 0.0017779867046264074 -0.0056763077808751209 0.32354372586886365 0.15826745236500872 0.030349464439143277 0.19585899683531752 0.048784894612959942 0.41608372599596066 0.1173560790985477 0.39572769913381461 0.27149173561451229 0.11407880258334188 0.017296409213568814 0.12885207848795333 0.32913506162310802 0.36215593335055213 0.01386562772864682 0.24322570256006559 0.4792407605677883 0.28305208012952909 0.28451900195272173 0.1454449281056969 -0.0062243604013767512 0.024138080400392097 -0.00036582755229186891 0.025768796223473837 -0.003969372078642115 0.051862547686446603 0.26376320031374245 0.13308366934534685 0.06541103268550201 0.23931686318744727 0.013284809626186677 0.048202084018848838 0.10318095568385581 -0.0019437182908925525 0.052405140792300714 0.16882504558448608 0.016492510028880972 0.059903286193885352 0.074922062760839847 0.19682086816101563 0.088935210092603703 0.014668247071283228 0.10392325246550455 0.24044233684083571 0.25950511577917496 0.12087809046411382 0.031193555188536098 0.073733446690108104 0.0094558075639717565 0.094752768890813299 0.030853106338859897 0.37000573542667553 0.044193764582928424 0.15651757498124713 0.077063970238760049 0.10650632791011462 0.047875152181802501 0.034337453895319545 0.066949025375309903 -0.0017829179490650364 0.17833185511094557 0.0064777132809397571 0.20473273795527905 0.0044472394709938147 0.11661130554518823 0.24370710002688262 0.15429295151621988 0.11769809389846367 0.052403773897475206 0.36386587768697176 0.048690980654391869 0.14846260470743397 0.12269484610413309 0.14140092561190776 0.073088180584409315 0.22102979056953506 0.1047466683748058 0.11866671530675645 0.17305870734438297 0.26948788316263966 -0.0054550340030454199 0.15712023715266868 0.017891214968893059 0.37372116161171687 0.035204731407754139 0.03454520857638825 0.14208202028024378 0.017265878678460057 0.107050673196863 0.30237577761165224 0.17879724192263111 0.078463087499750936 0.11347219718258772 0.16568011276030067 0.11007452332480273
leaf_count=891528 4178 151 1932 29509 247 15205 248 10547 1773 156 36165 157 3461 29506 344 1248 2999 334 3675 214 271 185 20048 1061 104589 10032 2560 1092 205 310 75124 152129 232 362 803 178 4151 252 194 245 230 497 12208 130 155 131 19404 228 837 273 128 1066 14729 1931 90496 332 1332 454 134 521 264 316 7167 1728 860 58846 676 260 10468 2245 144 254 2749 2768 668 219 256 543 4607 709 34522 376 7097 128 8518 152 217 533 5089 6526 398 170144 552 34938 156 163 895 286 544 342 1450 233 921 131 1079 132 3086 510 457 757 250 292 446785 189 11012 132 2005 1565 172 11136 145 156 137 587 134 227 213
internal_value=0 4.64286 -0.0530637 0.925038 2.78456 -0.10763 10.1927 0.661 3.58254 2.20297 -0.13337 9.16778 0.0289218 0.476132 5.61294 5.32871 2.98817 3.81674 1.73503 10.896 8.2579 13.8655 0.353126 1.52819 -0.188978 0.749326 1.303 1.60857 2.79993 11.9755 -0.0293316 -0.0776571 6.99213 6.89069 2.82906 1.20049 1.38711 9.51281 8.45175 10.3892 7.88011 3.43789 0.561384 5.8667 7.92593 8.39952 0.259049 11.3854 15.1249 6.55889 5.14483 3.47012 0.147593 0.259238 -0.0420972 2.39554 1.0484 1.28651 4.26142 2.46972 3.93148 6.4308 0.740572 0.869507 3.00471 -0.213149 -0.0442157 3.22771 0.552806 2.36667 1.91545 2.74727 3.28248 1.09515 4.01437 4.79881 6.45798 2.64236 1.16804 0.90216 0.139845 0.793778 1.13561 9.62698 1.16524 1.95558 4.21156 1.44724 1.78112 0.774422 0.391122 -0.120693 5.84531 0.051345 6.98292 2.8183 3.13808 6.53256 5.96733 2.24579 1.34818 10.5965 1.44192 2.0121 3.1663 1.82721 1.97161 6.11225 2.24271 2.90099 3.96397 10.2824 -0.220662 6.71207 0.357087 10.2923 0.528803 1.55252 2.55504 0.363313 5.47325 8.45181 7.66209 3.15059 1.69961 4.34844 5.3109
internal_count=2404032 27156 2376876 125594 15616 2251282 4356 109978 22800 14312 2185632 1304 557774 64282 1727 5790 17010 6547 12585 1057 2853 1503 81163 28815 1627858 65650 13367 10807 4206 900 493492 383846 2263 1383 3200 8379 26302 1681 1073 590 1010 2397 51654 490 285 345 50915 608 1085 2031 762 5901 61573 46844 230023 3716 7937 6605 3527 10463 442 510 10679 20594 2513 1397835 59522 1784 44680 9942 4549 5393 3148 7607 3204 1431 1172 1635 20970 10741 109646 17941 7473 356 19065 2930 373 10229 5622 18734 26739 322273 916 125434 646 1524 1361 648 763 1403 3512 418 4839 1581 4835 1860 7237 1758 1378 3756 1110 563 1338313 323 31060 362 21409 2191 626 26341 399 312 265 739 466 371 765
shrinkage=0.03


Tree=5
num_leaves=128
num_cat=0
split_feature=7 7 3 15 3 7 7 21 7 6 3 2 6 29 43 21 5 14 6 14 43 6 5 7 10 43 7 15 21 3 14 85 5 22 7 89 6 8 3 49 10 6 5 8 89 5 2 5 46 89 10 8 43 6 52 13 6 1 3 87 10 14 39 3 21 14 3 2 3 14 5 42 14 8 8 35 7 31 5 13 10 15 6 6 49 2 7 13 10 57 15 15 6 7 5 56 1 3 1 13 21 43 21 1 58 5 6 85 14 89 15 14 8 3 5 6 15 3 71 69 2 8 27 79 87 14 5
split_gain=558518 152417 118839 57811.7 57293.7 46928.7 27966.2 27562.1 24943 22573.5 18809.5 14206.1 12484.6 12141.8 10681 9753.38 7925.64 7106 6205.88 6106.82 5862.78 5509.46 5356.22 5340.61 5147.35 5101.07 4930.44 4908.7 4732.09 4498.4 4342.04 4046 4015.41 4007.91 3728.57 3564.45 3523.45 3444.23 3405.49 3341.3 3270.98 3020.89 2878.49 2801.46 2651.73 2640.61 2611.21 2426.27 2351.52 2292.31 2200.04 2180.39 2119.04 2518.03 2105.96 2015.98 1991.04 1915.04 1857.63 1834.98 1831.27 1827 1775.99 1764.72 1726.08 1711.24 1686.14 1677.09 1649.46 1640.57 1628.4 1551.55 1521.07 1519 1510.85 1461.71 1460.27 1385.13 1361.61 1350.47 1975.89 1898.59 1311.96 1281.66 1372.56 1276.1 1237.23 1227.96 1478.19 1208.75 1207.15 1178.81 1171.41 1167.29 1165.29 1088.55 1063.29 1058.89 1055.25 1041.03 1012.21 1000.93 997.223 995.59 991.586 1123.41 990.87 961.394 946.239 933.921 870.42 856.957 853.436 982.623 830.601 827.19 1244.64 1367.27 808.512 802.221 801.518 798.226 812.609 792.747 786.483 781.079 779.821
threshold=4.5000000000000009 15.500000000000002 1.3369171023368838 1.0000000180025095e-35 3.7109794616699223 1.5000000000000002 1.5000000000000002 10.500000000000002 8.5000000000000018 0.51857015490531932 0.41195176541805273 598.98437500000011 0.41078022122383123 1.0000000180025095e-35 1.0000000180025095e-35 5.5000000000000009 0.41342635452747351 1.0000000180025095e-35 0.21514025330543521 1.5000000000000002 1.0000000180025095e-35 0.21053931117057803 0.41342635452747351 2.5000000000000004 2.105412602424622 1.0000000180025095e-35 19.500000000000004 1.0000000180025095e-35 4.5000000000000009 0.75199696421623241 3.5000000000000004 0.00091262362548150133 0.30324137210845953 1.0000000180025095e-35 19.500000000000004 1.5000000000000002 0.39436180889606481 20.500000000000004 2.6797474622726445 1.0000000180025095e-35 3.9714145660400395 0.69460830092430126 0.27969378232955938 27.500000000000004 1.0000000180025095e-35 0.41342635452747351 1054.4600219726565 0.41342635452747351 1.599409341812134 1.5000000000000002 1.9556512236595156 14.500000000000002 1.0000000180025095e-35 0.22525426000356677 0.053686356171965606 0.51748836040496837 0.68396389484405529 3594.5000000000005 0.68396639823913585 7.9272387665696456e-05 2.2518501281738286 18.500000000000004 0.24391005933284762 0.13998192548751834 4.5000000000000009 2.5000000000000004 2.6797474622726445 1449.5000000000002 4.8032155036926278 1.5000000000000002 0.41342635452747351 4.5000000000000009 1.0000000180025095e-35 7.5000000000000009 107.50000000000001 3.5000000000000004 2.5000000000000004 0.13738646358251574 0.30526958405971533 0.51748836040496837 0.67941221594810497 5.5000000000000009 0.58914086222648632 0.79509764909744274 0.58357213437557232 194.05999755859378 11.500000000000002 0.52950996160507213 0.91542989015579235 1.0000000180025095e-35 1.0000000180025095e-35 1.0000000180025095e-35 0.35617001354694372 1.0000000180025095e-35 0.41342635452747351 0.10522306337952615 1293.136657714844 2.4536402225494389 792.50000000000011 0.52406588196754467 3.5000000000000004 1.0000000180025095e-35 4.5000000000000009 3694.5000000000005 0.017562547698685375 0.32675734162330633 0.35086658596992498 0.00085104833124205481 9.5000000000000018 1.0000000180025095e-35 3.5000000000000004 11.500000000000002 39.500000000000007 2.2309589385986333 0.41967804729938513 0.39436180889606481 1.0000000180025095e-35 0.50760734081268322 0.0051012670155614623 0.032093960791826255 1649.5000000000002 120.50000000000001 0.51789733767509472 6.6542586864670752e-05 0.0089307730086147803 1.0000000180025095e-35 0.41342635452747351
decision_type=2 2 2 2 2 2 2 2 2 2 2 2 2 2 2 2 2 2 2 2 2 2 2 2 2 2 2 2 2 2 2 2 2 2 2 2 2 2 2 2 2 2 2 2 2 2 2 2 2 2 2 2 2 2 2 2 2 2 2 2 2 2 2 2 2 2 2 2 2 2 2 2 2 2 2 2 2 2 2 2 2 2 2 2 2 2 2 2 2 2 2 2 2 2 2 2 2 2 2 2 2 2 2 2 2 2 2 2 2 2 2 2 2 2 2 2 2 2 2 2 2 2 2 2 2 2 2
left_child=2 8 5 4 9 10 19 26 16 20 17 -6 33 25 31 47 28 36 35 43 21 66 30 69 62 27 64 29 60 83 76 42 97 52 -9 67 73 -35 124 120 46 85 -11 -5 -42 48 104 68 86 57 -49 -15 53 -12 55 -19 82 -20 -55 -46 79 -36 -18 -38 99 94 -4 -13 87 90 121 -30 -39 -1 106 -32 -8 101 -68 89 -81 98 -44 -14 -85 -41 -17 112 -89 -2 -7 114 102 -45 115 -67 -80 103 -82 -3 -76 -65 -26 -23 -28 -106 -24 -99 -73 -70 -62 -50 -10 -114 119 -25 117 -117 -48 -60 -31 122 -21 -109 -34 -53 -92
right_child=1 7 3 6 11 23 22 34 15 14 12 18 13 51 -16 45 24 54 49 70 -22 32 74 65 92 -27 40 -29 71 39 75 -33 38 37 61 -37 63 72 -40 41 44 -43 56 93 59 -47 118 50 111 -51 -52 125 -54 58 -56 -57 -58 -59 91 -61 110 -63 -64 77 -66 95 78 -69 109 -71 -72 108 -74 -75 100 -77 -78 -79 96 80 81 -83 -84 84 -86 -87 -88 88 -90 -91 126 -93 -94 -95 -96 -97 -98 107 -100 -101 -102 -103 -104 -105 105 -107 -108 123 -110 -111 -112 -113 113 -115 -116 116 -118 -119 -120 -121 -122 -123 -124 -125 -126 -127 -128
leaf_value=-0.0067539820157076665 0.045963366956348117 0.13866478626119139 0.031399076900811715 -0.0015836398136721834 0.039954921909462864 0.027831059860285893 0.025906311180334762 0.32722521434066359 0.17121676543294342 0.11597736956273999 0.0037272462369936045 0.12734660145939525 0.041246216728769498 0.0026736477129889569 0.014738716098657187 0.16515891980974587 0.089430920119517171 -0.0013136624384358898 0.2914110500907221 0.017055393717722432 -0.0050663968570092135 0.043793857306377762 0.048887864126061852 0.019731876280617493 0.15498108046975928 0.00097507644946808391 0.30322491437791432 0.021167602792074938 0.096460967495846817 0.071199919951052876 0.050289755887016507 0.3097906709369655 0.091311010964203507 -0.0038404162736803485 0.36885527455689993 0.35525653895337761 -0.0041791992378754847 0.00024940994791139214 0.2154214372385074 0.038860301044187508 0.39971404561377832 0.25484866877907719 0.21902967532254899 0.0071413170341250547 0.19896286909696675 0.31343638886135111 0.21864032599078329 0.14246283871214835 0.224030846710815 0.46801850289420077 0.28528302356875018 0.0089205406700630062 -0.005530553627631332 0.0095664752159849813 0.04970668812836606 0.0068047312874342314 0.27368282518641768 0.42989456983975 0.027033021234743708 0.33721122730265157 0.13745262757209795 0.46683444690734244 0.18113147472270016 0.012872968626837631 0.28185382686374938 0.045533881883305871 0.050124275729690908 0.26136651585529208 0.22079994534997091 0.026142264111213679 0.057214925901818488 0.12140022424609898 0.0077568966834988956 -0.004315994293569411 0.09377611423749356 0.078392460412347958 0.042635548198835832 -0.00069731436902377637 0.067677976945201848 0.051957550757039526 0.1969271509217963 0.081396589351192941 0.10372747490122433 0.055105083909565512 0.12650187314271924 0.15161468704901512 0.21850825906207591 0.096033781206591382 0.15872613639685662 0.11515769079912545 0.0090497871597202736 0.0089645110715278666 0.27920459425691008 0.018274378714937256 0.053461291399683981 0.10224995715198694 0.18394954499776486 0.060391510924417267 0.094715677026896636 0.21157455304209874 0.15613643356985341 -0.0034596703016263916 0.24624680865427542 0.1199908975790064 0.16735407801486871 0.28970368210460756 0.10379369516581506 0.18601021843452523 0.18467813770024394 0.13328643400757836 0.084669781534101513 0.32998104836259567 0.068817068135266987 0.11723977500699309 0.060475263020193029 0.036984139916527527 0.029035801954221362 0.11182113220726382 0.1212221861834363 0.082563591013189219 0.14217879057684066 0.038015022000143721 0.036873097932371104 0.084679514128477004 0.15411488181164507 0.023280949416113965 0.025798067000249159
leaf_count=1154727 3719 377 5068 26633 199 4185 10885 308 129 405 33386 198 2610 22202 331 1009 886 84672 251 11889 1530 2195 968 7463 283 1840 498 2473 3230 1083 4623 266 1608 193286 217 161 129070 69562 255 128 297 220 208 23201 151 202 171 240 129 190 163 5586 10778 13630 815 40791 306 140 5793 202 315 813 242 13642 160 5077 567 146 219 10896 1354 847 37319 287213 779 2604 8259 56644 131 1834 224 1797 155 685 375 307 639 544 896 242 26772 2432 185 13355 1614 324 154 361 153 331 335 4488 174 166 128 143 426 137 284 220 2619 147 829 692 880 552 5533 365 139 244 165 2682 2208 141 202 8746 2760
internal_value=0 4.52031 -0.0513561 0.895023 2.7052 -0.104184 0.640894 10.2731 3.54001 2.12602 -0.129185 9.09921 0.0627994 0.551444 5.57823 5.28277 2.92022 -0.174008 10.5225 0.340693 1.66508 1.92052 1.48624 0.729588 4.92333 1.53461 8.3734 1.87812 2.68794 2.39843 1.35343 6.83478 2.68616 0.00104532 13.9602 7.95844 -0.191549 -0.0483586 3.75935 3.64609 9.34967 5.47514 5.97001 0.193896 11.1218 7.00836 8.28212 4.34976 6.64725 12.7512 6.67429 0.285401 0.221909 0.299593 0.0546024 0.044194 7.24379 11.3665 0.554359 9.26913 2.3358 14.8731 3.63681 -0.0684873 6.42874 1.14637 1.26546 6.1409 4.08431 0.534077 0.852245 3.56832 0.0956918 -0.208946 2.88273 2.01385 1.10412 0.0537564 2.56708 2.08712 2.49637 3.14126 5.65987 1.75148 2.67878 3.94788 6.19482 3.82662 4.50141 1.67303 0.425064 0.897664 7.18377 0.373619 0.977717 1.63121 4.35018 1.94745 5.18154 5.75837 3.75097 0.29433 6.32433 1.63837 9.26983 7.7305 2.18889 3.08944 4.57632 5.89812 3.01122 9.34869 3.2377 3.02825 1.10822 0.88441 1.14669 2.22573 5.83198 0.975914 2.68614 0.767117 0.671981 4.4872 3.27734 0.589463 0.353835
internal_count=2404032 27027 2377005 125672 15471 2251333 110201 3935 23092 14186 2185792 1285 413730 46420 1671 6058 17034 1772062 1086 81322 12515 10985 28879 65541 1770 9886 2597 8046 15264 5573 26371 1340 5065 367310 1338 505 1645784 300167 2065 1903 1729 655 1074 63189 650 2126 1079 3932 1924 581 403 36534 67143 56365 126278 125463 669 391 22979 353 10903 1030 1128 203844 868 20928 5920 344 3529 44613 18133 4361 106881 1441940 2508 7227 19144 74774 852 7969 4008 2174 363 3670 1060 435 1648 3090 1440 3961 33717 9349 642 36556 15527 5401 285 3000 377 708 1114 18130 457 2361 769 271 1394 639 1131 439 2934 276 1650 1521 6917 13913 6450 917 310 6037 1248 16779 14097 278 1810 14332 29532
shrinkage=0.03


Tree=6
num_leaves=128
num_cat=0
split_feature=7 7 7 3 16 3 35 7 0 3 6 7 6 23 3 43 43 14 3 24 14 6 3 45 5 103 6 3 3 23 5 5 5 8 89 9 14 6 6 9 3 104 8 57 8 8 52 6 7 89 49 0 53 9 6 43 6 8 2 85 78 3 104 3 32 3 89 2 3 16 5 104 6 2 3 46 85 13 5 17 104 0 69 5 2 5 37 52 6 3 13 6 53 3 4 5 3 18 53 2 85 6 8 12 3 16 14 12 8 104 0 4 91 6 50 8 13 5 6 8 14 5 6 55 63 5 49
split_gain=525226 130739 112476 57705.7 65414.8 54771.8 21804.9 20314.3 19077.4 18479.1 17374 14689.4 11854.5 12438.2 9399.16 8339.35 7603.23 7367.96 6760.41 6324.21 5630.78 5534.33 5197.76 5015.54 4977 4962.97 4788.79 4624.66 4362.19 4147.35 3887.52 3827.95 3763.16 3628.02 3512.98 3468.72 3405.88 3396.67 3329.19 2929.45 2912.64 2650.72 2581.02 2416.78 2408.99 2399.69 2363.61 2324.96 2322.42 2318.43 2312.36 2281.56 2266.82 2202.15 2192.5 2085.6 2375.97 2056.61 2037.8 1995.62 1958.33 1930.63 2006.75 1923.15 1909.76 1846.45 1824.63 1810.72 1737.95 1672.77 1640.54 1638.24 1612.34 1563.07 1557.86 1539.26 1522.04 1479.78 1448.56 1425.19 1394.32 1397.71 1367.05 1364.95 1357.6 1327.44 1324.08 1220.39 1463.07 1215.07 1614.2 1176.67 1171.14 1330.12 1163.76 1148.79 1131.43 1094.06 1062.9 1948.17 1546.03 1055.5 1062.92 1047.72 1044.74 1038.71 1031.53 1025.35 1005 993.768 991.01 988.044 987.31 970.78 968.327 949.589 1277.84 944.079 939.916 932.015 919.758 904.676 897.433 895.625 1654.54 888.633 872.405
threshold=5.5000000000000009 1.5000000000000002 15.500000000000002 1.3980752825737002 1.0000000180025095e-35 3.7109794616699223 8.5000000000000018 3.5000000000000004 952.00588989257824 0.4346593469381333 0.51857015490531932 9.5000000000000018 0.41078022122383123 2413.5000000000005 1.2424107193946841 1.0000000180025095e-35 1.0000000180025095e-35 1.0000000180025095e-35 4.8032155036926278 2.2178566455841069 1.5000000000000002 0.21514025330543521 2.2309589385986333 1.3942905664443972 0.41342635452747351 1.0000000180025095e-35 0.21053931117057803 0.79648745059967052 2.0506397485733037 1.0000000180025095e-35 0.41342635452747351 0.30404068529605871 0.41342635452747351 26.500000000000004 1.0000000180025095e-35 2080.5000000000005 19.500000000000004 0.39436180889606481 0.80099633336067211 2114.5000000000005 3.0425441265106206 28.500000000000004 17.500000000000004 0.0036274277372285728 17.500000000000004 29.500000000000004 0.053686356171965606 0.41078022122383123 19.500000000000004 1.5000000000000002 1.0000000180025095e-35 2365.7099609375005 0.3898006826639176 4680.5000000000009 0.51857015490531932 1.0000000180025095e-35 0.22427015006542209 105.50000000000001 620.50000000000011 0.0010417660814709964 0.00063219422008842241 0.93945324420928966 23.500000000000004 0.6726321578025819 1.604356110095978 0.59560954570770275 1.0000000180025095e-35 1093.5999755859377 0.13505122065544131 2351.0000000000005 0.41967804729938513 26.500000000000004 0.88131076097488414 748.25000000000011 0.16238735616207126 1.599409341812134 0.0019519052002578976 0.39544703066349035 0.41342635452747351 0.58180466294288646 23.500000000000004 3695.884399414063 0.069394648075103774 0.33159868419170385 1449.5000000000002 0.41967804729938513 1983.5000000000002 0.053686356171965606 0.39436180889606481 4.8032155036926278 0.52950996160507213 0.68012806773185741 0.041961826384067542 2.6797474622726445 0.89099398255348217 0.41342635452747351 1.070578992366791 0.16997363418340686 0.45727492868900305 420.50000000000006 0.00094110611826181423 0.53031912446022045 179.50000000000003 0.27272309362888342 1.5427919030189516 1018.0000000000001 1.0000000180025095e-35 0.28631287813186651 57.500000000000007 25.500000000000004 1757.6760253906252 0.89099398255348217 8.5000000000000018 0.12277159467339517 0.14730914123356345 65.500000000000014 0.52950996160507213 0.41342635452747351 0.68012806773185741 8.5000000000000018 18.500000000000004 0.41342635452747351 0.32136027514934545 0.43191359937191015 0.37375180423259741 0.41342635452747351 1.0000000180025095e-35
decision_type=2 2 2 2 2 2 2 2 2 2 2 2 2 2 2 2 2 2 2 2 2 2 2 2 2 2 2 2 2 2 2 2 2 2 2 2 2 2 2 2 2 2 2 2 2 2 2 2 2 2 2 2 2 2 2 2 2 2 2 2 2 2 2 2 2 2 2 2 2 2 2 2 2 2 2 2 2 2 2 2 2 2 2 2 2 2 2 2 2 2 2 2 2 2 2 2 2 2 2 2 2 2 2 2 2 2 2 2 2 2 2 2 2 2 2 2 2 2 2 2 2 2 2 2 2 2 2
left_child=1 3 11 9 5 10 18 14 -7 17 23 22 29 16 39 38 27 37 35 42 45 49 43 26 47 75 80 72 78 55 64 76 101 119 73 67 -8 74 59 -3 51 -42 -13 54 -15 -6 53 57 -37 84 -33 83 -53 -19 -2 56 -11 -16 -36 71 -60 -58 105 -56 107 82 -23 112 -39 -65 120 111 125 -20 -1 77 -29 -24 87 91 94 -82 -41 98 -10 89 123 88 -9 90 -44 -67 -50 -94 -5 -47 -90 -49 100 -100 -28 102 -30 113 -87 -63 -35 -21 -99 -54 -34 -12 -4 -96 -72 -26 -117 -71 -52 -31 -22 -81 -27 -70 -125 -14 -74
right_child=2 7 6 4 20 8 36 28 21 12 15 19 13 44 24 -17 -18 46 34 30 70 66 25 -25 115 122 40 31 32 33 -32 50 110 106 58 48 -38 68 -40 65 41 -43 85 -45 -46 95 -48 97 92 -51 118 52 109 -55 63 -57 61 -59 60 -61 -62 62 -64 69 -66 79 -68 -69 86 117 114 -73 126 -75 -76 -77 -78 -79 -80 121 81 -83 -84 -85 -86 104 -88 -89 96 -91 -92 -93 93 -95 103 -97 -98 108 99 -101 -102 -103 -104 -105 -106 -107 -108 -109 -110 -111 -112 -113 -114 -115 -116 116 -118 -119 -120 -121 -122 -123 -124 124 -126 -127 -128
leaf_value=-0.006786968403501791 0.058256496749455607 0.010487004264081869 0.24730094195604327 0.041114209482900482 -0.00098607619679955821 0.033867876706644894 0.33556934136795014 0.034198857043172166 0.14610084675228707 0.0043597612137573636 0.13426829340745036 0.24759026172024579 0.033659567275028862 0.003604842785066118 0.023775593189432093 0.015930156434486059 -0.0004147711991094502 -0.00035405681110959995 0.47686735197565611 0.223029339837757 0.022425394411763402 0.3488658401524683 0.096766629824701175 -0.0047073329085170626 0.051133221596246579 0.19145662754995399 0.033931734278798101 0.060752416372735339 0.05295410448770458 -0.0055917870746940357 0.35385856033553581 0.11590418860039342 0.12816983748061309 0.0017245849701274674 0.34619982962626866 0.19649507880107397 0.4487288446329078 -0.0041361121079718935 0.27845051088160971 0.018362408448564935 0.26929994954244929 0.095404870804519412 0.08904114359391184 0.15437699371829597 0.0204826895918237 0.0096249720853322073 0.052966639871921128 0.14194179928344966 0.30873587409180869 0.35592674202893088 0.17266118271838898 0.064815901494393605 0.22493442377987061 0.0096177107094379335 0.063381955330973933 -0.0052158992626940544 0.012659434362182202 0.043379392902645753 0.13723172362314331 0.26993252703043469 0.29574800580127597 0.077878715110808586 0.02166707205736932 0.17038298420956269 0.26054313381973859 0.05151971259304567 0.45951098907610466 0.067551396694064 0.0048502207858138208 0.093195176070007726 0.0474450872236803 0.080825239037387545 0.062017974100372623 0.34816850366173907 -0.0047607213072598424 0.17427084111930247 0.16592251301883792 0.13790362241698612 0.079423698203472615 0.028159772288641464 0.020890050221192006 0.10638525544497809 0.065738032526764148 0.12098534888629844 0.27146605807368629 0.13641320109301786 -0.00075986833004419393 0.11045382935511457 0.047249202755710214 0.19506599502637981 0.14068597683054637 0.13399691222446425 0.20104509348608554 0.29658633451924815 0.054823734377478728 0.029327766733750316 0.075719078000471812 0.040488853457667846 0.044570182696739333 0.17654458086426766 0.093406972472967448 0.10010935252544792 0.082874461583883022 0.026292469973200994 0.25411774453277197 0.0097835752054264667 0.0091056691276656873 0.16047035303670398 0.069931989552434612 0.12303984592826861 0.21454238079186808 0.22847385075009824 0.13457600527947755 0.15005916208002831 0.12004511497801329 0.08439278794802256 0.17731870788756501 0.16193464280926353 0.28152794229560085 -0.0015130314336693647 0.10194782833822748 0.056944209790666965 0.28307505907847524 0.015592584543479424 0.094971483513653518 0.083409068533502384 0.12270479959010896
leaf_count=928435 2619 24196 150 1013 24809 240 355 5649 157 31802 205 179 3010 23133 12283 277 2039 107239 133 330 15695 318 2598 1313 720 303 1655 1136 2351 86334 156 454 387 43280 193 567 735 125957 338 22281 137 186 1030 412 11343 29772 808 128 445 138 149 292 188 24482 1259 10146 17566 7923 135 136 146 1097 3193 342 326 586 232 157 16488 2062 1029 237 599 235 540187 359 139 1129 1350 8120 2889 183 562 333 154 142 59927 264 4434 192 1156 212 300 233 145 2925 1753 2469 237 175 516 1049 1959 151 130 247 28107 826 1807 159 173 196 131 287 197 1634 145 197 137 121210 132 1118 141 4042 251 362 331
internal_value=0 -0.042558 5.12879 -0.0924554 0.706063 2.82435 9.92981 1.0564 9.13467 -0.124142 2.12925 3.94576 0.0745352 0.570561 0.843944 5.44039 1.66516 -0.166542 8.46388 5.48325 0.351296 11.058 3.34441 1.66275 1.32878 4.17646 1.94233 2.2071 1.97978 0.0125909 7.04695 3.45731 2.69515 -0.0401034 10.8379 7.45585 13.7291 -0.184498 6.66333 0.61366 2.76361 5.63874 4.57786 2.79744 0.305262 0.201646 0.0604369 1.19224 8.16005 8.45297 5.2665 2.50238 4.21373 0.0499774 2.64811 0.242066 0.320352 1.04875 9.03812 5.51991 7.31975 0.572182 1.15372 3.12727 6.54713 0.80801 13.1846 4.97185 -0.0644643 3.61836 0.855946 4.77855 1.62152 13.1561 -0.201389 3.83143 2.40727 3.64093 1.66496 1.16553 1.26003 0.866101 0.650933 2.12736 6.93929 4.32961 0.050097 1.55534 1.50791 4.09024 3.8784 2.4477 9.09358 8.09369 2.01828 0.379585 1.84386 1.85061 1.88171 3.35424 1.60226 2.4374 2.21845 3.14389 6.4223 2.17881 0.154357 5.9443 1.76438 5.9415 5.16176 6.01046 6.49165 3.93645 1.97036 2.6734 3.06556 3.30632 7.49369 -0.10699 0.769621 1.05478 7.35172 0.267606 0.674455 1.30001 2.78724
internal_count=2404032 2384229 19803 2280676 87046 12487 3915 103553 1239 2193630 11248 15888 385814 42832 84184 1389 8356 1807816 2825 4467 74559 999 11421 9859 27109 4530 8546 6317 19369 342982 1638 2015 5919 278931 842 1983 1090 1675287 1112 57075 3878 323 2829 6891 34476 57506 132529 24610 1545 449 740 3555 639 131721 6479 64051 53905 20206 474 774 281 22103 4537 3860 1482 32879 550 438 206665 2601 17053 638 4302 368 1468622 4086 1275 3727 13450 10036 4668 3072 22843 2916 311 2650 80708 12100 11836 2378 2186 798 978 533 1596 32697 6187 4404 2583 412 2171 5359 4310 583 272 1344 71387 1156 4276 347 560 401 281 432 1226 2499 1779 2259 286 207544 15827 9238 444 20781 4293 3372 930
shrinkage=0.03


Tree=7
num_leaves=128
num_cat=0
split_feature=7 7 3 16 3 7 7 21 6 7 46 0 7 3 43 7 6 32 21 6 10 5 7 104 7 5 6 85 3 104 21 43 3 52 3 6 70 5 89 6 53 6 6 22 2 6 63 5 72 49 72 71 3 18 21 89 72 10 58 21 0 49 57 6 10 17 5 3 4 46 5 21 0 3 21 104 3 21 5 91 104 104 3 7 73 13 5 21 21 56 7 12 3 2 1 1 72 5 13 3 6 16 10 85 3 5 63 5 104 6 6 3 12 21 17 0 0 19 10 13 63 16 49 18 56 21 52
split_gain=496656 135637 105927 50267.7 54835.7 37046.4 30794.7 28362.6 25380.4 16663.2 14085.5 14057.7 12145.6 8332.29 7612.43 7574.79 7087.32 7747.05 6695.64 6406.26 6326.33 6249.38 6024.48 5973.21 5842.49 5675.52 4947.35 4559.02 4211.09 4107.75 3889.2 3742.44 3937.05 3258.28 3062.16 2972.56 2852.08 2955.6 2716.86 2640.68 2637.62 2479.13 2410.37 2358.46 2352.85 2331.68 2748.94 2314.72 2284.88 2246.54 2211.38 2204.26 2158.74 2076 2026.1 1965.02 2258.72 1936.76 1860.36 1821 1801.9 2129.91 1795.05 2301.57 2237.07 2248.9 1774.17 1744.66 1724.42 1715.13 1672.9 1583.36 1528.74 1512.41 1511.1 1500.35 1489.19 1457.84 1424.89 1394.67 1352.16 1347.46 1337.17 1296.79 1290.86 1280.02 1228.72 1168.65 1164.19 1151.27 1142.16 1125.85 1091.64 1073.1 1067.89 1052.27 1049.84 1036.13 1014.87 1685.72 991.512 1106.23 1155.31 979.38 965.002 960.585 946.61 941.689 924.877 913.987 859.325 831.035 819.224 772.155 769.502 765.24 756.615 750.727 746.309 739.873 720.223 903.952 948.201 715.201 706.253 700.377 1060.51
threshold=4.5000000000000009 13.500000000000002 1.1100789904594424 1.0000000180025095e-35 3.7109794616699223 1.0000000180025095e-35 1.5000000000000002 10.500000000000002 0.51857015490531932 8.5000000000000018 0.18089779466390613 952.00588989257824 2.5000000000000004 0.2957886159420014 1.0000000180025095e-35 19.500000000000004 0.39436180889606481 0.045565389096736915 5.5000000000000009 0.21514025330543521 2.105412602424622 0.41342635452747351 19.500000000000004 23.500000000000004 1.0000000180025095e-35 0.41342635452747351 0.41078022122383123 0.0010417660814709964 2.6797474622726445 23.500000000000004 2.5000000000000004 1.0000000180025095e-35 0.54965102672576915 0.053686356171965606 0.29217778146266943 0.81084784865379345 0.028872806578874591 0.41342635452747351 1.5000000000000002 0.78564658761024486 0.23726923018693927 0.21053931117057803 0.39436180889606481 1.0000000180025095e-35 255.14499664306643 0.21641001850366595 0.37375180423259741 0.41342635452747351 0.0082249119877815264 1.0000000180025095e-35 0.10141590982675554 0.011465934105217459 0.52675083279609691 0.045591562986373908 1.0000000180025095e-35 1.0000000180025095e-35 0.10141590982675554 5.3410463333129892 0.03674650005996228 4.5000000000000009 2648.4882812500005 0.58357213437557232 0.0036274277372285728 0.41078022122383123 0.67941221594810497 0.6643633544445039 0.41342635452747351 3.0425441265106206 1.0869972705841067 1.599409341812134 0.41342635452747351 1.5000000000000002 2762.1535644531255 4.8032155036926278 3.5000000000000004 23.500000000000004 0.59560954570770275 8.5000000000000018 0.33269280195236212 8.5000000000000018 23.500000000000004 23.500000000000004 2.4536402225494389 2.5000000000000004 0.001676616433542222 0.51748836040496837 0.41342635452747351 1.0000000180025095e-35 2.5000000000000004 0.05833710543811322 2.5000000000000004 0.29131689667701727 1.6055020093917849 294.64500427246099 1798.5000000000002 1469.5000000000002 0.00011392317901481876 0.27928501367568975 0.52136701345443737 1.0348209738731386 0.39436180889606481 1486.5000000000002 0.41801711916923529 0.00091262362548150133 0.6615779995918275 0.41342635452747351 0.27540065348148351 0.41342635452747351 28.500000000000004 0.21053931117057803 0.11794014275074007 0.077385213226079955 0.28541885316371923 1.0000000180025095e-35 0.43229456245899206 2365.7099609375005 3695.884399414063 0.29975743591785436 3.3430758714675908 0.52950996160507213 0.37375180423259741 1486.5000000000002 1.0000000180025095e-35 0.64608740806579601 0.35313831269741064 1.0000000180025095e-35 0.042491113767027862
decision_type=2 2 2 2 2 2 2 2 2 2 2 2 2 2 2 2 2 2 2 2 2 2 2 2 2 2 2 2 2 2 2 2 2 2 2 2 2 2 2 2 2 2 2 2 2 2 2 2 2 2 2 2 2 2 2 2 2 2 2 2 2 2 2 2 2 2 2 2 2 2 2 2 2 2 2 2 2 2 2 2 2 2 2 2 2 2 2 2 2 2 2 2 2 2 2 2 2 2 2 2 2 2 2 2 2 2 2 2 2 2 2 2 2 2 2 2 2 2 2 2 2 2 2 2 2 2 2
left_child=2 9 5 4 8 13 24 22 14 20 27 -6 26 42 23 75 43 31 66 38 62 77 59 28 54 30 33 29 45 35 90 32 -18 52 -28 93 37 48 50 70 -17 116 125 76 -30 110 68 69 82 -41 -13 85 124 104 -5 56 -21 -53 -46 79 61 -31 63 -2 -65 -66 73 103 -47 112 120 -26 -70 98 -27 -9 -15 117 -55 97 -51 109 114 -32 -29 -50 -67 -45 100 106 -8 -79 -68 -10 -23 -76 -77 -3 -11 -100 -14 102 -102 -43 -36 -54 -44 -73 -105 -78 -4 -35 -20 -19 -24 -112 -25 -22 -85 -81 121 122 -34 -75 -7 -1 -127
right_child=1 7 3 6 11 12 25 15 10 18 -12 19 88 16 -16 40 17 113 47 55 21 94 36 41 71 74 34 84 44 60 83 -33 39 111 53 -37 -38 -39 -40 49 -42 67 89 87 58 46 -48 -49 51 80 -52 57 105 78 -56 -57 -58 -59 -60 -61 -62 -63 -64 64 65 86 92 -69 72 -71 -72 107 -74 123 95 96 81 91 -80 119 -82 -83 -84 118 -86 -87 -88 -89 -90 -91 -92 -93 -94 -95 -96 -97 -98 -99 99 -101 101 -103 -104 108 -106 -107 -108 -109 -110 -111 115 -113 -114 -115 -116 -117 -118 -119 -120 -121 -122 -123 -124 -125 -126 126 -128
leaf_value=-0.0062856601186676488 0.04778257189805965 0.14848900530352185 0.01612546841611065 -0.00045249548148404179 0.05001212082803249 -3.4860385220270235e-05 0.022262240520426444 0.36933554219632919 0.12271977521388269 0.08504367575940891 0.010892919504896122 0.11530882569435141 0.01979311882592381 -0.00062278124396533381 -0.0058943265599589196 0.44644573987382874 0.023294732647481071 -0.00051149011765174736 0.20071227045021425 0.25424179367721078 0.10052514975386709 0.16089023103035907 0.31156709561554286 0.018124539032227025 0.013390192193084537 0.067147675342891469 0.0070789647241938768 0.3292802982032299 0.0681106937398996 0.07931691767882755 0.03918494303268806 -0.0018109265307077957 0.038662758758966638 0.042306721423062847 0.040794859328607914 0.34666746009499405 0.13767117779172258 0.37152970510667982 0.32735927005451693 0.068125446658197378 0.33219243199397358 0.038326759358391513 -0.0029147611046185639 -0.0042449145702973526 0.13504655348137021 0.086702117564941186 -0.0095350113981648495 0.29082910594021955 0.13932050939941201 0.22583523978106676 0.26953087040236484 0.21226156780618782 0.0063424251708316427 0.01602614842808325 0.0094356378741431123 0.44008407784774239 0.41490892361743104 0.36933757590976629 0.2829909530231221 0.24180049278988289 0.22286309798550791 0.20758649757735326 0.11968512534710754 0.053886339588179566 0.15961050316904679 0.07758700639392177 0.13193365022114509 0.12230597617653807 0.11213584600234186 0.25588313951904595 0.1169785511175425 0.024402431167804901 0.23891455835471037 0.22587237103027291 0.081466418727938347 0.29909782411062968 0.0092421573473676858 0.15562827468897947 0.039262639432064074 0.10913905138010159 0.11440845488471241 0.0033865317932162005 0.35791035741219451 0.052775190667242608 0.21207388302472366 0.24039916144972817 0.14445651923161948 0.00014191105936115598 0.046327393552377298 -0.0076945177288589529 0.036729336210941536 0.098485852717130909 0.23800839515001382 0.21656416850721638 0.23900952156097025 0.15189067628959124 0.20426341172895934 0.23923613756602752 0.084825181464027413 0.15218424128933181 0.031642187402844427 0.030656093355879321 0.095390651542480095 0.10359847961273654 0.097192170855487148 0.02041980388695577 0.0022682513723999691 0.055035510426330515 0.044334344205731638 0.028878670772286678 0.044814239351647647 0.10978651377344779 0.15060272124149496 0.008178943092411458 0.22538403474940705 0.090077854155511644 0.065474836190516597 0.076153147136108254 0.075421102510976556 0.16783707998724207 0.0047030745927690116 0.00759645813425477 0.08576293079133876 0.13760382286276937 0.044260504553868221 -0.0030524264444449596 0.044213348015831683
leaf_count=1240278 4236 193 646 50038 248 100854 11541 142 164 1343 564 208 7423 52046 2790 816 5667 23343 426 180 2124 376 169 5088 22563 2198 37471 201 162 649 5087 2545 983 879 1084 130 160 224 158 651 234 3225 115020 290875 152 1529 228 185 284 160 140 152 46420 25600 29731 226 140 132 154 312 130 142 562 2297 393 2829 183 290 231 223 278 10751 136 128 388 235 4887 560 2618 420 253 17749 214 4339 146 187 271 67300 3709 32354 8550 696 167 331 271 376 190 274 608 743 500 6334 524 459 365 4815 43787 986 490 3786 1287 202 945 15189 208 455 323 2449 1876 358 443 418 632 233 325 48856 431
internal_value=0 4.25294 -0.0482965 0.712738 2.14548 -0.106856 0.506144 9.01351 1.73842 3.20359 4.74961 8.43985 0.264817 -0.152018 1.31912 12.4423 -0.0385796 0.315855 4.77375 10.0365 2.72659 3.50514 7.32675 1.60378 0.256169 1.33614 0.199575 6.05652 2.49672 5.3213 1.21129 1.0164 1.30531 0.10054 0.425994 7.30003 8.61109 9.02098 7.47308 2.09023 14.0328 1.15347 -0.189342 -0.0796221 5.35197 2.20056 2.9628 6.34604 8.46126 3.42822 5.91174 7.30852 0.0882696 0.66601 0.107765 12.4121 10.8178 9.50896 6.98341 5.8997 3.97851 3.41146 2.25039 2.15291 2.56272 3.06678 3.95227 1.70511 3.3573 5.95744 1.57331 0.601301 5.30388 3.70795 2.65936 9.49698 0.0773969 3.17786 0.606066 5.35832 5.25254 0.270745 9.93387 1.68057 9.33219 5.98172 2.78109 -0.114021 1.04333 -0.0845508 0.947297 4.13211 6.08488 6.18241 6.4537 3.87085 8.55671 6.72442 3.45039 4.06234 0.917633 1.17777 2.14212 1.54032 1.83337 0.255513 -0.0495226 0.899195 2.43328 0.593801 1.52259 1.83054 5.5391 0.0971403 8.80059 1.88789 0.698368 2.91577 1.98703 4.53831 1.31215 1.56391 1.90315 5.63004 0.00358073 -0.204876 -0.08797
internal_count=2404032 27152 2376880 169826 21402 2207054 148424 4904 20102 22248 2457 1300 239123 1967931 17645 1617 487205 50562 5184 1052 17064 6476 3287 14855 114069 34355 220633 1893 4980 1546 31393 12030 9485 153495 67138 625 1730 1570 506 3818 1050 9875 1480726 436643 468 4512 2124 1779 1346 1064 348 755 152414 29667 79769 546 320 284 306 1557 921 791 10588 10026 5790 3493 3405 4464 1896 1594 2754 34300 367 3055 2962 567 78468 5829 28218 1245 413 26422 591 11302 347 471 3100 358175 18490 191161 20091 1256 350 495 647 764 425 467 2694 1351 14781 7358 1024 4174 1449 51235 158807 11737 949 8673 2388 1081 1371 38532 377 1742 5411 4573 6215 778 2476 2033 1615 361 101179 1289565 49287
shrinkage=0.03


Tree=8
num_leaves=128
num_cat=0
split_feature=7 7 3 15 3 7 7 25 6 7 0 7 3 15 6 44 44 7 103 35 6 56 104 5 70 35 7 3 7 49 3 5 104 49 6 5 44 10 2 0 35 58 9 89 3 89 10 9 24 6 44 6 10 36 77 6 0 15 53 2 3 5 9 3 10 10 104 9 6 3 3 87 10 19 5 25 1 7 2 15 6 19 104 70 63 9 9 18 85 20 0 0 104 7 18 15 18 2 89 16 3 5 7 6 19 6 9 3 71 77 19 2 1 104 28 59 5 104 85 7 36 55 63 81 55 69 9
split_gain=473990 127992 100005 49709.6 45278.5 39708.4 23132.3 20894 19842.1 18849.5 14170.8 13299.6 9737.02 9384.87 11189.4 9245.73 8989.83 8020.33 6503.87 6333.99 5880.91 5330.75 5236.08 5076.39 4655.86 4566.43 4414.13 4405.4 4094.9 4019.14 4004.03 3499.15 3451.3 3444.52 3259.88 3131.7 2899.46 2877.3 2832.51 2786.25 2746.02 2663.73 2647.19 2461.38 2441.06 2125.28 2044.2 2030.92 1961.46 1955.45 1832.29 1878.61 1809.67 1767.17 1929.61 2109.64 1983.59 1749.05 1701.94 1675.24 1667.47 1659.76 1630.51 1620.36 1584.79 1528.81 1511.44 1500.41 1465.45 1464.68 1438.87 1415.67 1700.17 1412.36 1410.7 1410.1 1396.67 1333.49 1312.44 1272.53 1282.64 1264.22 1253.9 1479.05 1199.1 1195.2 1194.46 1469.51 1190.57 1190.41 1184.54 1151.62 1096.78 1096.43 1086.15 1075.33 1070.31 1064.35 1075.49 1062.75 1048.08 1033.11 1029.89 1019.62 985.629 983.514 977.335 974.553 960.117 912.772 906.276 885.043 873.13 867.875 832.909 832.595 830.435 826.148 822.108 821.788 814.967 823.511 1273.51 1106.24 799.068 796.725 774.661
threshold=4.5000000000000009 14.500000000000002 1.3369171023368838 1.0000000180025095e-35 3.7109794616699223 1.0000000180025095e-35 1.5000000000000002 1.605382561683655 0.51857015490531932 8.5000000000000018 952.00588989257824 1.5000000000000002 0.44077415764331823 1.0000000180025095e-35 0.51857015490531932 3506.0000000000005 3506.0000000000005 19.500000000000004 1.0000000180025095e-35 6.5000000000000009 0.21514025330543521 1.0000000180025095e-35 23.500000000000004 0.41342635452747351 0.0024705289397388701 4.5000000000000009 1.0000000180025095e-35 2.6797474622726445 2.5000000000000004 0.58357213437557232 1.7946386933326723 0.41342635452747351 23.500000000000004 1.0000000180025095e-35 0.39436180889606481 0.33269280195236212 1.0000000180025095e-35 1.9556512236595156 420.50000000000006 3695.884399414063 2.5000000000000004 0.03674650005996228 3383.0000000000005 1.5000000000000002 0.79648745059967052 1.0000000180025095e-35 5.3410463333129892 1715.5000000000002 2.0610406398773198 0.21641001850366595 1.0000000180025095e-35 0.21514025330543521 2.2518501281738286 1.0000000180025095e-35 8.9823583948600589e-06 0.21514025330543521 2762.1535644531255 26.500000000000004 0.28054332733154302 1449.5000000000002 0.11494587734341623 0.41342635452747351 2114.5000000000005 1.0348209738731386 0.52953770756721508 0.3593543022871018 28.500000000000004 3383.0000000000005 0.69036737084388744 0.93945324420928966 0.17978072166442874 0.0027759131044149403 1.8466842174530032 0.29112252593040472 0.30987463891506201 0.24811182171106341 1493.7261352539065 19.500000000000004 1449.5000000000002 19.500000000000004 0.38801784813404089 0.28898712992668157 23.500000000000004 0.00039183541957754647 0.34148024022579199 3703.0000000000005 2114.5000000000005 0.077603969722986235 0.00085104833124205481 0.25777813792228704 1878.5557861328127 2000.8452758789065 23.500000000000004 2.5000000000000004 0.045591562986373908 207.50000000000003 0.63730150461196911 1139.5000000000002 1.0000000180025095e-35 4321.0000000000009 1.6055020093917849 0.41342635452747351 2.5000000000000004 0.22931847721338275 0.2886414378881455 0.6106090545654298 2145.0000000000005 0.91666260361671459 0.0024188772076740865 0.0010254126391373577 0.29975743591785436 220.01499938964847 3324.5000000000005 23.500000000000004 2.5000000000000004 0.84002950787544262 0.41342635452747351 29.500000000000004 0.0046096891164779672 6.5000000000000009 1.0000000180025095e-35 0.2205477058887482 0.37375180423259741 0.00012336664076428863 0.37566296756267553 0.08384342119097711 1902.0000000000002
decision_type=2 2 2 2 2 2 2 2 2 2 2 2 2 2 2 2 2 2 2 2 2 2 2 2 2 2 2 2 2 2 2 2 2 2 2 2 2 2 2 2 2 2 2 2 2 2 2 2 2 2 2 2 2 2 2 2 2 2 2 2 2 2 2 2 2 2 2 2 2 2 2 2 2 2 2 2 2 2 2 2 2 2 2 2 2 2 2 2 2 2 2 2 2 2 2 2 2 2 2 2 2 2 2 2 2 2 2 2 2 2 2 2 2 2 2 2 2 2 2 2 2 2 2 2 2 2 2
left_child=2 9 5 4 8 12 26 17 22 18 108 42 34 14 36 33 29 48 25 31 43 24 27 40 35 52 57 53 62 32 75 46 58 63 70 47 49 -33 -29 50 102 -40 64 59 105 78 91 -19 97 -14 51 -24 86 54 55 -4 84 -5 -10 -12 -36 114 -13 115 -7 125 -41 -30 -46 -51 -1 72 111 -50 -31 -20 -32 -9 -22 -15 -81 -21 83 -71 100 -74 -2 -88 -53 -69 -34 118 -65 -25 -67 99 -48 98 -3 -42 -57 -64 -8 -59 -87 -35 -78 -89 -6 -95 126 -49 -63 -107 -28 -16 -91 -90 -11 -27 121 -62 -123 -124 -103 -44 -54
right_child=1 7 3 6 10 11 23 77 16 19 20 28 13 79 15 -17 -18 21 30 81 45 -23 39 93 -26 119 61 38 67 74 76 37 90 44 60 -37 -38 -39 41 66 95 -43 65 -45 68 -47 96 71 73 69 -52 88 110 -55 -56 56 -58 103 -60 -61 120 112 101 92 -66 94 -68 89 -70 82 -72 -73 85 -75 -76 -77 106 -79 -80 80 -82 -83 -84 -85 -86 104 87 107 117 116 -92 -93 -94 109 -96 -97 -98 -99 -100 -101 -102 124 -104 -105 -106 113 -108 -109 -110 -111 -112 -113 -114 -115 -116 -117 -118 -119 -120 -121 -122 122 123 -125 -126 -127 -128
leaf_value=-0.0063091459956382059 0.04106896930992697 0.22514379388892822 0.055311493490686578 -0.0027410706473181491 0.10335165671326897 -0.00022812676607795042 0.022845391085973644 0.33688394081429579 0.14683077388488361 0.12223633608134916 0.11533696501759383 0.0085503384703205579 0.0049668998551685994 -0.0035520162261406555 0.052344956482080082 -0.0020882331624247196 0.016511373688689376 0.18924012381583449 0.077740924432352351 0.24008709216631555 0.24197233671236115 0.40946231461152799 0.020399089139021071 0.061989545944029757 0.13542957234472164 0.093631761677692812 0.014214575443828762 0.069969647372627675 0.022258585077903827 0.22993278360876596 0.14773613899534416 0.1350052086809452 0.081888743391152 0.056502576438499527 -0.0041985765037058182 0.3731799980565062 -0.0062971746285482855 0.27775488555662192 0.11841891285862854 0.17349170149538101 0.040169121591276155 0.29743193056434392 0.0061200119811975059 0.32070120120535089 0.12256936863844972 0.42270968743432979 0.24637352728305903 0.28969275575788578 0.30941609252221092 0.014687057531183477 -0.0040189160403220747 0.040368636313991388 0.088342654372303514 -0.0030168109972562107 0.029169765440230349 0.072467583070664005 0.19809961326594022 0.0046417350835295228 0.26352199974116131 0.24438435217156215 0.0028725753634792663 0.039519980382114551 0.017808207804340555 0.17537644388619808 0.0065849221326704111 0.052530220352292954 0.058307795955566691 0.063321501115897433 0.22691682364904517 0.048230387180489241 -0.0043177955515753437 0.19584771405097165 0.26301520095263109 0.19926956176236271 0.35316829729655924 0.16681686218959002 0.17980609079277482 0.43020576511657843 0.36604590737762355 -0.00017562019645712661 0.012117720214443147 0.17856788939450124 0.024013138133065593 0.14254902825380364 0.015507906142279112 0.39972626955853297 0.095457710680052182 0.04487075850078473 0.10918587409363241 0.031789580344576067 0.18545360376973072 0.074785580386766956 0.071956132359019973 0.089502491573605222 0.015958065018216346 0.075267314434488891 0.1466310236998572 0.10477066344417192 0.15168859963128087 0.067061348844245583 0.13798129627493225 0.029673928170420884 0.037648025719578766 0.015264338715216465 0.30836297830035708 0.16246546611227095 0.27852970955272516 0.071942622060770275 -0.010643059519022257 0.15662421921359984 0.068811109988608454 0.19104222954705949 0.11072093843774507 0.084599324311464205 0.027439577767022209 0.0057737929767348031 0.06231980728698 0.049329729647729595 0.064560010725743008 0.12484104824845052 -0.00045962126059261634 0.012540876662388074 0.1325469648896479 0.015847024728144917 0.071240524692110493 0.05295468935472044 0.13720164046880978
leaf_count=997508 2663 289 1335 19463 132 90095 9340 176 185 2515 195 20286 18936 143233 1866 2118 339 285 815 475 151 246 3658 1276 233 2092 18693 204 9738 228 402 281 412 575 113499 265 11039 232 139 179 6416 162 34809 147 312 251 133 153 161 12036 1327 2026 1200 343 847 420 193 22631 287 169 19767 1872 21164 144 46632 767 240 1489 198 887 485510 159 215 300 132 199 181 635 156 96920 8292 819 2042 180 152 194 1165 2488 471 8924 131 731 257 1000 15510 1284 356 221 473 1666 461 2368 7732 12694 235 200 180 2306 134 223 1724 176 169 362 5561 424 881 371 244 1192 75828 5316 153 140 505 330 386
internal_value=0 4.15187 -0.0467935 0.82163 2.49358 -0.095243 0.58491 9.07906 1.9716 3.19667 8.06222 0.277589 -0.142552 0.0235212 0.411698 1.64305 5.16273 8.04736 2.66586 4.7556 9.68743 9.26663 1.53501 1.35247 8.70371 2.45444 0.310982 2.4363 0.666219 6.29988 4.47619 4.19404 5.28168 2.47924 -0.171901 9.28404 0.23551 6.65209 5.20911 1.07129 1.2237 7.15883 0.14259 7.23645 3.61826 11.932 3.87714 8.69396 6.22268 0.379782 0.937228 1.15504 2.16704 2.063 2.28075 2.71348 3.66058 0.149341 7.2595 5.84173 -0.0567355 0.647776 0.493791 1.78212 0.0698509 0.336022 3.58384 1.0296 5.43602 0.647623 -0.188574 9.29466 9.74672 7.92457 9.17064 3.17408 6.20665 13.6651 10.1673 -0.0570625 0.0264415 6.70501 1.2595 2.13806 3.11078 10.6915 1.92574 2.17456 1.76098 1.27761 3.56247 3.60884 3.63649 2.7148 0.58938 1.65881 5.79198 5.42454 5.98492 1.52375 3.5583 0.669991 0.984986 0.281965 11.656 2.8029 7.63437 1.92976 1.53086 3.39138 2.79558 7.89731 1.51385 3.74366 0.574894 1.45741 1.15109 2.76041 3.90452 3.49866 0.0365913 0.191714 0.529896 2.55953 1.23268 0.218662 3.34113
internal_count=2404032 27195 2376837 125597 15577 2251240 110020 4416 14242 22779 1335 253498 1997742 300021 51576 6456 1714 3605 16993 5786 1069 2161 12528 28937 1915 15216 81083 4256 65355 1375 1777 4492 1015 4338 1697721 1682 45120 513 505 8272 26438 301 188143 511 1647 558 3979 1417 1444 34081 7853 6526 11932 3751 3408 2561 1226 54788 472 364 214703 26295 44323 2691 136727 51416 419 21032 510 15145 1483018 1132 973 461 360 1014 763 811 307 248445 105212 1294 3109 1067 1033 644 8622 5959 2868 11294 543 3490 401 2499 16277 9366 489 983 762 8082 881 24037 17072 35325 429 1137 361 4794 266 1223 3310 329 2041 562 24254 2290 9805 842 2759 3284 101204 25376 5609 293 2873 35139 1586
shrinkage=0.03


Tree=9
num_leaves=128
num_cat=0
split_feature=7 7 7 8 35 7 7 4 8 0 72 15 14 14 14 24 7 10 10 2 0 2 10 22 103 103 103 10 15 22 16 14 4 29 4 2 58 8 0 72 69 71 63 70 91 103 13 70 43 0 0 69 35 65 67 0 89 8 2 19 8 32 10 15 13 9 57 13 15 13 10 9 13 90 72 0 27 13 103 10 13 14 19 10 15 10 104 0 10 10 34 10 10 14 104 47 52 89 103 35 13 9 15 43 8 103 103 103 8 15 103 77 46 13 103 7 2 81 42 13 81 13 4 10 2 19 8
split_gain=441026 108068 95079.8 23583.4 20682.4 17042.5 10259.5 8126.12 18659.7 9025.31 13526.7 10831.2 7902.36 7568.89 6185.2 5896.09 5843.33 4081.15 3775.31 3621.52 4623.15 5772.5 3614.21 3559.59 3167.5 3018.9 3001.92 2920.15 2920.66 2812.7 2783.67 2761.06 2705.25 4813.83 7089.15 10625.8 16145.1 7972.87 5340.87 3996.73 3662.39 4172.51 2742.89 2524.76 2734.14 2480.02 2365.51 2216.62 2134.08 2099.83 2278.09 2799.9 2077.51 2060.26 2177.07 2049.98 2464.97 2012.62 1946.03 1902.85 1895.29 1821.97 1744.81 1720.7 1721.21 1706.38 1665.45 1576.64 1575.36 1570 1560.61 1556.85 1503.22 1471.82 2525.8 1429.4 1414.53 1400.16 1371.93 1343.21 1473.43 1334.78 1291.84 1284.11 1373.15 1278.98 1265.54 3429.01 1199.14 1141.93 1131.94 1126.63 1107.28 1095.9 1064.72 1044.55 1014.52 980.821 979.358 975.236 971.296 970.513 962.231 1038.8 950.891 918.616 916.354 913.523 901.665 895.085 894.007 975.091 874.781 903.348 865.486 857.956 850.04 831.964 823.596 823.392 816.169 801.896 801.425 800.606 782.989 777.964 774.872
