tree
version=v2
num_class=1
num_tree_per_iteration=1
label_index=0
max_feature_idx=104
objective=regression
feature_names=item_price_mean item_price_max item_price_min item_id_mean_target_mean_scheme item_category_id_mean_target_mean_scheme month_mean_target_mean_scheme shop_id_mean_target_mean_scheme target_lag_1 target_item_lag_1 target_shop_lag_1 item_id_mean_target_mean_scheme_lag_1 item_category_id_mean_target_mean_scheme_lag_1 month_mean_target_mean_scheme_lag_1 shop_id_mean_target_mean_scheme_lag_1 target_lag_2 target_item_lag_2 target_shop_lag_2 item_id_mean_target_mean_scheme_lag_2 item_category_id_mean_target_mean_scheme_lag_2 month_mean_target_mean_scheme_lag_2 shop_id_mean_target_mean_scheme_lag_2 target_lag_3 target_item_lag_3 target_shop_lag_3 item_id_mean_target_mean_scheme_lag_3 item_category_id_mean_target_mean_scheme_lag_3 month_mean_target_mean_scheme_lag_3 shop_id_mean_target_mean_scheme_lag_3 target_lag_4 target_item_lag_4 target_shop_lag_4 item_id_mean_target_mean_scheme_lag_4 item_category_id_mean_target_mean_scheme_lag_4 month_mean_target_mean_scheme_lag_4 shop_id_mean_target_mean_scheme_lag_4 target_lag_5 target_item_lag_5 target_shop_lag_5 item_id_mean_target_mean_scheme_lag_5 item_category_id_mean_target_mean_scheme_lag_5 month_mean_target_mean_scheme_lag_5 shop_id_mean_target_mean_scheme_lag_5 target_lag_12 target_item_lag_12 target_shop_lag_12 item_id_mean_target_mean_scheme_lag_12 item_category_id_mean_target_mean_scheme_lag_12 month_mean_target_mean_scheme_lag_12 shop_id_mean_target_mean_scheme_lag_12 item_categories_tfidf_nmf_0 item_categories_tfidf_nmf_1 item_categories_tfidf_nmf_2 item_categories_tfidf_nmf_3 item_categories_tfidf_nmf_4 item_categories_tfidf_nmf_5 item_categories_tfidf_nmf_6 item_categories_tfidf_nmf_7 item_categories_tfidf_nmf_8 item_categories_tfidf_nmf_9 shops_tfidf_nmf_0 shops_tfidf_nmf_1 shops_tfidf_nmf_2 shops_tfidf_nmf_3 shops_tfidf_nmf_4 shops_tfidf_nmf_5 shops_tfidf_nmf_6 shops_tfidf_nmf_7 shops_tfidf_nmf_8 shops_tfidf_nmf_9 items_tfidf_nmf_0 items_tfidf_nmf_1 items_tfidf_nmf_2 items_tfidf_nmf_3 items_tfidf_nmf_4 items_tfidf_nmf_5 items_tfidf_nmf_6 items_tfidf_nmf_7 items_tfidf_nmf_8 items_tfidf_nmf_9 items_tfidf_nmf_10 items_tfidf_nmf_11 items_tfidf_nmf_12 items_tfidf_nmf_13 items_tfidf_nmf_14 items_tfidf_nmf_15 items_tfidf_nmf_16 items_tfidf_nmf_17 items_tfidf_nmf_18 items_tfidf_nmf_19 holidays_num weekends_num offdays_num month_is_0 month_is_1 month_is_2 month_is_3 month_is_4 month_is_5 month_is_6 month_is_7 month_is_8 month_is_9 month_is_10 month_is_11 date_block_num_float
feature_infos=[4.9148473739624023:49782] [5:59200] [-1:49782] [0.019276825711131096:17.896121978759766] [0.020675413310527802:13.04799747467041] [0.25543251633644104:0.44535291194915771] [0.059369925409555435:1.1621779203414917] [0:20] [0:12185] [0:14627] [0:17.91572380065918] [0:13.131174087524414] [0:0.44559910893440247] [0:1.1618865728378296] [0:20] [0:12185] [0:14627] [0:17.857608795166016] [0:12.998500823974609] [0:0.44477254152297974] [0:1.1715142726898193] [0:20] [0:12185] [0:14627] [0:17.894851684570312] [0:13.055986404418945] [0:0.44541639089584351] [0:1.165308952331543] [0:20] [0:12185] [0:14627] [0:18.101617813110352] [0:13.022495269775391] [0:0.44308918714523315] [0:1.1560769081115723] [0:20] [0:12185] [0:14627] [0:18.127298355102539] [0:13.072422981262207] [0:0.44420942664146423] [0:1.1585627794265747] [0:20] [0:12557] [0:16338] [0:17.937305450439453] [0:13.00391960144043] [0:0.44442546367645264] [0:1.1585144996643066] [0:1.1620068550109863] [0:0.70671796798706055] [0:0.64920490980148315] [0:1.0577023029327393] [0:0.5563167929649353] [0:0.55965268611907959] [0:0.74222701787948608] [0:0.41090255975723267] [0:0.46599495410919189] [0:0.51811867952346802] [0:0.87028253078460693] [0:0.61002391576766968] [0:0.62915217876434326] [0:0.74828928709030151] [0:0.37434941530227661] [0:0.63573586940765381] [0:0.46524417400360107] [0:0.63160800933837891] [0:0.58779877424240112] [0:0.7099270224571228] [0:0.20976880192756653] [0:0.31545782089233398] [0:0.22542397677898407] [0:0.1673545241355896] [0:0.31002655625343323] [0:0.17171868681907654] [0:0.24267657101154327] [0:0.23002998530864716] [0:0.21768027544021606] [0:0.21499334275722504] [0:0.13709281384944916] [0:0.15487088263034821] [0:0.28368961811065674] [0:0.29135268926620483] [0:0.23734237253665924] [0:0.1856873482465744] [0:0.29843902587890625] [0:0.20681285858154297] [0:0.23770637810230255] [0:0.20024341344833374] [0:7] [8:10] [8:16] [0:1] [0:1] [0:1] [0:1] [0:1] [0:1] [0:1] [0:1] [0:1] [0:1] [0:1] [0:1] [22:33]
tree_sizes=10060 10186 10168 10167 10147 10217 10181 10196 10204 10306 10156 10177 10218 10220 10220 10181 10182 10209 10189 10231 10196 10220 10213 10295 10272 10247 10279 10238 10237 10215 10246 10269 10279 10271 10217 10287 10224 10216 10338 10256 10310 10332 10246 10252 10231 10245 10324 10264 10260 10237 10354 10286 10302 10229 10276 10268 10389 10269 10306 10310 10285 10273 10301 10319 10348 10342 10354 10304 10352 10353 10336 10351 10340 10270 10377 10373 10346 10404 10371 10356 10320 10305 10332 10285 10379 10399 10385 10352 10400 10324 10337 10417 10309 10470 10393 10416 10338 10403 10380 10364

Tree=0
num_leaves=128
num_cat=0
split_feature=3 8 8 6 15 8 3 6 8 20 6 35 2 3 8 35 6 29 13 27 43 3 3 35 3 89 8 5 3 10 8 5 53 25 3 8 13 6 10 15 6 8 8 43 5 87 103 8 8 13 5 103 0 42 39 6 85 35 3 6 35 6 75 5 9 6 46 6 0 8 35 10 63 12 35 5 63 5 6 8 46 102 0 13 8 9 85 34 35 56 70 90 3 63 8 103 8 43 8 6 0 8 8 5 8 79 6 35 10 15 0 35 5 3 8 3 6 3 3 6 87 13 2 33 90 6 15
split_gain=402574 160074 106491 70759 65799.5 57911.8 48088.9 45016.8 43908 34210.5 28282.1 27681.6 23598.1 21909.2 19388.9 18480 18283.5 18051.6 17848.6 16407.5 13173.1 19495.9 9958.04 12699.4 9469.79 9189.12 8924.29 8833.34 12356 7694.24 7689.29 7456.41 7331.85 6891.24 7660.52 6840.5 6827.17 6491.17 5892.99 5605.39 5554.08 5389.43 4828.5 4778.73 4390.36 4379.8 4349.1 3897.53 3884.24 3702.5 3610.63 3569.24 3488.13 3452.19 3395.69 3369.96 3166.28 3036.71 3016.35 2851.06 2811.84 2769.39 2736.92 2732.55 2706.56 2605.81 2516.04 2733.65 2513.52 2510.62 2810.56 2491.18 2488.35 2484.66 2436.53 2241.25 2230.38 2115.54 2100.89 2075.97 2059.27 1971.44 1950.08 1921.91 1894.14 1795.38 1752.38 1736.88 1736.19 4205.78 1735.97 1703.1 1687.71 1674.58 1641.43 1634.25 1618.61 1604.67 1590.67 1574.66 1515.63 1505.52 1495.78 1488.06 1440.91 1401.45 1385.42 1379.87 1358.74 1474.91 1477.45 1358.01 1330.75 1327.56 1323.72 1321.53 1318.01 1280.54 1265.84 1375.13 1256.72 1238.28 1217.73 2616.04 1173.46 1195.48 1141.04
threshold=1.9784580469131472 269.50000000000006 26.500000000000004 0.4078506082296372 1.0000000180025095e-35 1066.5000000000002 3.928659319877625 0.4078506082296372 121.50000000000001 0.39690721035003668 0.4078506082296372 19.500000000000004 598.98437500000011 0.29950623214244848 88.500000000000014 1.0000000180025095e-35 0.67931118607521068 1.0000000180025095e-35 0.39522114396095281 0.21324587613344195 1.0000000180025095e-35 0.81921768188476574 0.30309569835662847 4.5000000000000009 0.81921768188476574 1.5000000000000002 545.00000000000011 0.30294577777385717 2.8341231346130376 0.59605184197425853 54.500000000000007 0.3041487336158753 0.3898006826639176 0.061583464965224273 0.96186774969100963 65.500000000000014 0.20859055966138842 0.21017573028802874 0.67458000779151928 1.0000000180025095e-35 0.11801728606224061 37.500000000000007 9.5000000000000018 1.0000000180025095e-35 0.41577447950840002 0.0038485748227685694 1.0000000180025095e-35 71.500000000000014 5.5000000000000009 0.21286270767450335 0.41577447950840002 1.0000000180025095e-35 1582.7165527343752 12.500000000000002 1.6052120923995974 0.87475359439849865 0.0010417660814709964 5.5000000000000009 0.52316254377365123 0.24338975548744204 11.500000000000002 0.21017573028802874 0.00073099118890240799 0.41577447950840002 7291.0000000000009 0.21017573028802874 0.23994986712932589 0.22148603200912478 1940.8552856445315 10.500000000000002 12.500000000000002 5.6571300029754648 0.27540065348148351 0.32634401321411138 4.5000000000000009 0.33296820521354681 0.27540065348148351 0.32899670302867895 0.22825238853693011 1.5000000000000002 1.6006397008895876 1.0000000180025095e-35 488.43199157714849 0.21286270767450335 225.50000000000003 7689.5000000000009 0.00023661935119889679 0.89208573102951061 1.5000000000000002 0.10522306337952615 0.080433841794729247 8.5000000000000018 1.1536669731140139 0.27540065348148351 189.50000000000003 1.0000000180025095e-35 8.5000000000000018 1.0000000180025095e-35 537.50000000000011 0.88332465291023265 821.25732421875011 18.500000000000004 58.500000000000007 0.4196308702230454 7.5000000000000009 0.0016825739876367154 0.51803541183471691 1.5000000000000002 1.0532196760177615 11.500000000000002 725.53689575195324 10.500000000000002 0.31236109137535101 0.44084548950195318 72.500000000000014 0.57626688480377208 0.2196408808231354 0.076202612370252623 0.44780376553535467 0.21017573028802874 0.00016301062714774164 0.21659254282712939 27.35999965667725 0.31559702754020696 8.5000000000000018 0.22409420460462573 3.5000000000000004
decision_type=2 2 2 2 2 2 2 2 2 2 2 2 2 2 2 2 2 2 2 2 2 2 2 2 2 2 2 2 2 2 2 2 2 2 2 2 2 2 2 2 2 2 2 2 2 2 2 2 2 2 2 2 2 2 2 2 2 2 2 2 2 2 2 2 2 2 2 2 2 2 2 2 2 2 2 2 2 2 2 2 2 2 2 2 2 2 2 2 2 2 2 2 2 2 2 2 2 2 2 2 2 2 2 2 2 2 2 2 2 2 2 2 2 2 2 2 2 2 2 2 2 2 2 2 2 2 2
left_child=2 4 10 11 6 7 16 19 18 37 22 24 -8 48 38 36 27 20 41 63 21 58 23 88 74 40 44 66 47 -16 101 55 -30 34 97 83 -7 107 113 120 -14 -6 -19 52 53 62 60 68 117 -37 72 57 78 80 77 -23 79 -39 -15 -49 94 -43 124 71 108 -34 67 -2 105 -35 -71 -3 102 -28 118 99 -44 82 -36 92 -21 -54 -9 -26 -66 -52 -18 -32 104 -90 -83 -38 -33 -50 -11 122 -25 115 -84 -60 -53 -20 -41 -80 -1 -29 -69 -10 -31 110 -110 121 -70 -5 -63 -24 -117 -12 -4 -120 -40 -73 123 -51 125 -42 -115
right_child=1 5 3 14 8 15 12 54 9 46 13 -13 25 17 29 -17 86 42 30 26 -22 31 33 96 35 -27 73 28 32 64 87 56 65 69 43 49 91 51 39 50 45 61 76 -45 -46 -47 -48 59 93 95 85 100 81 -55 -56 -57 -58 -59 75 -61 -62 114 -64 -65 84 -67 -68 106 112 70 -72 111 -74 -75 -76 -77 -78 -79 103 -81 -82 90 98 -85 -86 -87 -88 -89 89 -91 -92 -93 -94 -95 -96 -97 -98 -99 -100 -101 -102 -103 -104 -105 -106 -107 -108 -109 109 -111 -112 -113 -114 126 -116 116 -118 -119 119 -121 -122 -123 -124 -125 -126 -127 -128
leaf_value=0.2886543835372527 0.33427380153649067 0.37116511164283156 0.2961165278923365 0.32157244935689488 0.30013838847616847 0.48316305082083211 0.35490768486090529 0.69078749854813104 0.33296160748344611 0.43948663366752089 0.29065598367294937 0.7217071887750427 0.41610321943871592 0.32672690659513248 0.31786965665969574 0.82385107501288446 0.53846439620233855 0.2984881748634029 0.30425408725862657 0.41813143991404916 0.29484273018615892 0.36943469733292711 0.29767659178885048 0.39650541957012853 0.30229785527562913 0.79408637713951979 0.7099055601556844 0.32443399744981455 0.39743134552228948 0.38329768215123811 0.39312213505866211 0.45074120262244655 0.57340256245206123 0.29042866784346194 0.31157691449855335 0.3152222333588226 0.73776466552577824 0.36726450495077201 0.46702671978033217 0.33373952874134555 0.66929180205676531 0.31415923279870528 0.30992922360395847 0.28951075940657217 0.60058404956745637 0.49993134217622293 0.6225563388880333 0.40074740765313749 0.29928429895066122 0.33851029253062753 0.38010070823948738 0.40871339643366678 0.34828669965364967 0.58255634068362327 0.76704916358104802 0.4700563435714683 0.61624489735640753 0.42286215470162458 0.34052476001908633 0.56950234758968232 0.55598830487366357 0.32478672996682739 0.54856770200962957 0.45939763639732856 0.45448262706789555 0.75743132885890396 0.29282702808089789 0.37941439585557468 0.38940559460565266 0.29520486783358085 0.42555214574327671 0.39499152005514865 0.37106549186451138 0.54475528682726804 0.40044504131082204 0.43302917117678841 0.32710586590317764 0.70985907843209972 0.33548642846712479 0.3819223633818476 0.52493134374022399 0.38685663249941737 0.53714148798789474 0.3135608826514456 0.56149913786723493 0.45522290765730022 0.66594985279271079 0.4482276698521605 0.2953258335536682 0.36529498156027951 0.50975692483689983 0.60652224749465478 0.5544420164626136 0.31089449499350225 0.51066074235793568 0.36369170051751099 0.50895452254132478 0.28973311411809266 0.64954672114215706 0.39444213100025527 0.49725743196828442 0.35121596063292282 0.36391000388481726 0.39864506581070647 0.2913476618591393 0.42778848697335503 0.46019449998259848 0.36353706808732167 0.53099962459825678 0.41429746333669726 0.42276174188486748 0.51198358222217721 0.50643134313273552 0.37917446490199036 0.34450873841853641 0.30066267119295598 0.31909962819152388 0.29600272308651365 0.29849606878306006 0.30793134483025286 0.37614102316192233 0.47057650692954334 0.33069497812181281 0.49532196781821458 0.63736804348592901 0.79010574563759794 0.3370681395922786
leaf_count=1087496 1498 2772 38956 5868 12763 328 317 146 3734 832 76269 145 128 5948 616 486 242 29333 897 1057 3724 1193 31560 486 27755 287 194 754 138 808 2432 284 139 197256 4740 15848 180 3836 519 5951 129 12414 21214 2871 203 180 240 193 35948 380 989 351 1438 160 157 400 177 1149 1959 169 395 6379 132 534 936 138 556 1180 233 182288 149 914 3690 142 219 368 10016 173 2941 167 192 522 414 26803 177 403 162 653 6369 880 129 176 281 16228 449 1690 151 14806 156 649 345 1950 1968 379 213951 140 228 2062 227 1337 227 134 140 654 5892 8006 6186 85516 28073 27540 186 248 13295 128 158 172 5066
internal_value=0 2.31207 -0.0746182 0.602835 1.76464 6.32038 4.56662 5.31163 1.39878 2.98151 -0.144089 0.368152 9.61719 0.145486 2.03549 12.8695 3.28219 0.607804 0.910134 4.33879 1.58408 2.11642 -0.191679 -0.235903 0.357069 11.6657 6.77144 2.80575 4.45417 3.99134 2.52178 4.58338 9.32537 -0.0639302 0.216169 0.597554 9.51947 2.32849 1.70083 2.14465 10.093 0.654838 0.363587 0.912051 5.79425 11.1058 6.89314 3.21319 -0.0181114 0.96988 1.99573 3.08812 1.23427 5.16784 11.4035 3.27932 6.8687 2.79194 1.42477 6.10699 6.32301 0.927621 12.4211 3.30907 4.5345 12.2921 1.83251 2.2054 2.38639 -0.118209 -0.033655 3.02988 1.81325 11.4596 0.139135 2.24669 0.637237 10.6463 0.935813 5.95095 4.6076 2.38582 9.88804 0.383671 5.83935 3.51762 9.77546 3.61551 -0.238076 0.249961 3.82964 12.552 6.86651 0.219146 5.60376 1.3175 4.22801 0.0665543 9.0528 1.9207 5.20943 1.33663 1.49721 1.54585 -0.240794 1.47661 3.20581 1.58394 3.97571 4.46136 6.01866 4.17436 4.56695 1.17589 1.26451 0.159156 0.4126 -0.0946274 0.13142 0.228251 4.89091 3.82674 1.20386 2.72336 13.5751 14.7336 1.51871
internal_count=2335684 72952 2262732 210454 64186 8766 7413 7596 56773 13393 2052278 180832 1503 289674 29622 1170 5910 75713 43380 6550 15150 11426 1762604 1309333 180687 1186 1948 5506 2044 4328 5932 2502 415 453271 73578 85899 684 11477 25294 13706 899 37448 60563 13020 1612 771 1916 1629 213961 31341 13001 5681 10149 1409 1046 1593 909 4985 8924 362 1676 24685 591 4602 3712 277 3462 2906 1267 379693 182437 4068 11609 336 94788 2976 31230 889 8060 732 1249 2089 716 54558 1113 1392 404 3085 1308696 7249 651 356 565 52176 1281 15493 637 60558 570 2608 696 2847 7919 3320 1301447 894 1408 5796 2599 1791 454 1296 373 11588 12271 45752 14192 161785 94569 55613 705 1162 13803 508 459 301 5720
shrinkage=1


Tree=1
num_leaves=128
num_cat=0
split_feature=7 7 3 16 3 7 21 7 7 6 3 2 6 30 104 3 21 104 43 21 6 8 43 5 4 7 6 7 7 5 16 104 5 43 30 21 8 3 49 6 20 49 3 3 6 6 43 8 5 104 58 3 6 5 69 6 8 24 3 9 5 6 104 9 5 35 71 17 35 3 51 8 3 3 6 3 16 6 8 3 24 6 6 6 35 8 18 8 3 3 16 87 70 7 9 52 16 6 20 1 3 5 7 7 47 6 5 36 42 56 6 8 7 7 52 69 75 6 43 54 17 20 7 8 46 20 8
split_gain=652516 176762 146230 64946.1 66809 56128.5 37226.8 34208.4 25316.3 22570.2 22134.7 20372 15013.4 12988 12227.1 15632.2 11444.7 9991.81 9264.34 9079.11 8836.57 7922.92 7891.69 7481.45 7355.99 6688.9 6654.81 6202.34 6179.21 5393.98 5368.84 4824.66 4572.18 4443.24 4265.48 4256.05 4104.82 3991.86 3950.92 3939.84 3715.97 3672.67 3521.77 3499.53 3388.56 3321.72 2988.15 2974.7 2966.21 2902.01 2844.8 2766.75 2702.54 2702.39 2686.31 2651.65 2613.01 2488.46 2416.24 2240.58 2219.46 2215.64 2199.1 2070.83 1949.9 1936.52 1908.61 1888.32 1793.65 1785.37 2926.98 1700.69 1669.72 1636.99 1596.62 1765.48 1973.98 1596.09 1575.61 1549.59 1522.07 1514.57 1503.8 1491.68 1464.94 1447.95 1423.96 1396.9 1364.64 1324.94 1292.24 1261.19 1475.81 1226.04 1205.02 1198.8 1195.85 1159.14 1158.61 1157.84 1137.01 1128.54 1105.85 1103.42 1100.95 1100.9 1034.1 1029.07 1025.76 1011.11 1009.8 999.733 988.428 974.776 2861.99 963.969 1041.99 961.852 928.142 914.338 910.212 903.348 874.95 853.392 824.453 832.343 821.477
threshold=4.5000000000000009 14.500000000000002 1.3396916389465334 1.0000000180025095e-35 3.928659319877625 1.5000000000000002 10.500000000000002 1.5000000000000002 8.5000000000000018 0.60872480273246776 0.43456324934959417 598.98437500000011 0.4078506082296372 2413.5000000000005 26.500000000000004 2.8341231346130376 6.5000000000000009 28.500000000000004 1.0000000180025095e-35 4.5000000000000009 0.4078506082296372 29.500000000000004 1.0000000180025095e-35 0.41577447950840002 1.0765959024429324 19.500000000000004 0.21503548324108127 19.500000000000004 2.5000000000000004 0.41577447950840002 2340.5000000000005 27.500000000000004 0.41577447950840002 4.5000000000000009 1.0000000180025095e-35 3.5000000000000004 22.500000000000004 0.15683592855930331 1.0000000180025095e-35 0.21503548324108127 0.23448650538921359 0.58357213437557232 0.75386175513267528 5.3806252479553232 0.19925787299871447 0.52152189612388622 1.0000000180025095e-35 8.5000000000000018 0.41577447950840002 23.500000000000004 0.017562547698685375 1.594642758369446 0.21503548324108127 0.41577447950840002 0.057777404785156257 0.20600529015064242 12.500000000000002 2.3158977031707768 1.76342248916626 3340.5000000000005 0.41577447950840002 0.2230041325092316 23.500000000000004 2114.5000000000005 0.28133663535118109 12.500000000000002 0.0043595887254923591 2.1732329130172734 8.5000000000000018 3.928659319877625 1.0000000180025095e-35 70.500000000000014 1.0356933474540713 2.33336353302002 0.4078506082296372 0.73889476060867321 2340.5000000000005 0.69428446888923656 107.50000000000001 3.2351002693176274 2.3158977031707768 0.4078506082296372 0.52638345956802379 0.52394381165504467 4.5000000000000009 368.50000000000006 0.076551914215087905 70.500000000000014 0.54365196824073803 0.75386175513267528 2053.0000000000005 0.0089307730086147803 0.0026514489436522131 1.0000000180025095e-35 7689.5000000000009 0.053686356171965606 1014.5000000000001 0.80268818140029918 0.39690721035003668 2749.7724609375005 0.99558508396148693 0.41577447950840002 11.500000000000002 1.0000000180025095e-35 0.27086573839187628 0.87475359439849865 0.41577447950840002 1.0000000180025095e-35 2.5000000000000004 0.05833710543811322 0.80268818140029918 164.50000000000003 1.0000000180025095e-35 1.0000000180025095e-35 0.028049727901816372 0.020333698019385341 0.00026798748876899486 0.51803541183471691 1.0000000180025095e-35 1.0000000180025095e-35 5.6292989253997812 0.51883193850517284 1.0000000180025095e-35 16.500000000000004 0.1678818762302399 0.2156542167067528 8.5000000000000018
decision_type=2 2 2 2 2 2 2 2 2 2 2 2 2 2 2 2 2 2 2 2 2 2 2 2 2 2 2 2 2 2 2 2 2 2 2 2 2 2 2 2 2 2 2 2 2 2 2 2 2 2 2 2 2 2 2 2 2 2 2 2 2 2 2 2 2 2 2 2 2 2 2 2 2 2 2 2 2 2 2 2 2 2 2 2 2 2 2 2 2 2 2 2 2 2 2 2 2 2 2 2 2 2 2 2 2 2 2 2 2 2 2 2 2 2 2 2 2 2 2 2 2 2 2 2 2 2 2
left_child=2 8 5 4 9 10 27 21 19 14 20 -6 34 22 15 26 48 39 41 32 47 123 30 35 -17 104 -4 57 63 68 31 38 73 45 61 71 126 109 72 -13 103 49 -40 -19 -26 91 52 113 80 -11 69 -50 -16 65 -52 -45 -15 85 94 -30 87 -12 89 -7 -57 102 -27 -31 -21 70 -29 121 -14 74 95 -76 -77 -44 83 117 82 -71 -10 -25 -37 -3 -61 -42 119 -63 -80 92 -28 107 -34 -2 -91 -33 -73 -62 -84 -88 -18 -23 -8 -51 -90 118 -70 110 -22 -86 -38 -1 -115 116 -60 -54 -39 -65 -89 -9 -49 -5 125 -64 -36
right_child=1 6 3 7 11 28 25 23 16 18 12 17 13 56 46 24 53 43 -20 29 37 40 -24 78 44 66 33 50 59 67 -32 97 58 -35 36 84 112 93 42 -41 60 -43 77 55 -46 -47 -48 122 51 105 54 -53 79 -55 -56 64 -58 -59 115 86 99 62 124 88 -66 -67 -68 -69 108 81 -72 98 -74 -75 75 76 -78 -79 90 -81 -82 -83 100 -85 111 -87 101 120 106 96 -92 -93 -94 -95 -96 -97 -98 -99 -100 -101 -102 -103 -104 -105 -106 -107 -108 -109 -110 -111 -112 -113 -114 114 -116 -117 -118 -119 -120 -121 -122 -123 -124 -125 -126 -127 -128
leaf_value=-0.0074093142699344309 0.051903355987514894 0.22061235438911225 0.043379989273584968 -0.0036474616130293394 0.053201988663320751 0.010755456891947221 0.3141725420951843 0.021563533274408603 0.10114823703157449 0.33254263798179834 0.0020099449580936726 0.34249091167370643 0.069211714525206552 0.0026151234016553908 0.023857904388695148 0.095311363671834654 0.17826409778995261 0.14892093474666276 -0.0067760091062102996 0.1105537156368704 -0.00414466565664763 0.008130322901051262 -0.00097979664845126014 0.059561952087872211 0.23936851185515412 0.51506281871050952 0.09496979232401144 0.3438410756197684 0.027070979527463439 0.14642184565913294 0.0265192356431606 0.041779883332054332 0.086121903099409342 -0.0080243281250999814 -0.0061799478683205863 0.055196988525517757 0.0019904722170198076 0.013067938420268122 0.11794353884000044 0.51379534157148876 0.0202928454725184 0.36552628158671513 0.18307666550912158 0.22292866474320722 0.44517166562141125 0.23765817239052719 -0.0040459325677388676 -0.0045962457308027687 0.14147740969685621 0.11040880125184213 0.17950487204803312 0.29476148565705312 0.048067907824416653 0.34439977033003683 0.31435462271002518 0.27392245751696748 0.019723552843229599 0.29673544625400011 0.1725016105377068 0.075083546270724347 0.051926410223964201 0.018622483465934422 0.01627402865894732 0.017683165506406025 0.42068575121074742 0.27617567711072871 0.40494966416505346 0.27590043874120551 0.13006157268790808 0.3392878137576964 0.21201851248338416 0.042417088223029892 0.15630598023725681 0.095970018613927469 0.062333560353874606 0.17709170133200558 0.09052509025701469 0.31697990611843441 0.11261601643590641 0.12286008422453719 0.17311546595764371 0.46539045347967217 0.11393157040393805 0.13182006819863362 0.074105085416869776 0.14366397259109898 0.039589314035041318 0.035446467358740387 0.0298120905418254 0.06389951769990232 0.20540182082896019 0.18365618489790653 0.1790986744182132 0.010863033027794828 0.17656950269809024 0.13455891957608138 0.016394109827875276 0.089934102384303619 0.078963427146510973 0.12224735849902697 0.1711826203482919 0.074778345774933197 0.2426723471998847 0.020166114674921614 0.4174876507746762 0.21681230987630673 0.061797447981609403 0.00056313942132023482 0.19069889756489772 -0.0085467512863524938 0.0018430836897618452 0.12179346658923838 0.0095541570861344977 -0.0034231074025547234 0.057547729465117409 0.12992050333967747 0.28269909141054989 0.097807091141752803 -0.0036627869594246954 0.069242830144453649 0.09179629570908017 0.045456418267525188 -3.6360468184577103e-05 0.0060365035932122956 -0.0049411464908794122 0.0045312055044259012 -0.0021903307649075573
leaf_count=1183663 3682 523 2653 19805 311 19950 258 6176 1397 138 44335 233 1323 18130 3552 156 679 198 140 3197 78392 18898 2100 1027 133 826 1525 478 9290 155 2251 1937 643 248 88044 4557 50575 12719 624 251 12003 210 191 258 157 216 1540 246586 215 155 271 209 2656 186 261 154 14429 241 177 1423 1435 4580 11115 15163 173 437 171 293 583 248 222 10262 233 2793 1953 275 1719 138 968 332 673 131 553 343 1827 380 8666 5799 6851 1372 157 207 214 21472 167 165 731 586 845 247 717 906 371 10758 145 201 1049 51819 441 28157 37462 505 22453 30501 709 159 137 403 3899 316 270 1851 44744 13965 3613 10626 98318
internal_value=0 4.96916 -0.0561235 0.982196 2.83956 -0.117102 10.9506 0.709257 3.83825 2.18159 -0.144903 9.02563 0.0745322 0.638631 1.87866 3.03867 5.71023 10.8058 7.20361 3.22286 -0.192532 0.385221 1.67523 1.65439 8.71424 15.1495 2.53871 8.81684 0.808425 4.40422 2.16769 2.74194 2.75818 3.74159 0.00406732 1.4958 -0.0570915 -0.0117065 3.72385 14.3776 0.640368 8.68106 5.3273 8.5979 11.6929 4.20147 1.12534 -0.220615 4.74297 7.19187 10.0812 7.2345 1.40486 7.88643 8.18875 9.82782 0.339899 7.0363 4.54101 1.26393 0.976382 0.211787 0.412156 0.595175 11.7189 7.43693 16.5392 7.70344 4.05405 11.0143 10.0678 1.25313 2.74178 2.54213 2.30673 2.75357 3.41546 7.97476 3.30855 2.04339 4.42668 12.7625 4.08757 2.58843 2.16978 6.27437 1.56942 0.874122 0.797124 0.922466 4.18549 3.7885 3.51075 0.153623 3.49232 1.84828 1.57956 1.76548 1.50658 2.0751 4.87512 1.43067 6.70072 0.416547 11.7115 5.68283 1.13531 0.0882131 5.20586 -0.114925 -0.0736165 2.8144 0.143866 -0.242378 -0.0679343 6.33685 7.35271 1.82069 0.30475 0.624525 1.26511 0.902438 -0.129864 0.0119058 0.277645 0.351156 -0.135839
internal_count=2335684 26131 2309553 128112 16414 2181441 4155 111698 21976 14836 2117827 1578 377704 41942 13992 5509 5437 1267 844 16539 1740123 83180 9383 28518 446 1400 5063 2755 63614 4669 7283 5032 11870 2410 335762 26023 259390 233920 2509 484 49410 704 953 783 290 2162 8483 1506203 3764 494 1611 424 6943 1673 532 585 32559 1144 1283 20285 19754 76372 32037 43329 327 1487 997 448 4221 1079 700 19134 1556 10587 7794 3947 1994 329 2495 3391 3340 379 2667 1370 6889 903 10995 18072 23379 6683 1125 1946 1739 89909 810 3847 2103 2523 11107 1682 1270 9572 1050 29656 403 356 7900 68437 1024 144011 115854 2332 73028 1214873 31210 473 314 3059 16618 15479 6069 8027 291330 33770 25354 21741 186362
shrinkage=0.03


Tree=2
num_leaves=128
num_cat=0
split_feature=14 3 14 15 3 35 3 6 6 35 14 2 29 43 24 104 14 53 104 43 14 9 104 17 3 5 86 52 104 47 6 13 29 15 9 6 14 15 47 9 6 104 101 49 6 6 52 9 17 20 3 43 6 6 6 3 52 4 3 17 15 51 5 17 6 5 104 59 5 21 6 9 63 10 20 36 3 17 104 73 13 9 17 2 6 21 10 21 3 11 81 11 15 15 104 27 9 3 36 81 14 10 43 21 49 15 9 69 87 104 21 12 14 19 15 17 1 78 11 9 43 3 6 69 104 15 6
split_gain=386222 174748 105661 101370 70639.8 46229 38526.8 36967.6 36087.5 28112.7 24940.7 24570.7 22739.3 17779.7 15357.6 15045.7 14109.2 11983.9 10640 10583.4 10213.6 9882.68 8375.18 8133.2 8052.14 7981.13 7311.9 7231.13 5824.07 5755.34 5633.11 5302.02 5277.74 5211.41 5104.93 5095.26 5085.41 5015.84 4959.3 4919.09 4868.21 4664.18 4042.88 3784.8 3745.4 3628.31 3627.44 3498 5135.14 3437.92 3190.85 3044.23 3141.74 2956.26 2909.1 2849.2 2828.69 2828.19 2582.52 2578.59 2537.74 2495.61 2404.97 2394.29 2983.93 2384.28 2359.7 2350.28 2309.34 2304.56 2298.26 2216.34 2189.33 2177.25 2163.62 2145.72 2101.35 2098.59 1972.8 1910.16 1909.31 1887.29 1831.26 1841.02 1764.91 1707.06 1698.58 1671.92 1668.2 1593.67 1564.12 1548.67 1500.26 1432.6 1443.45 1401.06 1353.16 1328.21 1325.64 1315.57 1306.67 1295.7 1294.3 1294.18 1242.51 1226.88 1174.62 1174.53 1160.83 1159.25 1156.35 1129.54 1080 1032.97 1027.77 1025.07 1022.68 1021.45 1014.08 1004.58 997.542 1046.07 964.82 964.503 960.867 954.069 949.554
threshold=4.5000000000000009 1.3396916389465334 16.500000000000004 1.0000000180025095e-35 3.2351002693176274 8.5000000000000018 0.43456324934959417 0.51803541183471691 0.4078506082296372 4.5000000000000009 1.5000000000000002 598.98437500000011 1.0000000180025095e-35 1.0000000180025095e-35 5.5499789714813241 24.500000000000004 1.0000000180025095e-35 0.23726923018693927 23.500000000000004 1.0000000180025095e-35 8.5000000000000018 1.0000000180025095e-35 26.500000000000004 5.6292989253997812 0.75386175513267528 0.33296820521354681 0.0039509458001703033 0.053686356171965606 24.500000000000004 0.31979882717132574 0.4078506082296372 0.36291867494583135 1.0000000180025095e-35 17.500000000000004 4680.5000000000009 0.79595264792442333 1.0000000180025095e-35 43.500000000000007 0.32273857295513159 3168.5000000000005 0.21017573028802874 24.500000000000004 1.0000000180025095e-35 0.58357213437557232 0.52152189612388622 0.22825238853693011 0.053686356171965606 3460.5000000000005 1.2722097635269167 0.23448650538921359 0.16287991404533389 1.0000000180025095e-35 0.2196408808231354 0.21503548324108127 0.21017573028802874 3.928659319877625 0.053686356171965606 0.26502351462841039 1.76342248916626 0.0970783866941929 84.500000000000014 0.038874589838087566 0.41577447950840002 4.1086206436157235 0.36459757387638098 0.32165795564651495 23.500000000000004 0.84002950787544262 0.33296820521354681 17.500000000000004 0.79595264792442333 2135.0000000000005 0.12390607409179212 0.11087770760059358 0.32444880902767187 1.0000000180025095e-35 0.16287991404533389 2.335518598556519 26.500000000000004 0.0014065821887925269 0.39522114396095281 7387.0000000000009 2.0105981826782231 498.00500488281256 0.11900645866990091 4.5000000000000009 1.7373632788658144 13.500000000000002 0.70284515619277965 1.092634439468384 0.0012162538478150966 0.22100038826465609 28.500000000000004 15.500000000000002 29.500000000000004 0.20575991272926333 7429.5000000000009 2.8341231346130376 1.0000000180025095e-35 0.0018375111976638438 1.5000000000000002 5.6571300029754648 1.0000000180025095e-35 9.5000000000000018 0.58357213437557232 19.500000000000004 7429.5000000000009 0.0073160522151738414 0.00020025694539071995 23.500000000000004 1.5000000000000002 0.29936641454696661 1.5000000000000002 0.30341619253158575 1.5000000000000002 1.8063262701034548 1090.2000122070315 0.0016485510277561846 0.22137755900621417 3168.5000000000005 1.5000000000000002 0.73889476060867321 0.87475359439849865 0.024172221310436729 26.500000000000004 19.500000000000004 0.79595264792442333
decision_type=2 2 2 2 2 2 2 2 2 2 2 2 2 2 2 2 2 2 2 2 2 2 2 2 2 2 2 2 2 2 2 2 2 2 2 2 2 2 2 2 2 2 2 2 2 2 2 2 2 2 2 2 2 2 2 2 2 2 2 2 2 2 2 2 2 2 2 2 2 2 2 2 2 2 2 2 2 2 2 2 2 2 2 2 2 2 2 2 2 2 2 2 2 2 2 2 2 2 2 2 2 2 2 2 2 2 2 2 2 2 2 2 2 2 2 2 2 2 2 2 2 2 2 2 2 2 2
left_child=1 6 9 4 7 14 16 18 32 23 37 44 19 22 60 53 30 69 45 24 29 26 67 38 70 39 40 34 103 85 76 79 54 -14 110 68 105 80 46 55 84 95 61 122 -6 97 47 77 -49 -39 -32 52 -20 -13 -8 -12 87 124 118 -29 -4 -42 101 71 123 -16 88 86 93 -7 -10 -62 -45 -48 115 102 -1 -2 -54 117 125 112 -73 -84 -17 -11 91 -30 -56 -40 111 108 -38 94 104 -25 -50 -3 -82 -31 -36 119 114 -22 -26 -34 -41 -76 -9 -72 -18 -60 -35 -87 126 -27 -117 -23 -47 -51 121 -68 -24 -65 -37 -5 -52
right_child=2 3 5 10 11 17 8 13 12 20 25 15 33 -15 65 21 27 -19 51 -21 28 31 43 41 35 74 -28 59 56 99 50 -33 36 81 100 57 92 49 89 106 42 -43 -44 72 -46 58 73 48 96 62 75 -53 78 -55 66 -57 -58 -59 90 -61 63 -63 -64 64 -66 -67 120 -69 -70 -71 109 82 -74 -75 107 -77 -78 -79 -80 -81 98 -83 83 -85 -86 113 -88 -89 -90 -91 -92 -93 -94 -95 -96 -97 -98 -99 -100 -101 -102 -103 -104 -105 -106 -107 -108 -109 -110 -111 -112 -113 -114 -115 -116 116 -118 -119 -120 -121 -122 -123 -124 -125 -126 -127 -128
leaf_value=-0.0075518974725888345 0.036493459046052314 0.060219115006455645 0.28988499707775189 -0.0019453435400887907 0.068669061610868221 0.37289136965307723 0.002721489801593523 0.35395597844908966 0.043030023600059253 0.079278161985484291 0.029665719448473026 0.33731231025813779 0.0072250261114292069 -0.0056256940655631188 0.31508832630577621 0.094239597716208157 -0.00055558748634697091 0.24962392069988967 0.025115665480160938 0.0020762203568105196 0.23959839580473544 0.051922005423061225 0.091552968959436334 0.19240783497073133 0.08801980087530431 0.0476622540519481 0.44953152539081942 0.05448026841794941 0.13710383422594122 0.18583604229738312 -0.0039564344010647092 0.3287610984531068 -0.0044736890016918735 0.018255575762134216 0.0099376582558627791 0.24511681267574278 0.0022570270102403455 0.013633173682710841 0.12357015925111083 0.062892732446612254 0.27782006894007766 0.10455313206751748 0.17734259048513337 0.15936375047564508 0.2363486882979921 0.12441645117605676 0.092176801486303334 0.05790044680307635 0.10503817993150086 0.023434808949629467 0.016480284896343969 -0.0042297326810174169 0.099886124604892337 0.49338015712738037 0.016682307781240496 0.059101258487111986 0.29172431739652233 0.1167942564230197 0.11979415728095566 0.1658504767503057 0.065904791452410669 0.42012020169234854 0.070568671357555832 0.10660769846315352 0.3301409266144037 0.49190009355545045 0.0071668132149688511 0.17289371669064951 0.165938706775972 0.4975462042257503 0.11742593974722003 0.1173640693801497 0.31555403292647427 0.26087762183742597 0.19261779928369954 0.00086234021136911564 -0.0051748976782610631 0.068419140045864441 0.049570033589448531 0.20308037771823559 0.10047388375250262 0.052664780973323749 0.27090737131157439 0.15242162331070272 0.220656732134521 0.14394435730453559 0.38315834281262023 0.21224474653233211 0.043308875061228685 0.2392573195057256 0.2424806238011438 0.19659233995952777 0.011414679558545334 0.038909741201248418 0.059796981716857232 0.31285304664126756 0.17861891414925987 0.1473967977746718 0.02135255153392494 0.29781390111747896 0.023411057505738658 0.086417388937302983 -0.0024516650674644759 0.33371537285368397 0.15822725096853768 0.00036490985588834366 0.11672469022937795 0.10678365495800972 0.24627655770655332 0.067450093130331998 0.011827324301213162 0.21860793256889219 0.03382151433822906 0.10234042734929942 0.0058380305870181547 0.067924276691306296 0.12131535030015238 0.13590222093378482 0.055623486141363782 0.048679402194309641 -0.0045855300493190445 0.018932866356991731 0.17221166910517671 0.21627189287756168 0.16763800937977197 0.0077410452095023332 0.037094453588223067
leaf_count=897076 5408 1732 128 16821 872 163 45062 238 4654 1382 18842 194 22870 371 143 145 100064 278 4646 2178 261 276 423 217 589 568 206 1136 995 360 132134 131 137963 9560 19301 299 32321 23982 457 4631 202 606 153 150 139 404 149 4479 2028 10899 6181 1540 930 250 5174 3511 157 658 424 224 337 246 1336 149 136 132 16799 131 288 737 563 578 175 128 275 48360 533952 2819 2852 188 201 2520 185 326 316 1018 209 364 3585 140 196 140 32082 673 765 145 253 173 3677 128 9751 336 3778 265 369 71661 396 300 145 1619 7281 138 6912 1137 4624 614 681 247 369 1631 3726 11426 195 140 278 20072 2981
internal_value=0 -0.0433154 3.80855 1.09265 3.21447 8.98288 -0.109928 2.29568 0.164417 3.03295 0.719169 7.2301 0.920425 6.11777 6.32962 8.88185 -0.174304 14.0597 1.67491 2.07941 4.87845 7.76846 7.41304 2.36763 2.4865 1.49836 9.53203 0.133 6.70006 3.95429 -0.20029 5.11263 0.0492822 0.562363 0.110122 3.62928 -0.0184773 0.424902 2.19589 1.34398 8.47442 5.18166 10.3496 5.35294 3.05743 3.19243 2.0853 2.01903 2.55199 0.685347 -0.0422268 1.15182 1.38805 14.1729 0.265762 1.14297 5.70528 5.31023 4.33869 2.42745 5.35659 11.8653 1.07527 5.0588 7.1421 13.3319 0.459521 9.66411 2.85582 15.8323 1.83135 4.43791 8.11554 5.67108 3.23214 0.137471 -0.222166 1.5811 2.06476 4.03551 0.180982 0.949545 5.13143 6.51059 6.02981 3.51012 10.3622 5.241 0.919346 5.02332 5.65026 9.39927 0.227295 2.53423 3.01749 8.02175 3.77332 2.2712 0.848449 7.17358 0.481995 0.942661 0.436833 9.56716 3.8354 -0.0939863 2.23778 4.92783 10.4397 2.67816 0.00947737 4.80193 0.826246 4.06646 0.578941 2.70877 3.20003 3.05279 3.05258 0.890695 0.333465 0.397664 3.90012 5.32441 6.92624 0.110821 0.772914
internal_count=2335684 2309356 26328 127919 19146 3432 2181437 15581 414594 22896 108773 3565 54795 2177 2254 2554 1766843 1178 13404 12933 6067 2110 1806 16829 10755 29818 1268 137757 2042 4025 1629086 842 359799 41862 136397 3919 274027 78955 15861 27380 1062 968 601 943 1011 3436 15264 14987 6760 38184 198058 9968 8428 444 85772 22353 1516 1235 1531 1360 1979 448 14202 1851 425 275 40710 863 2684 900 6836 1426 325 277 2438 65924 1431028 8227 3782 711 40771 18992 1089 511 461 3537 732 1359 8759 597 758 523 64403 2396 1723 362 2281 1905 3878 488 29052 12866 17564 526 958 209624 5027 575 383 2182 107345 562 16472 2155 13786 1863 1295 523 773 12530 31951 28225 618 289 577 36893 9162
shrinkage=0.03


Tree=3
num_leaves=128
num_cat=0
split_feature=7 7 3 16 3 7 21 7 7 6 3 89 6 21 104 30 3 3 43 45 14 69 103 3 103 6 53 7 7 104 43 6 5 14 8 21 103 10 6 66 73 30 8 49 1 7 104 36 3 8 3 7 6 58 104 3 69 5 9 14 54 5 49 9 16 5 51 24 8 6 49 5 7 8 3 6 39 28 18 26 46 3 6 18 104 49 24 6 3 8 6 20 42 6 14 6 5 10 6 10 16 9 8 78 8 3 21 8 103 6 21 14 87 8 14 14 75 19 9 6 9 10 1 104 91 51 16
split_gain=595338 160916 128518 59165.7 55543 51193.6 33424.1 30963 23296.7 20377 19611.6 14732.9 14592.3 13200.4 11355.5 10798.9 9594.96 8625.11 8330.95 7033.4 6879.21 6812.08 6791.2 6681 6649.96 6011.86 5567.65 5523.01 5495.95 4746.29 4601.03 5427.71 4201.3 4141.45 4069.27 3994.87 3910.02 3907.86 3873.78 3799.92 3438.65 3395.71 3304.96 3254.37 3172.9 3149.75 2968.87 2874.54 2579.23 2558.95 2476.67 2389.83 2364.43 2337.06 2070.54 2802.74 2042.93 2042.29 1983.36 1969.8 2972.13 1910.3 1844.96 1840.56 1811.69 1704.27 2388.6 1680.08 1741.11 1669.25 1700.17 1624.69 1623.09 1588.52 1562.69 1675.44 1514.55 1502.59 1435.48 1431.17 1418.53 1378.19 1369.88 1354.86 1344.67 1565.79 1324.3 1596.21 1638.33 1338.7 1309.97 1284.66 1274.73 1274.23 1259.34 1180.91 1179.24 1138.87 1255.81 1282.14 1417.92 1127.66 1127.24 1125.12 1124.01 1118.64 1114.2 1073.12 1064.83 1063.38 1061.28 1038.01 1010.55 989.693 960.909 947.562 905.96 842.238 841.899 827.192 814.281 803.112 782.373 1287.33 764.352 761.512 752.932
threshold=4.5000000000000009 14.500000000000002 1.3396916389465334 1.0000000180025095e-35 3.928659319877625 1.5000000000000002 10.500000000000002 1.5000000000000002 7.5000000000000009 0.60872480273246776 0.33236765861511236 1.5000000000000002 0.4078506082296372 5.5000000000000009 23.500000000000004 2413.5000000000005 5.3806252479553232 2.8341231346130376 1.0000000180025095e-35 0.33262543380260473 1.5000000000000002 0.048886135220527656 1.0000000180025095e-35 0.67629593610763561 1.0000000180025095e-35 0.4078506082296372 0.23726923018693927 2.5000000000000004 19.500000000000004 23.500000000000004 1.0000000180025095e-35 0.21017573028802874 0.41577447950840002 2.5000000000000004 23.500000000000004 3.5000000000000004 1.0000000180025095e-35 2.1843923330307011 0.22619184106588366 0.55755212903022777 0.0020012483000755314 1.0000000180025095e-35 27.500000000000004 0.58357213437557232 2394.5000000000005 19.500000000000004 26.500000000000004 1.0000000180025095e-35 1.594642758369446 12.500000000000002 0.099947314709424986 10.500000000000002 0.20158476382493976 0.017562547698685375 23.500000000000004 0.70284515619277965 0.057777404785156257 0.2998995184898377 2114.5000000000005 1.0000000180025095e-35 1.0000000180025095e-35 0.41577447950840002 1.0000000180025095e-35 3340.5000000000005 2340.5000000000005 0.41577447950840002 0.015859554056078199 2.3158977031707768 107.50000000000001 0.87475359439849865 1.0000000180025095e-35 0.27025815844535833 1.0000000180025095e-35 107.50000000000001 3.2351002693176274 0.30952329933643347 0.24164538830518725 3.5000000000000004 0.045572515577077873 0.29903572797775274 1.3450334668159487 3.2351002693176274 0.39157132804393774 0.076551914215087905 29.500000000000004 0.58357213437557232 2.3158977031707768 0.52394381165504467 1.0356933474540713 30.500000000000004 0.21738969534635547 0.24285317957401278 7.5000000000000009 0.87475359439849865 6.5000000000000009 0.2230041325092316 0.41577447950840002 1.9237672090530398 0.35636781156063085 0.66513207554817211 1378.0000000000002 2195.0000000000005 70.500000000000014 0.023816790431737903 8.5000000000000018 0.15298283100128177 7.5000000000000009 153.50000000000003 1.0000000180025095e-35 0.4078506082296372 4.5000000000000009 1.0000000180025095e-35 0.0014708082308061423 70.500000000000014 2.5000000000000004 1.5000000000000002 6.594799924641849e-05 0.26082396507263189 3238.5000000000005 0.80268818140029918 1593.5000000000002 2.5227615833282475 3994.5000000000005 30.500000000000004 8.5000000000000018 0.038874589838087566 4321.0000000000009
decision_type=2 2 2 2 2 2 2 2 2 2 2 2 2 2 2 2 2 2 2 2 2 2 2 2 2 2 2 2 2 2 2 2 2 2 2 2 2 2 2 2 2 2 2 2 2 2 2 2 2 2 2 2 2 2 2 2 2 2 2 2 2 2 2 2 2 2 2 2 2 2 2 2 2 2 2 2 2 2 2 2 2 2 2 2 2 2 2 2 2 2 2 2 2 2 2 2 2 2 2 2 2 2 2 2 2 2 2 2 2 2 2 2 2 2 2 2 2 2 2 2 2 2 2 2 2 2 2
left_child=2 8 5 4 9 10 28 20 24 14 25 16 34 36 17 19 71 38 43 23 42 -19 33 78 35 59 45 58 67 62 31 122 51 102 41 97 86 76 -4 46 44 54 -5 57 -18 -8 112 82 -38 -17 -27 92 -46 65 55 -12 -55 -11 -7 105 -61 113 -25 -29 69 66 121 68 -3 -31 -71 -6 -36 109 -68 -76 -26 -35 84 -28 -53 -48 125 -65 85 -14 87 89 -89 -10 -13 -44 -15 -52 -37 -57 115 98 -2 -100 -101 -50 -9 -63 -43 -1 120 126 114 -24 -75 -51 -33 -22 -85 -60 -73 -90 -99 -87 -39 -30 -16 -124 -70 -40 -79
right_child=1 6 3 7 11 27 26 22 13 18 12 90 15 32 30 49 40 21 -20 -21 61 -23 73 29 37 50 79 63 53 64 -32 39 -34 77 72 94 48 106 47 -41 -42 104 91 -45 52 -47 81 -49 101 111 93 80 -54 56 -56 95 -58 -59 96 60 -62 103 -64 83 -66 -67 74 -69 124 70 -72 116 -74 110 75 -77 -78 107 -80 -81 -82 -83 -84 108 -86 119 -88 88 117 -91 -92 -93 -94 -95 -96 -97 -98 118 99 100 -102 -103 -104 -105 -106 -107 -108 -109 -110 -111 -112 -113 -114 -115 -116 -117 -118 -119 -120 -121 -122 -123 123 -125 -126 -127 -128
leaf_value=-0.0074028689501058733 0.04439259142665055 0.27489088092142572 0.055854505917855672 -0.0016791538834509195 0.20369802853997263 0.01021404159209909 0.37279982683710428 0.023972518606515589 0.17971229222351615 0.14865933243147053 0.0062099099964921835 0.37473182068497407 0.040667996226951775 0.15475872459984918 0.02222988210597587 0.002186036964373445 0.12570531063415902 0.12014256513695562 -0.006552143710000174 -0.0014925229396424665 0.018209399710412438 0.40672510492537789 0.056769944472043761 0.1192319072149694 0.09078237349241576 -0.0045471599483605804 0.38160720998214348 0.026382157134206108 0.31907276322731776 0.066803181300430725 -0.0042409641345675358 0.098994034024079636 0.32394414882823186 0.048137206368453291 0.0014975166848371321 0.090901669440570515 0.13735234083422762 0.12515418816095916 0.11464191990539184 0.2155453118540763 0.42136349162086845 -0.0059453526984189825 0.0080276312945240062 0.34643930172476056 0.20988382678729881 0.49913039892166849 0.047549628843645525 0.0026764707254698953 0.20022199141369623 0.0083271151235021282 -8.2975817736169371e-05 0.21617499239280819 0.34929999586916255 0.18007044639029823 0.00086954330576604732 0.021981088737100678 0.29732230877813459 0.2692789390018584 0.016286051360373737 -0.0021967438279107384 0.05003358664282833 0.051542546764477011 0.22181676647330564 0.072366075335415933 0.025422493145848709 0.41028046355263825 0.16638578570797108 0.27106398625145939 0.21490452882323657 0.087828727081579419 0.20924454483282134 0.054508306562794477 0.0089925362356726261 0.10427213454205361 0.21237831786967987 0.36412383890465683 0.17829230676265234 0.0527073387463219 0.016317944712666205 0.2630202272251172 0.31534114399153718 0.11080283009463307 0.22739025426461107 0.029709881792429824 0.022405272189563005 0.069706533493490902 0.14977620150354029 0.09967093487978998 0.20985763629677737 0.082485088429583298 0.50403832095823464 0.02003990840338599 0.22498470665728143 0.0069558949414372717 0.12385093042572767 0.057682118803202745 0.040863153549827953 0.076256873487142843 0.052425877902046378 0.14807635638269651 0.077739691194675373 0.32102212029452226 0.039997458525484801 0.13807734830122367 -0.0021812542997844413 -0.0055496867606837693 0.2892870952875819 0.099257685022271641 0.070892477014508001 0.11675652401537454 0.17382279476169202 0.022179855783394202 0.17652766438573597 0.033011173403289601 0.050656450456794795 0.030325795005144505 0.14704967184923587 0.14107794108590832 0.11829685895065768 0.13041051693825884 0.21649281070487839 0.40236264673539912 0.13864896670193741 0.026100107466200444 0.14615800574933938 0.17510319561738033 0.086572406033020521
leaf_count=858934 2414 156 1498 28545 140 19932 230 7438 137 268 10213 128 1812 1048 4276 28117 141 155 140 3039 10234 144 1043 440 754 100457 243 9345 352 1453 1788 675 256 6523 85887 2661 302 128 724 161 128 136199 24508 208 193 780 2981 148 132 8514 81517 750 253 270 50853 1892 265 239 14280 63159 996 1164 246 1375 685 146 144 255 199 277 166 281 37296 887 129 133 233 2021 2615 147 157 346 151 5516 1585 666 828 879 211 1829 157 11905 299 32325 1718 1491 2938 2299 1483 314 1445 147 8426 153 150069 445049 128 961 936 357 254 11369 195 6745 3067 6207 144 666 527 290 280 148 142 257 542 253 835
internal_value=0 4.74393 -0.0531397 0.919459 2.69867 -0.110354 10.4647 0.660296 3.66886 2.09762 -0.136904 8.36313 0.0285779 5.07995 1.80604 0.487797 6.91534 3.50249 6.83588 1.28611 0.351343 8.60541 1.55512 1.68275 2.91927 -0.192869 14.4395 0.773677 8.43308 2.86268 1.32427 1.61438 6.95919 1.40376 -0.0307979 2.68528 4.16065 4.89513 2.95246 2.41724 9.34916 -0.0857155 0.198787 8.21714 8.3251 15.6787 2.23435 4.23286 6.60355 0.267031 -0.0371302 6.52318 9.63232 9.63996 0.121664 0.468309 7.93828 6.85065 0.572333 -0.217263 -0.0461958 0.892976 5.20063 1.20501 2.24128 10.5054 9.99441 6.77048 6.12659 2.74487 4.44418 3.83538 0.125559 3.11601 8.19251 9.64698 3.71469 1.89618 1.12953 11.2303 7.77802 1.80426 4.77653 1.48431 1.48133 1.9019 3.84871 3.59425 4.28718 2.97534 14.8655 0.398499 5.67824 0.0638562 3.46095 1.25719 0.769624 2.28483 2.02582 2.43242 3.00985 8.79565 1.0828 2.05319 -0.132404 -0.225679 7.06881 2.39452 1.35028 2.40222 3.99183 0.541601 3.87908 0.802983 1.23983 0.684657 2.86212 5.25419 2.80322 2.93736 6.26125 11.4576 0.86596 2.20517 5.48734 4.34329 2.08695
internal_count=2335684 26164 2309520 128313 16314 2181207 4139 111999 22025 14749 2117611 1565 535174 7641 13894 61274 1280 3073 855 13274 83254 299 28745 10235 14384 1582437 1400 63596 2739 3267 10821 9033 2510 26204 473900 12861 5131 1523 2774 4358 715 350717 64958 715 587 1010 4197 1276 581 48000 214299 2254 446 1587 64449 13596 535 507 43357 1368138 64155 18296 686 20239 2581 1052 906 1152 897 1896 443 565 123183 2541 406 262 987 10340 6968 390 907 3327 1128 10894 4353 2768 4550 3722 1756 1966 285 36413 1347 113842 4379 3383 23425 8482 5656 3242 1759 279 15864 1317 286268 1303983 536 3817 9519 1400 1141 19883 870 16979 8583 20487 425 877 2826 956 408 500 4675 399 741 977 2856
shrinkage=0.03


Tree=4
num_leaves=128
num_cat=0
split_feature=7 7 3 16 3 7 21 7 7 2 3 6 104 6 30 21 104 5 3 6 44 103 53 8 21 104 7 6 3 4 30 3 21 8 7 6 3 44 6 20 104 36 5 3 7 18 5 85 90 8 6 49 7 52 104 104 4 6 66 35 5 104 49 78 104 13 3 16 104 3 0 10 16 53 1 52 6 3 13 10 16 35 6 7 8 20 77 10 18 71 104 52 6 4 13 8 3 2 6 28 7 16 11 24 8 6 10 21 3 4 103 6 3 47 6 56 1 8 1 85 6 6 104 69 8 73 7
split_gain=546131 148418 121284 56450.7 52118.4 49798.4 28100.6 27671.2 24531.4 24061.8 19319.6 15594.1 14631.5 12631.2 11266 11075 8295.16 8205.55 7749.27 7239.53 6954.24 6284.08 5775.76 5744.74 5425.71 5242.38 5067.08 5064.69 4898.4 4111.96 3933.47 3863.06 3688.43 3642.91 3535.81 3513.98 3344.89 3217.91 3416.75 3051.28 2862.56 2759.14 2702.8 2646.08 2643.05 2604.59 2525.93 2592.63 2520.82 2350.04 2346.04 2320.34 2251.44 2242.79 2100.63 2077.84 2027.78 1958.87 1936.63 1911.38 1878.99 1847.02 2653.54 1786.5 1782.02 1756 1633.17 1548.48 1536.43 1533.16 1725.81 1517.16 1598.93 1496.74 1490.1 1481.34 1898.2 1444.1 1601.99 1780.96 2074.76 1443.61 1399.75 1365.09 1355.71 1400.85 1352.33 1343.43 1608.15 1319.99 1298.11 1246.8 1228.89 1228.58 1212.17 1196.16 1191.7 1164.7 1162.15 1156 1139.19 1131.98 1121.19 1075.61 1051.61 1034.99 1024.92 1002.6 979.491 973.411 948.508 943.971 1145.67 934.078 929.938 928.999 917.62 915.243 911.771 902.599 901.391 896.425 891.109 883.306 882.621 861.948 860.705
threshold=4.5000000000000009 15.500000000000002 1.3968576788902285 1.0000000180025095e-35 3.2351002693176274 1.5000000000000002 8.5000000000000018 1.5000000000000002 8.5000000000000018 598.98437500000011 0.43456324934959417 0.60872480273246776 28.500000000000004 0.4078506082296372 2413.5000000000005 5.5000000000000009 23.500000000000004 0.41577447950840002 5.3806252479553232 0.4078506082296372 3225.5000000000005 1.0000000180025095e-35 0.23726923018693927 27.500000000000004 4.5000000000000009 23.500000000000004 2.5000000000000004 0.21503548324108127 1.76342248916626 0.24849884957075122 1.0000000180025095e-35 0.73889476060867321 3.5000000000000004 23.500000000000004 19.500000000000004 0.21503548324108127 0.15886148065328601 1.0000000180025095e-35 0.21835952252149585 0.23448650538921359 23.500000000000004 1.0000000180025095e-35 0.41577447950840002 1.594642758369446 1.0000000180025095e-35 0.1327810883522034 0.33296820521354681 5.2541308832587681e-05 9.5000000000000018 17.500000000000004 0.20642815530300143 1.0000000180025095e-35 19.500000000000004 0.028049727901816372 23.500000000000004 26.500000000000004 0.86841046810150158 0.25891540944576269 0.55755212903022777 7.5000000000000009 0.33296820521354681 29.500000000000004 1.0000000180025095e-35 0.0032521742396056656 32.500000000000007 0.51743733882904064 0.17438522726297381 6364.0000000000009 26.500000000000004 0.89398977160453807 2931.4074707031255 0.39790296554565435 2340.5000000000005 0.45727492868900305 2749.7724609375005 0.028049727901816372 0.39378839731216436 2.33336353302002 0.39522114396095281 0.66513207554817211 1993.0000000000002 8.5000000000000018 0.30068282783031469 2.5000000000000004 168.50000000000003 0.52179512381553661 0.0011962525895796718 0.42437426745891577 0.1327810883522034 0.00091634079581126582 24.500000000000004 0.053686356171965606 0.35636781156063085 1.6085242033004763 0.52883896231651317 128.50000000000003 2.33336353302002 200.33000183105472 0.52394381165504467 1.5000000000000002 1.0000000180025095e-35 1.0000000180025095e-35 0.24910629540681842 2.3158977031707768 70.500000000000014 0.24619620293378833 0.6393718719482423 1.5000000000000002 2.5512486696243291 0.36186988651752477 1.0000000180025095e-35 0.52928683161735546 0.96186774969100963 0.26822288334369665 0.22409420460462573 0.05833710543811322 544.00000000000011 98.500000000000014 481.00000000000006 0.0008761137432884426 0.88332465291023265 0.80268818140029918 30.500000000000004 0.057777404785156257 49.500000000000007 0.00055631931172683846 1.0000000180025095e-35
decision_type=2 2 2 2 2 2 2 2 2 2 2 2 2 2 2 2 2 2 2 2 2 2 2 2 2 2 2 2 2 2 2 2 2 2 2 2 2 2 2 2 2 2 2 2 2 2 2 2 2 2 2 2 2 2 2 2 2 2 2 2 2 2 2 2 2 2 2 2 2 2 2 2 2 2 2 2 2 2 2 2 2 2 2 2 2 2 2 2 2 2 2 2 2 2 2 2 2 2 2 2 2 2 2 2 2 2 2 2 2 2 2 2 2 2 2 2 2 2 2 2 2 2 2 2 2 2 2
left_child=2 8 5 4 11 10 34 23 17 57 19 16 27 30 20 42 35 24 64 44 25 32 52 -5 77 31 65 48 67 -13 54 -15 83 -32 99 108 115 38 -18 107 95 56 103 -44 66 61 47 94 -11 -16 -20 -33 -8 -46 69 -31 125 -6 68 -42 104 62 -27 -58 -14 91 -1 -19 -40 -12 101 -67 -73 92 -62 76 -28 78 -2 -80 -81 -26 -52 -9 85 -34 98 -78 -89 -48 -24 106 -30 -61 123 -17 -96 -64 117 116 -38 114 -88 111 -41 -56 -7 -25 -4 -59 -74 124 -113 -83 -71 121 -3 -23 -49 -70 -99 -21 -121 -36 -10 -37 -35
right_child=1 6 3 7 9 26 22 21 15 12 13 29 18 14 49 40 37 28 50 36 -22 86 90 39 81 45 75 -29 73 55 33 51 84 126 46 41 100 -39 58 60 59 -43 43 -45 53 -47 89 118 -50 -51 82 -53 -54 -55 105 -57 63 109 -60 93 74 -63 97 -65 -66 71 -68 -69 119 70 -72 72 110 -75 -76 -77 87 -79 79 80 -82 113 -84 -85 -86 -87 102 88 -90 -91 -92 -93 -94 -95 96 -97 -98 120 -100 -101 -102 -103 -104 -105 -106 -107 -108 -109 -110 -111 -112 112 -114 -115 -116 -117 -118 -119 -120 122 -122 -123 -124 -125 -126 -127 -128
leaf_value=-0.007081666028084045 0.049705671719139081 0.23211743293290443 0.049630937780072465 6.0031591025992816e-07 0.045295722036749766 0.005969951345032855 0.36893389870182119 0.027139233666133723 0.16557984747228366 0.20786574045858724 0.010595407917094141 0.29193144680155431 0.15665191124047501 0.074607060211168322 0.0040005500677333236 0.21584025937831028 0.023557394952402829 0.087266425916932108 0.20552391227889263 -0.0038141565009028439 -0.00075258894935318569 0.048164646401021041 0.37732760641992702 0.0078899031642083312 0.10019144331502082 0.053941683928234667 0.02419131077668114 0.46415862290879562 0.20894373635127511 0.20862037748991069 -0.0036639767867014603 0.12633215380354812 0.042165020578422009 0.0020565347772566606 0.16537507008934216 0.10069045671949935 0.0022890718089990355 -0.0049709218827322359 0.098403883994058458 0.018310910075576906 0.16876296506348373 0.0077428894725285078 0.12873511240897434 0.28160096458949602 -0.0010973852922866395 0.017666669785976412 0.41748804154428271 0.35696423606601141 0.37683128858988102 0.021436255446604782 0.39016835450182985 0.25483197128877566 0.48131262313001433 0.05300474989260065 0.00060484925431250798 0.081859850289199898 0.25424828781696879 0.1759164141181489 0.1711052254709054 0.212437606392573 0.045028600755013512 0.040522472509119584 0.044437356545308296 0.12615351751102186 0.032950977432176225 0.016329500324098335 -0.0049451820885141919 0.18365384273492805 0.037427656847711765 0.023398613077470622 0.11099064365600017 0.091935754602446268 0.027418546702421515 0.15081499611310983 0.1260555216632312 0.091798423422921077 0.029812603272235165 0.088611011123379047 0.053315230061639809 0.15877033690078501 0.0813992498648477 0.12074787568579949 0.26541960552334787 0.043672118539436408 0.087368482067405509 0.073785293777463887 0.071442504439582208 0.097932056935861794 0.046436186141564549 0.28922120030890119 0.26827264932307165 0.065699834956364195 0.3152012681000762 0.30082598837152602 0.20585027858371968 0.32830729874389936 0.32762097183713002 0.12267251387311547 0.13108071329514101 0.26214959048903841 0.010237687452016293 0.0049808828905224794 0.1748093696199097 0.15878981173048251 0.033868638163511364 0.008664090260461851 0.017840005151878096 0.020913971069590025 0.11539503281708897 0.071239278686698521 0.063515137762200732 0.10041554482064464 0.15793780137978383 0.18128007132775348 0.062228228054616759 -0.0080517767834598769 0.15237289879816984 0.093160888427172794 0.27529091903977471 0.11846836114538387 0.20696141270234397 0.0018066093160103611 0.050857625597832253 0.25634767972543421 0.09085719425094313 0.17843212156940716 0.0091972446508664235
leaf_count=940259 3894 188 1189 27904 556 14522 202 10122 158 150 12856 247 249 1039 23104 128 3921 793 262 79288 2182 798 194 22570 3155 1185 9814 337 357 217 193784 347 3448 48376 333 649 67051 1544 723 12066 865 152 210 198 75075 1854 148 210 169 9955 158 199 780 696 39120 251 226 213 147 592 1479 1983 129 173 181 9601 489734 185 1809 1305 235 408 6715 276 237 403 4428 2764 1697 371 1959 681 166 8085 1345 1988 141 604 5663 141 199 385 135 186 138 254 152 459 354 188 21409 1320 286 572 5785 22642 11921 6960 246 128 726 550 719 346 966 28411 420 830 297 284 152 37669 459 135 1429 160 22147
internal_value=0 4.5397 -0.0518127 0.929803 2.74612 -0.105312 10.386 0.669425 3.5707 6.8455 -0.131723 1.89661 9.08712 0.0708718 0.584498 5.32967 1.61914 2.95014 6.7101 -0.1766 1.54249 1.53253 13.9766 0.362331 2.70929 2.00805 0.755594 12.7686 5.00092 6.43005 0.00705197 3.61862 1.38383 -0.0513092 8.28502 3.12173 -0.0128954 1.14657 1.4225 0.568248 7.22163 4.2735 4.33091 6.764 -0.202022 1.56501 9.16291 8.55353 9.91268 0.308364 9.07585 5.77221 15.2732 -0.0200142 0.203693 4.68785 4.77875 2.66716 2.15268 6.64834 0.874503 2.0281 2.72586 6.62362 3.48608 0.563995 -0.211666 3.51664 1.9933 0.518563 1.07427 0.81092 1.13703 6.89106 1.87398 1.16128 1.12397 2.33135 2.11419 2.55642 3.12396 3.67493 10.8751 1.14936 2.01337 1.79096 3.075 1.41539 1.71331 11.8303 10.7369 0.403385 7.93666 7.78563 7.3827 9.6874 8.98916 4.21159 2.72724 6.57114 0.140426 0.902464 4.68922 4.04133 0.778424 0.118646 0.377373 0.365319 2.03016 4.55414 1.03135 3.79064 4.43357 4.70471 1.33051 -0.106195 5.90102 2.37017 10.304 1.62873 4.78804 -0.0667948 2.55669 6.38724 3.27655 3.86886 0.1433
internal_count=2335684 26199 2309485 119364 14966 2190121 3725 104398 22474 2569 2124931 12397 1672 385339 42588 5861 11682 16613 1016 1739592 9529 27397 1375 77001 14867 7347 65190 656 1746 715 342751 1585 24988 264307 2350 2795 233828 8887 7343 49097 2025 1360 3836 408 1505764 5762 1554 1265 319 33059 586 546 982 75771 78444 468 1208 897 3422 1643 19567 3908 1925 399 430 44278 1429993 978 3275 16682 3826 17450 7849 768 1716 20912 20509 10685 7921 4027 2330 4182 324 18207 6781 5436 2409 10695 6267 289 393 26828 492 778 758 382 290 740 1982 796 88460 3591 427 3428 17851 61762 26443 29530 1435 341 7441 2856 1269 1027 2271 145368 608 1628 507 2552 611 116957 743 468 1587 809 70523
shrinkage=0.03


Tree=5
num_leaves=128
num_cat=0
split_feature=7 7 3 15 3 7 21 7 89 6 7 3 2 43 6 21 29 5 8 7 13 7 5 5 43 5 3 13 35 7 3 6 6 14 14 43 8 5 63 87 5 22 14 49 91 1 5 3 91 10 1 6 14 43 3 5 6 14 14 14 35 43 82 91 3 46 21 14 52 39 8 15 78 1 15 78 8 5 13 14 6 49 7 6 8 87 69 7 6 3 5 57 5 13 1 58 78 58 31 49 5 8 20 3 13 10 15 6 8 47 5 5 1 35 26 8 3 8 85 6 15 87 7 35 10 6 3
split_gain=518141 146527 113899 49699.6 54861.9 42440.6 32321.7 29902.3 22356.4 16942.6 16440 16111.8 13376.5 13097.6 12801.9 8648.27 8333.04 7229.47 7192.73 7107.7 6953.1 6639.01 6143.38 6128.7 5751.93 5699.82 5612.8 4925.57 4819 4584.79 4472.74 4271.53 3958.09 3931.22 3561.43 3552.15 3374.01 3337.06 2611.01 2581.13 2573.55 2449.27 2377.27 2195.37 2168.21 2118.85 2105.06 2080.79 2275.14 2030.56 1987.13 1923.25 1922.18 1902.82 2375.98 1901.45 1762.56 1754.27 1731.18 1711.3 1695.05 1651.86 1619.28 2105.43 2924.54 1612.93 1607.02 1602.31 2678.94 1555.46 1530.12 1476.94 1363.74 1349.41 1337.94 1702.42 1334.15 1314.55 1302.17 1284.82 1229.93 1204.65 1199.11 1189.72 1189.2 1128.23 1116.24 1108.05 1106.02 1063.03 1025.99 1017.97 1002.43 1001.81 989.103 988.148 988.118 984.439 978.217 974.607 963.959 946.178 941.188 937.286 1398.62 1580.48 2024.23 908.808 906.382 901.547 894.782 887.428 1195.44 878.939 912.011 876.522 866.122 857.439 855.473 849.971 832.399 805.592 799.017 790.826 774.354 773.61 1318.25
threshold=4.5000000000000009 13.500000000000002 1.2475786805152895 1.0000000180025095e-35 3.2351002693176274 1.5000000000000002 10.500000000000002 1.5000000000000002 1.5000000000000002 0.51803541183471691 8.5000000000000018 0.30309569835662847 624.95999145507824 1.0000000180025095e-35 0.4078506082296372 5.5000000000000009 1.0000000180025095e-35 0.41577447950840002 29.500000000000004 19.500000000000004 0.067224394530057921 19.500000000000004 0.30294577777385717 0.41577447950840002 1.0000000180025095e-35 0.2998995184898377 0.67629593610763561 0.39522114396095281 5.5000000000000009 2.5000000000000004 1.76342248916626 0.12064238265156747 0.21503548324108127 2.5000000000000004 1.5000000000000002 4.5000000000000009 25.500000000000004 0.41577447950840002 0.27540065348148351 0.0034087387612089519 0.41577447950840002 1.0000000180025095e-35 1.0000000180025095e-35 1.0000000180025095e-35 8.5000000000000018 1293.136657714844 0.41577447950840002 1.76342248916626 8.5000000000000018 2.0191701650619511 498.50000000000006 0.80268818140029918 17.500000000000004 1.0000000180025095e-35 0.75386175513267528 0.33296820521354681 0.25891540944576269 1.5000000000000002 2.5000000000000004 1.0000000180025095e-35 3.5000000000000004 1.0000000180025095e-35 0.00033960753353312617 8.5000000000000018 5.3806252479553232 1.6006397008895876 4.5000000000000009 1.0000000180025095e-35 0.028049727901816372 1.1134335398674013 107.50000000000001 1.0000000180025095e-35 0.00092341366689652215 1798.5000000000002 419.00000000000006 4.5882474296377047e-05 401.50000000000006 0.4196308702230454 0.87526291608810436 4.5000000000000009 0.2402882054448128 1.0000000180025095e-35 1.0000000180025095e-35 0.21017573028802874 8.5000000000000018 0.0089307730086147803 1.0000000180025095e-35 2.5000000000000004 0.21017573028802874 1.594642758369446 0.41577447950840002 1.0000000180025095e-35 0.30152404308319097 0.52627217769622814 1798.5000000000002 0.017562547698685375 0.0089530572295188921 0.03674650005996228 2.1387245655059819 0.58357213437557232 0.41577447950840002 143.50000000000003 0.51883193850517284 2.33336353302002 0.51743733882904064 0.67458000779151928 1.0000000180025095e-35 0.35636781156063085 15.500000000000002 0.26822288334369665 0.41577447950840002 0.30123813450336462 3429.5000000000005 13.500000000000002 0.30444851517677313 4.5000000000000009 0.15298283100128177 14.500000000000002 0.00081880565267056238 0.4078506082296372 1.0000000180025095e-35 0.0020763650536537175 1.0000000180025095e-35 7.5000000000000009 4.1120080947875985 0.52928683161735546 1.0356933474540713
decision_type=2 2 2 2 2 2 2 2 2 2 2 2 2 2 2 2 2 2 2 2 2 2 2 2 2 2 2 2 2 2 2 2 2 2 2 2 2 2 2 2 2 2 2 2 2 2 2 2 2 2 2 2 2 2 2 2 2 2 2 2 2 2 2 2 2 2 2 2 2 2 2 2 2 2 2 2 2 2 2 2 2 2 2 2 2 2 2 2 2 2 2 2 2 2 2 2 2 2 2 2 2 2 2 2 2 2 2 2 2 2 2 2 2 2 2 2 2 2 2 2 2 2 2 2 2 2 2
left_child=2 10 5 4 9 11 21 18 12 22 17 27 56 25 36 46 24 28 117 113 31 55 61 33 26 38 71 67 66 57 78 -14 85 87 80 47 41 51 118 62 65 53 -18 45 49 -27 98 -34 94 -23 -46 120 -21 54 -13 69 -6 100 90 122 -35 83 63 64 -33 123 103 116 -69 76 93 92 -10 -32 75 95 -3 102 -19 -30 -20 -53 -38 -4 -43 -24 -58 -9 -56 -48 -31 -60 -16 -25 -49 -52 -79 -50 125 -94 -7 -62 124 104 -2 -106 -107 -72 -44 -81 -82 -90 -113 114 -8 -39 -1 -5 -11 -119 -28 -77 -29 -17 -36 -12 -127
right_child=1 6 3 7 8 29 19 23 72 13 15 14 20 -15 16 40 42 30 34 52 -22 44 32 70 -26 43 37 59 79 58 73 39 35 60 77 -37 82 115 -40 -41 -42 84 108 -45 50 -47 89 48 97 -51 74 81 -54 -55 88 -57 86 -59 91 -61 101 -63 -64 -65 -66 -67 -68 68 -70 -71 107 -73 -74 -75 -76 121 -78 96 -80 109 110 -83 -84 -85 -86 -87 -88 -89 111 -91 -92 -93 99 -95 -96 -97 -98 -99 -100 -101 -102 -103 -104 -105 105 106 -108 -109 -110 -111 -112 112 -114 -115 -116 -117 -118 119 -120 -121 -122 -123 -124 -125 -126 126 -128
leaf_value=-0.0068630733062836034 0.047433362597997714 0.18609412621584617 0.017293362358447115 -0.0042676992206282178 0.043112691031573717 0.01065219441870535 0.31984828177225461 0.023698497968841045 0.34434357097194451 0.069913536393307621 0.08815502202748314 0.0024812330667085139 0.10128008398214276 -0.0065451788209115389 0.02841233851003367 0.15740608582770493 0.0017207004706143992 0.080629189402049731 0.0074745503198980446 0.36161911546799819 0.037581614198739101 0.23525875125762441 0.033941945120322274 0.052871124554133932 -0.0013865433276878845 0.12618656847672771 0.063970142867843249 -0.0031504191114427645 0.090118964874461388 0.025597796776360558 0.16462530118254728 0.22945048441356988 0.07590287724498046 0.044830964166500266 0.020512458967035251 -0.0086502538858833963 0.0013018626440189436 0.20064657012625647 0.20702354950146584 0.19066021271456668 0.30759948936956266 -0.0055428963696124954 0.0095892267359448738 0.31423649490401145 0.32244157863883949 0.2563615487770512 0.13921166565461918 0.15308514062569223 0.082789250245246665 0.37273999261015123 0.20495589931316943 0.081080371643797375 0.46542215086560906 -0.0061358605795794729 0.0099450317693844711 0.27144623960862219 0.17445140562622863 0.026868650192659438 0.045148520224925853 0.0058109535727536585 0.060925732662212365 -0.0040928834192194303 0.40225693203394225 0.19146983963668726 0.39140992934548335 0.26882466040920505 0.092210369054096561 -0.002053897348687341 0.0525512055115002 0.2696590157467445 0.10285569440807077 0.014058122951994689 0.45997785520162515 0.24559348535661296 0.30019692468922582 0.28453356968724541 0.12022017828847577 0.046924793819540012 0.16309067836189201 0.11361444801617035 0.016378113800858008 0.16654188532955372 0.0081570119991781626 0.041864970290285623 -0.0019844541836419169 0.093531583982875283 0.070530620625144549 0.039226207883211676 0.017855153637106953 0.24600195233882577 0.051483366469696798 0.096889038323110965 0.041131386279195381 0.10979907361034313 0.25810587355735853 0.099825560315005959 0.12363205093805764 0.16265585067178956 0.14830032692910558 0.082850606751087255 0.027823095876256587 0.096219296208975902 0.047931085111053838 0.082290187753413305 0.0525045843741909 0.16133735584708411 0.078454725038597628 0.18619522114501411 0.021867430844602975 0.16030385606949099 0.044165148493032776 0.038727352483794573 0.12878140307389771 0.3572896564551416 0.21604234566215338 0.10254969669040293 -0.0051964111676836081 0.0023366228545375466 0.14887331348157928 0.024105775899437125 0.018797225533804345 0.19241702496190555 0.0035845754851872901 0.2051557218425093 0.043674794331468356 0.088468717212267844 0.15464833201163711
leaf_count=907645 3790 716 3823 22622 563 28672 182 10147 157 474 1342 39010 142 481 2687 738 30632 726 25421 200 152 142 2920 1150 3336 199 1413 97361 1003 12962 456 178 1264 7286 11717 295 74798 228 237 229 189 152609 13329 225 271 259 174 187 540 303 193 406 814 16118 5237 198 204 9898 4413 31684 2628 1716 130 157 230 202 2523 58211 820 131 1028 3014 221 312 192 257 451 1070 226 857 11811 234 33140 3308 189455 317 171 6982 2308 162 1542 371 1448 367 142 138 176 187 532 773 3279 924 1531 2253 1721 317 1623 133 9109 658 1144 1836 143 197 131 128 406220 17053 167 1783 496 128 18937 541 1461 531 553
internal_value=0 4.43296 -0.0500183 0.80577 2.30155 -0.107644 9.5253 0.577737 6.63792 1.64518 3.32936 -0.131524 5.39421 4.34426 0.00999204 4.92456 0.42037 2.84843 0.302667 13.3 7.58008 7.68149 1.27022 1.43754 1.10186 5.75011 1.4556 -0.185667 2.62211 0.713681 4.78856 8.48229 2.06511 1.29915 0.542037 2.98012 -0.0436186 2.64459 4.06475 9.26702 6.77832 -0.0853302 0.238499 7.91664 9.08156 6.66003 3.98474 3.39572 4.43184 10.9623 8.37168 2.24405 14.8316 0.0931686 0.192033 6.16164 2.55584 0.527769 1.11705 -0.0123287 1.77049 0.744427 10.2264 9.49423 10.6917 6.33485 2.36268 -0.204351 -0.0431793 5.72132 2.88272 1.01959 13.7317 6.58395 7.66244 7.03384 5.35455 0.939109 3.34017 3.88188 0.376952 3.74424 0.113553 0.956396 -0.119067 1.32592 4.23545 1.00093 0.639826 6.35666 0.944994 1.6387 1.35796 2.22145 6.61377 5.37084 1.92533 3.44442 3.71532 1.85505 0.413812 2.33689 0.855567 2.17783 2.00693 2.44775 3.0666 3.74676 0.485791 4.46309 0.627729 1.01648 1.50782 10.2549 9.21341 5.51253 -0.211593 -0.0110287 3.01617 0.146576 1.74111 8.46359 -0.0684583 5.92012 0.769346 3.44602 4.07434
internal_count=2335684 26073 2309611 145709 19275 2163902 4644 126434 2534 16741 21429 2102765 2156 2042 581887 4964 67233 16465 95789 1524 1218 3120 14699 30645 14163 1561 10827 1520878 14745 61137 1720 1066 5852 27967 54331 2615 514654 2905 878 924 1670 406716 53070 683 1624 458 3294 2320 1056 445 1179 2549 1014 64652 48534 1496 938 41849 19288 147982 10838 8847 695 565 408 1481 12227 1372896 59031 1298 2678 7922 378 768 908 716 1167 15955 952 2518 38376 640 107938 7131 342064 3237 375 17129 9524 336 14504 4784 4908 1517 329 331 1246 727 2958 2221 31951 3552 14709 9704 7451 3661 1940 1161 22438 1515 12955 4287 1979 510 313 356 1313865 41458 641 18836 1909 385 116298 1279 13178 2426 1084
shrinkage=0.03


Tree=6
num_leaves=128
num_cat=0
split_feature=7 7 3 16 3 7 35 7 7 6 3 2 6 29 104 3 104 24 14 103 7 43 103 14 16 104 6 35 14 104 3 3 14 14 24 6 23 8 49 6 11 87 6 8 24 52 7 5 9 8 81 66 43 6 9 91 8 6 3 8 104 45 104 3 6 52 13 5 43 3 46 8 8 11 8 57 6 5 14 14 3 6 7 35 37 85 104 9 6 103 14 39 7 2 47 7 3 6 53 78 12 16 63 20 42 3 87 69 43 6 8 3 6 16 3 52 2 3 3 0 69 50 40 9 6 8 20
split_gain=491021 139873 106744 48973.6 46902.5 43953.5 24931.8 24609.9 19196.6 17377.7 17235 14607.6 11085.6 10192 9333.83 11657.1 7872.79 6876.36 6859.08 6657.1 5985.79 5966.44 5773.21 5704.1 4672.88 4958.54 4606.88 4491.29 4485.37 4445.9 4381.79 4046.74 3968.26 3772.55 3703.18 3544.68 3455.72 3460.42 3195.97 3104.09 2993.33 2692.95 2562.28 2552.02 2531.58 2496.86 2491.25 2412.85 2382.19 2254.52 2252.54 2213.7 2133.83 2358.21 2110.17 2085.75 2076.87 1990.96 1942.7 2228.45 2091.18 1842.78 1807.63 1921.28 1796.54 1749.25 1687.08 1665.41 1662.91 1655.03 1583.8 1563.08 1558.02 1489.52 1459.82 1459.78 1454.48 1423.25 1388.61 1366.14 1294.92 1290.4 1263.42 1248.6 1228.72 1228.38 1369.61 1216.32 1171.07 1117.01 1082.66 1075.35 1039.26 999.245 979.658 971.527 969.915 963.56 957.948 1362.39 952.335 1009.06 947.544 928.731 917.557 912.047 892.082 1484.59 890.877 885.158 873.293 872.305 1118.77 984.088 865.083 848.341 841.43 840.26 821.854 813.664 811.339 807.842 794.666 775.604 771.429 808.087 761.423
threshold=4.5000000000000009 14.500000000000002 1.3968576788902285 1.0000000180025095e-35 3.928659319877625 1.5000000000000002 8.5000000000000018 1.5000000000000002 8.5000000000000018 0.60872480273246776 0.43456324934959417 598.98437500000011 0.4078506082296372 1.0000000180025095e-35 26.500000000000004 3.2351002693176274 28.500000000000004 2.1529206037521367 1.0000000180025095e-35 1.0000000180025095e-35 19.500000000000004 1.0000000180025095e-35 1.0000000180025095e-35 1.5000000000000002 2340.5000000000005 27.500000000000004 0.39157132804393774 4.5000000000000009 2.5000000000000004 23.500000000000004 2.1582909822463994 0.75386175513267528 17.500000000000004 3.5000000000000004 5.5499789714813241 0.21503548324108127 1.0000000180025095e-35 26.500000000000004 1.0000000180025095e-35 0.4078506082296372 0.31904216110706335 0.0089307730086147803 0.21503548324108127 27.500000000000004 3.472956776618958 0.053686356171965606 2.5000000000000004 0.26922346651554113 1712.5000000000002 14.500000000000002 0.00092978024622425448 0.55755212903022777 1.0000000180025095e-35 0.21503548324108127 4647.5000000000009 8.5000000000000018 12.500000000000002 0.21503548324108127 1.8583354949951174 185.50000000000003 23.500000000000004 1.403805196285248 23.500000000000004 0.93747752904891979 0.78618025779724132 0.053686356171965606 0.39057555794715887 0.42100499570369726 4.5000000000000009 0.13825491815805438 1.6006397008895876 368.50000000000006 7.5000000000000009 0.31904216110706335 107.50000000000001 1.0000000180025095e-35 0.21017573028802874 0.41577447950840002 5.5000000000000009 4.5000000000000009 1.594642758369446 0.69021436572074901 2.5000000000000004 2.5000000000000004 2413.5000000000005 0.00085091512301005434 29.500000000000004 4680.5000000000009 0.60872480273246776 1.0000000180025095e-35 1.0000000180025095e-35 0.24386886507272723 1.0000000180025095e-35 807.50000000000011 0.4186257272958756 10.500000000000002 1.0356933474540713 0.21503548324108127 0.45727492868900305 0.00018055534746963533 0.28401239216327673 4264.5000000000009 0.27540065348148351 0.32444880902767187 19.500000000000004 2.1582909822463994 4.7623290811316117e-05 0.020333698019385341 1.0000000180025095e-35 0.80268818140029918 10.500000000000002 1.6741254925727846 0.4078506082296372 2340.5000000000005 1.76342248916626 1.0000000180025095e-35 1269.8599853515627 0.65248042345047008 0.84097883105278026 2019.653503417969 0.037508180364966399 0.14730914123356345 0.28330361843109136 4647.5000000000009 0.52152189612388622 70.500000000000014 0.68107792735099804
decision_type=2 2 2 2 2 2 2 2 2 2 2 2 2 2 2 2 2 2 2 2 2 2 2 2 2 2 2 2 2 2 2 2 2 2 2 2 2 2 2 2 2 2 2 2 2 2 2 2 2 2 2 2 2 2 2 2 2 2 2 2 2 2 2 2 2 2 2 2 2 2 2 2 2 2 2 2 2 2 2 2 2 2 2 2 2 2 2 2 2 2 2 2 2 2 2 2 2 2 2 2 2 2 2 2 2 2 2 2 2 2 2 2 2 2 2 2 2 2 2 2 2 2 2 2 2 2 2
left_child=2 8 5 4 9 10 20 23 19 14 18 -6 36 21 15 26 35 49 39 27 44 24 33 43 25 31 41 65 46 95 91 102 122 82 48 -13 52 110 116 72 47 57 -18 -5 71 54 87 -11 -22 -10 -43 61 53 -12 -20 -44 -15 -4 59 -50 -60 76 63 -55 -49 78 -62 88 106 -41 100 -3 -1 -61 103 94 -16 124 111 -29 -69 -40 -9 -35 108 -78 114 118 -51 -48 -39 -21 -45 -65 -30 -19 -90 -76 99 -32 -31 -102 -14 -24 115 -66 107 -59 120 -27 -38 112 -2 117 -87 -34 -33 -114 -7 -99 -71 -79 -8 -113 125 -25 -98
right_child=1 6 3 7 11 28 32 22 17 40 12 16 13 56 51 -17 42 29 45 30 34 -23 74 77 -26 109 -28 79 75 70 98 38 104 83 -36 -37 37 90 81 69 -42 50 55 92 -46 -47 89 64 58 67 -52 -53 -54 62 -56 -57 -58 68 60 73 66 -63 -64 93 105 -67 -68 80 -70 84 -72 -73 -74 -75 97 -77 85 121 -80 -81 -82 -83 -84 -85 -86 86 -88 -89 96 -91 -92 -93 -94 -95 -96 -97 126 119 -100 -101 101 -103 -104 -105 -106 -107 -108 -109 -110 -111 -112 123 113 -115 -116 -117 -118 -119 -120 -121 -122 -123 -124 -125 -126 -127 -128
leaf_value=-0.006497636142391571 0.037696629379350859 0.20226693170576204 0.039166983004540683 -0.0015523695355059864 0.05186882131239947 0.0080519354580906345 0.38346693884697741 0.024977779165468894 0.21869247777319353 0.10915436362037222 0.003406843839362256 0.287487976543639 0.059115219560299748 0.0018896850936327499 0.020087866478840088 0.32786269803930601 0.16171739028169685 0.23868142170196321 -0.00049811786365852161 0.089196867421346776 0.1929375319595675 -0.00029154273716445962 0.048532852996109148 0.013839924063080506 0.020825522991363976 0.033430242251720678 0.18890756753142987 0.085315685387972781 0.035095238180821935 0.20243312114985151 0.17419358712165278 0.088737061122490926 0.36915170408223735 0.046848112674205231 0.40644673274587029 0.45240065681219099 -0.0050281632542156047 0.0016325168131709582 0.17204914446496425 -0.0041202163706992303 0.067473542313826712 0.090638290766140037 0.35265231308366957 0.0071083888336044817 0.28512301981604343 0.053223157324612774 0.025241530837063174 0.1700381899997592 0.31174426653398774 0.093805169234378261 0.22765947822031152 0.14938059251885585 -0.0056440681009961849 0.022535175789486276 0.0093634224649113001 0.2156143438735281 0.016992775966105749 0.093672364689059193 0.38488900046917746 0.25393718088875172 0.19196073611713435 -0.0047362057364979636 0.011405811483070355 0.04528233010704933 0.25070977464171468 0.15707916454397713 0.31106680887279814 0.13161467044857209 -0.0095037404033872803 0.014350618346361536 0.23422293613117887 0.12467312776224225 -0.0040369252175396775 0.1135145985298501 0.081980372247248093 0.083292769159917943 0.03514004785776291 0.045522579615718255 0.084946481545258468 0.12501508820829096 0.25104180691970718 0.28584147169039797 0.040882865065049276 0.072750266629265495 -0.00064565933594363145 0.079422956732628142 0.051116816353623494 0.023358014519347121 0.10205650741899651 0.051000257189232831 0.0093894546047201266 0.16198448776718896 0.017917245294484564 0.1059137154250563 0.09926687482081048 0.33879245166793803 0.21884493687144527 0.11861349355424508 0.15334969404877888 0.28667829923406246 0.12278405245430241 0.18467031812692614 0.11236956267128928 0.10400142838244744 0.47526692798104853 0.34922139676608915 0.062736410979921609 0.19783606403166876 -0.003376626679750794 0.074743549172444884 -0.0011643039709016108 0.068260089839285207 0.0660922029066799 0.056260834573195258 0.17417943210500042 0.46193446876108646 0.17567962693981826 0.13416547741863083 0.019793040233752505 0.20002035048867886 -0.0098822400665940658 0.11087748333209138 0.28921545055021058 0.11975454407508862 0.039583538392457845 0.02830696378051005 0.13980619861809596
leaf_count=1132674 2366 592 2259 24990 323 22387 128 10404 205 131 29739 221 1176 18529 3195 168 365 173 100473 903 333 2149 885 7746 2287 1977 293 1356 9583 330 188 461 199 3903 184 250 106316 41352 211 117781 133 379 167 22092 216 843 13866 159 197 1800 151 136 10773 4620 24240 249 14692 817 244 128 146 1333 17566 671 203 195 401 207 162 12737 298 386 291090 145 514 640 1945 1028 2771 1837 135 156 7914 2934 54457 184 692 9209 504 1701 26618 229 12556 385 219 176 143 475 216 200 691 361 404 392 436 145 599 145 4475 611 104285 2954 351 2390 164 160 128 305 7057 144 1378 204 217 289 2161 6302 471
internal_value=0 4.30828 -0.0489384 0.870953 2.56283 -0.0991824 9.66255 0.628952 3.30952 1.95579 -0.123894 7.72479 0.0675331 0.547469 1.67426 2.74076 9.27164 4.92918 -0.166258 2.77186 8.13752 1.45735 1.43989 0.338944 1.88276 2.41325 2.45448 2.55474 0.713019 6.39117 4.62455 3.40701 13.6383 1.29824 9.3005 12.5007 0.00755457 -0.0405112 5.03098 -0.183766 6.56465 2.20496 7.32427 0.191832 6.40571 0.0588818 0.597438 7.46429 8.81017 4.07308 4.32255 0.98088 0.217576 0.300073 0.0472878 9.02091 0.285634 1.92311 9.43839 7.82817 10.3952 0.9085 0.53872 1.02933 8.45281 2.26612 9.30921 3.8708 2.73275 -0.0639997 5.71649 5.7214 -0.199818 5.97846 2.91843 1.31317 1.13851 0.841983 2.21544 3.60519 5.95857 7.34729 1.06164 1.93212 0.054255 1.64042 2.5177 0.461406 3.62611 0.935206 0.155675 3.46405 0.367513 2.24625 1.21763 9.63891 4.42994 3.7447 6.79954 7.73918 5.26562 4.80069 2.42441 2.18533 14.8674 9.72521 3.04923 3.64576 0.276234 1.43946 -0.103829 2.01819 1.77243 2.17315 4.13594 13.6834 3.58771 3.25807 0.3622 4.58505 0.399495 1.87814 10.8061 2.4283 0.763227 0.677664 5.27381
internal_count=2335684 26156 2309528 119612 14968 2189916 4112 104644 22044 13393 2125254 1575 385106 42781 12622 4973 1252 5494 1740148 16550 2972 9560 27565 77079 7411 5124 4805 14814 64662 2029 1736 2536 1140 25155 1778 471 342325 278571 956 1614592 771 4512 781 59638 1194 125556 54220 638 1594 3465 530 7649 63754 52981 124713 416 33221 3982 1261 470 791 7513 23242 5676 507 11621 547 3260 1723 190828 1680 978 1423764 273 2410 10442 6180 17441 11426 3193 342 367 18318 6837 73047 2985 1040 38653 2918 15567 67970 1132 34648 1056 9802 349 1118 1133 604 388 1382 1052 1580 1277 795 348 1561 962 18590 2588 210601 8655 5412 3046 348 359 589 656 29444 619 14115 1232 345 3243 16209 14048 614
shrinkage=0.03


Tree=7
num_leaves=128
num_cat=0
split_feature=7 7 3 16 3 7 21 7 6 7 2 7 104 21 3 43 3 6 29 89 7 7 53 5 5 43 7 3 6 43 6 7 5 21 72 21 10 66 104 49 104 6 6 53 6 22 58 36 46 49 5 52 5 24 3 21 3 104 3 13 13 3 87 87 52 6 10 7 12 90 3 0 6 32 87 10 6 3 21 52 16 50 21 104 10 18 5 6 21 12 104 21 17 52 56 86 52 1 10 13 10 85 13 3 73 0 72 13 6 19 52 10 13 6 1 16 70 5 1 49 17 5 17 21 3 7 91
split_gain=458997 125451 99996.1 43534.5 48883 38145 30035.2 26784.8 19128.4 15181.3 14556.1 12707.8 9466.88 9280.38 8646.99 8324.86 7789.04 7018.74 7359.07 6594.97 6566 6107.5 5739.85 5508.17 5470.2 5088.26 5065.42 4664.75 4637.1 4230.12 4320.98 4087.8 4080.04 3576.89 3555.03 3295.02 3154.83 2990.25 2914.19 2904.46 3178.79 2695.02 2651.42 2611.2 2440.61 2382.79 2334.23 2179.27 2103.35 2019.77 2000.9 1899.73 1811.43 1805.53 1726.37 1656.22 1609.86 1620.63 1571.62 1706.14 1565.39 1562.99 1511.56 2905.36 1486.7 1724.03 1392.43 1392.32 1385.11 1355.08 1320.28 1310.86 1306.75 1302.99 1292.69 1278.85 1267.64 1266.54 1217.12 1214.43 1209.69 1197.11 1177.58 1120.11 1118.58 1523.64 1117.1 1109.65 1099.95 1066.56 1050.07 1049.61 1048.59 991.728 967.631 966.385 932.188 925.358 894.376 962.616 880.338 870.646 870.361 2209.27 867.56 841.597 963.612 836.011 832.156 829.617 828.708 879.297 818.499 815.549 805.001 800.212 782.333 781.059 780.014 775.515 767.354 755.061 754.185 742.269 737.161 735.904 735.211
threshold=4.5000000000000009 13.500000000000002 1.2475786805152895 1.0000000180025095e-35 3.928659319877625 1.0000000180025095e-35 10.500000000000002 1.5000000000000002 0.60872480273246776 7.5000000000000009 598.98437500000011 1.5000000000000002 23.500000000000004 4.5000000000000009 0.30309569835662847 1.0000000180025095e-35 2.8341231346130376 0.39378839731216436 1.0000000180025095e-35 1.5000000000000002 19.500000000000004 19.500000000000004 0.45727492868900305 0.41577447950840002 0.41577447950840002 1.0000000180025095e-35 1.0000000180025095e-35 0.599748194217682 0.11801728606224061 1.0000000180025095e-35 0.24822764098644259 2.5000000000000004 0.41577447950840002 3.5000000000000004 0.10163320228457452 3.5000000000000004 2.1843923330307011 0.55755212903022777 23.500000000000004 0.58357213437557232 23.500000000000004 0.22409420460462573 0.4078506082296372 0.23726923018693927 0.78618025779724132 1.0000000180025095e-35 0.017562547698685375 1.0000000180025095e-35 1.6006397008895876 1.0000000180025095e-35 0.41577447950840002 0.053686356171965606 0.41577447950840002 2.3158977031707768 3.2351002693176274 1.0000000180025095e-35 0.599748194217682 23.500000000000004 2.33336353302002 0.52627217769622814 0.51743733882904064 0.28883016109466558 0.00057208057842217397 0.0029786975355818872 0.028049727901816372 0.4078506082296372 0.5359727442264558 2.5000000000000004 0.31338024139404302 8.5000000000000018 2.1582909822463994 656.89788818359386 0.87475359439849865 0.25128796696662908 6.4591276895953356e-05 0.3613534569740296 0.39378839731216436 2.1582909822463994 3.5000000000000004 0.053686356171965606 2340.5000000000005 1.0000000180025095e-35 1.0000000180025095e-35 26.500000000000004 0.429308831691742 0.1327810883522034 0.41577447950840002 0.67931118607521068 1.5000000000000002 0.30054228007793432 23.500000000000004 1.0000000180025095e-35 0.50434195995330822 0.053686356171965606 0.05833710543811322 0.0038764702621847395 0.042491113767027862 1469.5000000000002 1.7373632788658144 0.51743733882904064 0.063574306666851058 0.00094875338254496466 0.35759302973747259 1.0356933474540713 0.00094442727277055394 3190.227416992188 0.08387914672493936 0.38877893984317785 0.27638874948024755 0.26082396507263189 0.053686356171965606 2.3438158035278325 0.39522114396095281 0.2230041325092316 3324.5000000000005 4321.0000000000009 0.0013495684834197166 0.41577447950840002 1894.5000000000002 1.0000000180025095e-35 3.0240525007247929 0.41577447950840002 0.28275723755359655 1.0000000180025095e-35 2.33336353302002 11.500000000000002 8.5000000000000018
decision_type=2 2 2 2 2 2 2 2 2 2 2 2 2 2 2 2 2 2 2 2 2 2 2 2 2 2 2 2 2 2 2 2 2 2 2 2 2 2 2 2 2 2 2 2 2 2 2 2 2 2 2 2 2 2 2 2 2 2 2 2 2 2 2 2 2 2 2 2 2 2 2 2 2 2 2 2 2 2 2 2 2 2 2 2 2 2 2 2 2 2 2 2 2 2 2 2 2 2 2 2 2 2 2 2 2 2 2 2 2 2 2 2 2 2 2 2 2 2 2 2 2 2 2 2 2 2 2
left_child=2 9 5 4 8 14 20 26 12 23 -6 42 16 50 44 39 41 45 25 28 53 68 -18 35 33 27 55 90 -12 30 105 60 48 67 62 93 73 54 49 40 -10 -4 51 -23 91 56 58 76 89 -29 102 66 88 71 83 -5 -16 113 81 69 79 -44 -30 -64 65 -33 -7 -9 -8 -60 107 92 -40 -25 -48 -62 116 -42 -26 -13 -77 -22 -47 101 -67 -86 122 -51 -28 125 -19 -1 -3 98 -46 -21 -93 -80 99 -2 -66 -32 124 -104 -56 -14 -107 -52 -76 -101 111 -37 -100 -58 -54 120 -43 -68 -38 -74 -35 -82 -63 -20 -11 -15 -73
right_child=1 6 3 7 10 11 21 24 15 13 19 31 29 32 17 -17 22 18 123 95 46 43 -24 36 78 -27 52 38 34 -31 37 64 -34 115 -36 110 118 -39 72 -41 77 47 61 -45 94 82 74 -49 -50 87 70 -53 114 -55 104 -57 57 -59 59 -61 75 86 63 -65 100 84 117 -69 -70 -71 -72 126 119 -75 108 80 -78 -79 97 -81 121 -83 -84 -85 85 -87 -88 -89 -90 -91 -92 96 -94 -95 -96 -97 -98 -99 112 109 -102 -103 103 -105 -106 106 -108 -109 -110 -111 -112 -113 -114 -115 -116 -117 -118 -119 -120 -121 -122 -123 -124 -125 -126 -127 -128
leaf_value=-0.0060687478053222292 0.036596339744793614 0.24372287456862976 0.047545475143104282 6.7684821437765164e-05 0.046046333818969019 -0.00046976860414566179 0.3269907203365327 0.023672535897872802 0.29882160028724586 0.064222654454266795 0.071059450143543271 0.0091623144089271382 0.020253025542857669 0.16491348102219461 -0.00078798146612662329 -0.011574841866205478 0.10541934311313897 0.049567286217304531 -0.00027190798148969453 0.34539986874313039 0.27201145195747961 0.4435385881519408 0.37285404720094423 0.082013620922051736 0.06912307399055774 -0.0018259788123776211 0.012177162925945725 0.08534447061182017 0.1360925161041602 -0.0055212180066170312 0.067088101316099505 0.020610750851078993 0.28506983377203182 0.040707932071553585 0.34581638608566884 0.075402910930742875 0.16072317464893876 0.18225180854648351 0.042899475323711016 0.30360969741227578 0.1047724377862754 0.095038797863598451 0.0055950568427828445 0.32746195910698067 0.0019237308411510184 -0.0041003085733954314 0.15592953468006676 0.0021497704738920385 0.23949576850940749 0.12544041235161865 0.074161575134999824 0.051540007019103259 0.03906806772618298 0.22958978829955135 0.17197115530042412 0.0097873772589335151 0.012177304301305614 0.0042240462086504012 0.33179504585509512 0.37253691952143397 0.013993884842111356 0.041943761236392527 0.33853783870998183 0.17284746816719687 0.042025817900470323 0.027471232712874154 0.0048383660948662149 0.039280528688988021 0.22391465331972965 0.21174741134428504 0.23116164436913095 0.1741893366280943 0.067643847456896056 0.16816363749166849 0.197189293709474 0.079485296407497893 0.1975960270985018 0.21410850437983339 0.082395631263348576 0.062252230860002172 0.02469577395774878 0.16975387566341649 0.00028465138464194744 0.042984150822264547 0.09429199991859627 0.0424096168946363 0.038399630493875458 0.24553043345324427 0.024834819239631791 0.13489874252919182 0.018290497740042776 -0.0023596234049711425 0.15282809368265357 0.13858016491411848 -0.0075491416770370233 0.4537299914793535 0.042173676078378311 0.14938002125263003 0.063686779805160049 0.094949695223172328 0.13459915064978509 0.14347104735850932 0.076004695430691022 0.14086266555742399 0.070317492783069604 0.023683430141009723 0.097684703987603344 0.16720197139342263 0.30233026330669721 0.054507657886297051 0.16286865546315593 0.10262328493656281 0.10293958300779862 0.03336149170202652 0.10611789598932553 0.07496034648663584 0.16411674623188197 0.018741174149382634 0.23595114796580569 0.14297605666083907 0.062974273733651803 0.057157102920156848 0.012929540537488148 0.0083358663406376855 0.10056611343659212 0.23745016536894878 0.10645225377611066
leaf_count=1314487 2366 192 1624 40505 328 87196 337 11805 152 975 138 24587 5909 635 49674 174 147 1241 22844 169 334 788 142 767 1909 3301 17678 518 158 2322 686 8830 273 3343 280 2107 299 180 1938 244 299 887 28054 224 51358 287834 260 165 281 138 152 692 2183 337 167 25846 3927 22537 163 252 8877 845 171 215 175 4431 38518 9116 180 176 160 200 322 199 136 430 158 140 389 394 6843 149 68174 2933 566 5097 1903 139 9499 1265 4361 60778 282 141 11966 132 426 355 2558 566 196 167 870 1035 138 358 284 203 135 2360 142 2166 588 2803 174 1446 177 4016 212 199 2388 712 17607 14895 1036 157 517
internal_value=0 4.16353 -0.047698 0.754245 2.16391 -0.101689 8.86634 0.542254 1.68018 3.1444 7.47031 0.274249 1.42086 4.34862 -0.148581 5.9065 2.93514 -0.0330822 0.322152 9.01173 7.09316 12.4997 7.89411 2.55839 1.35436 0.998796 0.281806 1.39378 7.73353 1.04067 1.30345 0.667821 5.84411 1.22476 8.63201 2.35039 4.38833 2.08603 2.34604 7.21772 6.01935 2.45917 0.139697 13.9282 -0.187496 -0.0738335 8.50568 3.48289 5.41695 4.0104 3.4674 0.0655136 0.626311 5.60946 1.91052 0.128461 0.0833482 0.269393 9.35365 10.4472 0.492231 0.339559 7.14184 8.20831 1.0486 1.00974 0.056699 1.01578 9.70345 8.98231 5.32042 5.03123 1.80795 3.32536 6.79058 0.727655 3.94349 4.65468 2.72695 0.333322 1.01802 8.01554 -0.108687 1.72614 1.29204 1.5865 0.550507 6.19007 0.553377 5.06639 0.840639 -0.196331 6.32154 1.98914 0.00445641 13.0969 -0.0683219 3.81191 1.94519 1.69417 3.03108 2.73474 3.2237 3.70808 4.19923 0.793244 1.88064 4.2455 8.31886 2.07769 3.05235 2.97337 2.36744 0.700013 1.46726 1.83392 3.551 0.205035 6.39777 3.21392 1.6662 0.925167 0.475274 0.104182 2.76485 5.97642 4.17823
internal_count=2335684 26175 2309509 145680 19044 2163829 4662 126636 17453 21513 1591 239969 16444 7042 1923860 1009 3300 484845 49896 1263 3133 1529 289 14471 30751 12157 95885 8856 962 13144 10822 61138 2611 28098 824 12994 1477 4271 3254 835 591 3011 178831 1012 1439015 434949 1605 1387 2338 795 4431 130422 29534 1528 4091 66351 78941 29267 1074 591 41843 48409 544 386 19295 18924 129730 20921 517 339 515 1191 2459 966 531 16862 1222 439 2653 24981 7985 483 356008 3786 10094 5663 20355 277 27177 2057 5602 1375691 474 8579 63324 301 61204 744 8438 5292 371 853 3916 1905 305 6551 642 355 271 2926 4415 4273 3146 6730 2357 7177 1064 42534 511 521 5731 7555 18452 37739 2011 792 717
shrinkage=0.03


Tree=8
num_leaves=128
num_cat=0
split_feature=7 7 7 3 15 3 2 28 7 3 7 104 6 6 29 44 3 24 24 3 6 44 103 5 104 22 15 6 7 104 103 5 49 104 29 87 9 35 5 6 3 3 10 53 10 7 57 85 7 5 57 6 104 69 2 3 15 101 15 3 89 5 6 51 7 10 3 5 15 104 41 10 3 6 11 44 6 85 6 3 19 3 38 54 6 54 103 19 6 15 20 17 0 10 71 63 0 7 1 10 6 6 3 85 4 55 53 28 6 79 5 6 15 1 10 57 104 27 1 53 3 6 87 4 15 71 87
split_gain=436670 110686 95954.6 49481.9 53411.4 45312.9 19909.8 19623.3 17884 15278.9 14821.6 12342.8 10329.1 9880.46 9009.67 8290.54 7538.13 6998.84 6521.41 6155.46 5661.46 5397.65 4881.35 4832.59 4690.35 4291.11 4206.38 4064.93 4036.9 3909.31 3843.8 3772.02 3736.85 3722.03 2969.76 2942.41 2845.9 2761.23 2739 2831.46 2723.39 2599.25 2489.63 2233.56 2227.38 2213.21 2172.36 2118.77 2090 2063.31 1970.5 1960.54 1835.52 1744.29 1711.56 1710.2 1746.01 1702.45 1652.99 1645.54 1642.08 1636.52 1601.21 1589.5 1558.65 1534.79 1506.15 1449.43 1448.12 1424.82 1396.96 1355.73 1342.47 1317.54 1309.22 1287.81 1439.52 1244.55 1238.62 1235.59 1230.83 1223.16 1213.84 1172.7 1165.59 1150.61 1129.78 1099.88 1075.09 1062.31 1055.32 1027.38 1023.93 1003.25 954.224 940.675 940.41 939.87 936.102 904.616 891.034 886.846 883.033 862.971 861.549 860.064 852.331 846.121 839.44 828.839 819.229 798.675 902.751 793.078 777.139 878.483 775.202 768.774 766.64 762.245 747.538 729.285 728.394 737.702 718.038 713.984 712.572
threshold=5.5000000000000009 1.5000000000000002 16.500000000000004 1.3968576788902285 1.0000000180025095e-35 3.2351002693176274 598.98437500000011 15.500000000000002 3.5000000000000004 0.42910599708557134 10.500000000000002 28.500000000000004 0.51803541183471691 0.4078506082296372 1.0000000180025095e-35 3497.5000000000005 1.2475786805152895 2.3158977031707768 2.3158977031707768 5.3806252479553232 0.4078506082296372 3225.5000000000005 1.0000000180025095e-35 0.41577447950840002 23.500000000000004 421.50000000000006 1.0000000180025095e-35 0.21503548324108127 1.0000000180025095e-35 27.500000000000004 1.0000000180025095e-35 0.2998995184898377 1.0000000180025095e-35 23.500000000000004 1.0000000180025095e-35 0.01019312907010317 3340.5000000000005 3.5000000000000004 0.41577447950840002 0.52394381165504467 0.75386175513267528 0.12488728016614915 2.1843923330307011 0.23726923018693927 2.0191701650619511 1.0000000180025095e-35 1.0000000180025095e-35 0.00085091512301005434 1.0000000180025095e-35 0.41577447950840002 0.0036274277372285728 0.4078506082296372 23.500000000000004 0.08335923403501512 2509.0000000000005 0.41781134903430944 1.0000000180025095e-35 1.0000000180025095e-35 26.500000000000004 1.9784580469131472 1.5000000000000002 0.41577447950840002 0.51803541183471691 0.038874589838087566 7.5000000000000009 0.66513207554817211 1.0356933474540713 0.4196308702230454 17.500000000000004 30.500000000000004 0.063034985214471831 1.1228567957878115 0.1610287353396416 0.21637441217899325 1.6092575788497927 1.0000000180025095e-35 0.21503548324108127 0.0040142512880265721 0.20749457180500033 0.70284515619277965 0.27106772363185888 3.928659319877625 0.82929185032844555 0.038782399147748954 0.87475359439849865 1.0000000180025095e-35 1.0000000180025095e-35 0.26004050672054296 0.68701347708702099 18.500000000000004 0.23448650538921359 3.0240525007247929 2931.4074707031255 2.1843923330307011 0.0063124452717602262 0.27540065348148351 471.11326599121099 2.5000000000000004 698.50000000000011 1.4790294766426089 0.80268818140029918 0.25158372521400457 1.9784580469131472 0.00094875338254496466 0.41573621332645422 0.43191359937191015 0.0086849115323275345 2.5000000000000004 0.38989742100238806 1.3219789707363818e-06 0.42100499570369726 0.39378839731216436 1.0000000180025095e-35 3324.5000000000005 0.66513207554817211 1.0000000180025095e-35 29.500000000000004 0.52148428559303295 481.00000000000006 0.45727492868900305 0.50194764137268078 0.35636781156063085 6.4591276895953356e-05 0.24339704215526584 1.5000000000000002 0.0019844168564304714 0.00020025694539071995
decision_type=2 2 2 2 2 2 2 2 2 2 2 2 2 2 2 2 2 2 2 2 2 2 2 2 2 2 2 2 2 2 2 2 2 2 2 2 2 2 2 2 2 2 2 2 2 2 2 2 2 2 2 2 2 2 2 2 2 2 2 2 2 2 2 2 2 2 2 2 2 2 2 2 2 2 2 2 2 2 2 2 2 2 2 2 2 2 2 2 2 2 2 2 2 2 2 2 2 2 2 2 2 2 2 2 2 2 2 2 2 2 2 2 2 2 2 2 2 2 2 2 2 2 2 2 2 2 2
left_child=1 3 10 9 5 12 77 25 16 20 18 27 24 34 21 31 36 46 49 57 48 26 51 64 35 38 29 60 58 32 37 47 66 -19 52 70 114 83 39 71 -34 -22 105 -9 118 89 67 104 72 50 62 91 79 -50 75 85 -57 -13 -6 -37 -8 107 -2 -21 -20 -64 110 96 -16 -56 73 -4 -1 -5 -35 76 -26 125 -65 -11 92 -40 102 99 -43 -38 -58 -67 -42 -36 -60 -18 -81 -73 119 126 -12 -24 -46 111 -31 -54 -51 -78 -14 -32 -66 -30 -101 122 -15 -10 120 -63 115 -3 -105 -108 -41 -95 -113 -25 123 -75 -53 -7 -33
right_child=2 8 7 4 28 6 11 43 30 13 17 19 15 14 68 -17 22 33 23 63 41 -23 97 121 54 -27 -28 -29 61 100 42 95 40 74 45 59 55 -39 81 44 88 84 -44 -45 98 -47 -48 -49 53 82 -52 124 101 -55 69 56 86 -59 90 -61 -62 113 65 78 106 87 -68 -69 -70 -71 -72 93 -74 109 -76 -77 103 -79 -80 80 -82 -83 -84 -85 -86 -87 -88 -89 -90 -91 -92 -93 -94 94 -96 -97 -98 -99 -100 108 -102 -103 -104 116 -106 -107 117 -109 -110 -111 -112 112 -114 -115 -116 -117 -118 -119 -120 -121 -122 -123 -124 -125 -126 -127 -128
leaf_value=-0.0063572184047717833 0.056734088013419282 0.0057860219859520688 0.26840866646976791 0.049295012410961271 -0.0025637781862585351 0.06745373821319367 0.20682937582856731 0.42958300798039584 0.026785981941565038 0.0074063750433617506 0.14525183580883563 0.14495299018171959 0.12727540027655537 0.040908042613448777 0.0030763729319448524 -0.010033672469701032 0.024688933512046863 0.33698385771312939 0.10049230350153733 0.18132653244569877 -0.0033813662868243622 -0.00050276464520536391 0.062643127539864049 0.19761848160708767 0.015761494031368176 0.36461806562449783 0.019397904865510684 0.42835571924190624 0.014123736655983255 0.032526366289380416 0.066278721110997529 0.23884294657954355 0.10184937088848416 0.18170291883171261 -0.0042281156156008847 0.094694163026480829 0.016266259528955787 0.074839107357246581 0.2651535167580843 0.23872415269859823 0.15889129618544187 0.001035377697924665 0.15151429264922628 0.30980304259053199 0.36274555068405773 0.0046335311734573394 0.23264996133196436 0.20719845298002473 -0.00094274607983026724 0.092024205739347179 0.1364816795714659 0.12041618178403654 0.00034955086390922287 0.046704620008535661 0.14214835017108091 0.078660914536976614 0.027171283822191319 0.016821295462925979 0.0047376354253236084 0.238628874237233 0.34310991456118711 0.040252959790751337 0.056027177403345702 0.22206218690253221 0.17370229513953808 0.14691987958466504 0.13341764760428076 0.20131826851480078 0.015751464723390056 0.033814569352930333 -0.0039054002360470832 0.090641621360802976 -0.0044551246379864696 0.090306340297328605 0.262975186979366 -0.0037944194574929552 0.036085698142362357 0.14268699379381306 0.33423927531009767 0.029066218556069626 0.0075913083369162186 0.37776057760966453 0.19841424134207067 0.10333232511269959 0.0078662861584267076 0.069764569072022789 0.060690323386352461 0.090303535422825321 0.26257294611331139 6.3343833660581699e-06 0.015803085823043597 0.04075614058095034 0.078557062098961405 0.18561353330189984 0.22225475806282477 0.29783426550845071 0.09937607343824717 0.10102180808560265 0.27024795806177909 0.04755270624307377 0.073860640676062114 0.0079112157347550633 0.17054308563056919 0.11566624306003327 0.040132922645561495 0.13717185144844485 0.10374390233896301 0.027773680078226774 0.078127650862047301 0.049382746123451352 0.098731373086852092 0.043136771728148622 0.040570566697025676 0.1098318629780414 0.016791521310864581 0.039972112677919953 0.04702885465319423 0.15966977549732569 0.15846250136287207 0.098271060333112781 0.11083867427733 0.28243887456563804 0.073568820937746957 0.17992864922262794 0.048572244450679321 -0.010017573450331706 0.15158995636797451
leaf_count=889876 3172 17328 128 967 18006 490 152 737 3539 10107 639 228 183 1052 20894 311 15074 219 2009 206 121837 2210 1548 252 3198 240 2336 330 17939 2014 1233 205 617 772 136808 145 13220 3554 250 228 201 79488 528 173 130 46197 186 160 74079 631 462 129 41610 698 202 725 9179 158 21714 141 167 1750 1125 156 487 355 249 202 13261 238 248 141 534563 131 232 1347 1772 167 205 3766 2557 133 161 304 31348 372 1004 2374 163 87376 12068 4698 418 207 267 129 1085 913 406 4093 612 21006 162 268 231 176 587 5293 1007 194 279 267 3819 161 12778 704 331 355 202 159 326 143 186 224 4252 137 143
internal_value=0 -0.039201 4.77305 -0.0858138 0.639277 2.48569 6.42494 9.5862 0.9858 -0.11661 3.7244 8.45435 1.62405 0.0612018 0.508454 4.20103 0.783744 5.59383 3.21649 6.16373 -0.157035 1.35721 1.22104 4.29821 1.25813 8.13436 1.76084 11.8179 0.318865 2.26265 1.86414 5.54312 3.14174 7.49753 0.00509406 2.52646 0.573328 1.71129 7.7058 7.20632 4.67474 -0.0119027 3.19848 13.5604 8.396 -0.0448542 4.49145 3.81614 -0.179559 2.72535 2.54889 1.08433 0.175046 -0.0165995 0.872598 0.8277 1.12262 3.08351 0.159253 5.52183 9.27246 0.647625 2.41735 8.26067 3.91761 2.85044 2.18992 4.17628 0.266587 2.78499 2.08714 5.93222 -0.188113 2.41023 6.68277 0.750931 0.963154 2.33034 9.52546 0.468043 0.79964 10.1419 4.11041 1.50282 0.0989126 0.591015 1.01587 3.25561 6.84401 -0.0859244 0.289685 0.950221 1.13369 5.43366 5.97099 7.6213 3.87933 2.5627 9.75607 1.4576 1.40532 0.0962096 3.60215 1.55362 2.62175 2.50447 4.71597 0.574454 1.78633 3.41942 1.76763 1.24674 1.5306 1.53716 0.371051 0.237357 2.59127 4.16067 6.70066 4.92232 2.67852 7.61085 4.05533 4.89523 1.68959 1.68421 6.7663
internal_count=2335684 2316673 19011 2215903 90281 13350 2396 3401 100770 2125622 15610 1602 10954 393733 43888 1362 81924 3335 12275 953 1731889 9733 26614 3833 9592 2491 7523 649 76931 5187 18846 1051 2561 1223 349845 2236 55310 16909 2251 1868 981 232673 1937 910 966 270381 2112 574 1499216 8442 7488 24153 79464 74777 7356 24500 10908 386 51788 286 319 25143 7026 567 3438 3854 1580 1926 34155 440 1950 902 1424439 1702 1004 6916 5569 794 361 16848 6741 383 954 13355 110836 13592 10183 2729 364 224184 33782 19772 4184 774 633 477 1724 2461 536 13051 2626 62616 793 2371 414 1409 1429 23232 5100 735 1331 7951 4412 1911 30810 18032 599 942 430 366 593 395 541 355 4381 627 348
shrinkage=0.03


Tree=9
num_leaves=128
num_cat=0
split_feature=7 7 7 8 28 7 7 4 8 29 72 0 14 10 2 24 14 42 0 103 2 70 52 10 103 10 103 13 104 103 52 91 16 10 17 4 29 4 2 72 8 73 0 2 89 63 9 79 43 15 65 67 13 15 103 8 14 69 13 8 8 13 81 72 14 72 2 10 13 72 8 10 15 13 7 9 15 17 34 10 10 13 73 52 103 8 14 14 10 70 52 13 8 0 8 13 69 2 0 10 15 4 103 35 7 103 69 8 38 43 15 13 103 10 7 63 78 69 0 0 2 4 4 0 0 52 10
split_gain=409658 104886 89174.8 23153.6 18375.7 16488.3 13233.9 8772.54 18617 8723.32 8146.78 8154.39 7431.69 7268.73 6999.07 6494.47 6460.03 5305.24 5044.35 4421.05 4312.52 8053.58 4292.76 3538.05 3302.76 3235.44 3540.08 3302.9 3051.48 2892.01 2984.03 2881.33 2849.53 2847.78 2785.68 2716.91 4621.37 5597 12871.8 16633.3 9891.72 4016.89 3294.59 4938.17 4078.88 3154.48 2666.99 2391.82 2371.28 2396.27 2317.16 2469.8 2278.36 2902.9 2269.82 2265.04 2159.61 2077.7 2054.9 1918.64 1793.09 1783.46 1774.12 1716.68 1679.58 1661.26 1632.11 1590.51 1855.34 1551.77 1538.46 1528.55 1684.21 1495.72 1475.85 1439.85 1339.35 1249.08 1193.4 1184.18 1179.11 1167.33 1148.39 1138.18 1125.43 1244.05 1101.61 1094.66 1093.97 1075.95 1067.55 1353.03 1059 992.648 964.884 1020.36 963.565 963.175 1401.59 952.818 1175.72 945.555 903.997 886.913 871.384 865.131 862.861 860.27 969.564 858.859 970.753 844.742 835.289 817.32 815.793 814.679 760.162 743.741 742.847 741.853 1761.29 1196.84 732.786 1759.03 731.503 730.775 785.299
